{"learner":{"attributes":{"best_iteration":"189","best_ntree_limit":"190","scikit_learn":"{\"use_label_encoder\": false, \"n_estimators\": 190, \"objective\": \"binary:logistic\", \"max_depth\": 3, \"max_leaves\": null, \"max_bin\": null, \"grow_policy\": null, \"learning_rate\": 0.1, \"verbosity\": null, \"booster\": null, \"tree_method\": null, \"gamma\": 0.7, \"min_child_weight\": 1, \"max_delta_step\": null, \"subsample\": 1, \"sampling_method\": null, \"colsample_bytree\": 1, \"colsample_bylevel\": null, \"colsample_bynode\": null, \"reg_alpha\": 1, \"reg_lambda\": 1, \"scale_pos_weight\": null, \"base_score\": null, \"missing\": NaN, \"num_parallel_tree\": null, \"random_state\": null, \"n_jobs\": 12, \"monotone_constraints\": null, \"interaction_constraints\": null, \"importance_type\": null, \"gpu_id\": null, \"validate_parameters\": null, \"predictor\": null, \"enable_categorical\": false, \"max_cat_to_onehot\": null, \"eval_metric\": null, \"early_stopping_rounds\": null, \"callbacks\": null, \"kwargs\": {\"seed\": 1234}, \"classes_\": [0, 1], \"n_classes_\": 2, \"_estimator_type\": \"classifier\"}"},"feature_names":[],"feature_types":[],"gradient_booster":{"model":{"gbtree_model_param":{"num_parallel_tree":"1","num_trees":"190","size_leaf_vector":"0"},"tree_info":[0,0,0,0,0,0,0,0,0,0,0,0,0,0,0,0,0,0,0,0,0,0,0,0,0,0,0,0,0,0,0,0,0,0,0,0,0,0,0,0,0,0,0,0,0,0,0,0,0,0,0,0,0,0,0,0,0,0,0,0,0,0,0,0,0,0,0,0,0,0,0,0,0,0,0,0,0,0,0,0,0,0,0,0,0,0,0,0,0,0,0,0,0,0,0,0,0,0,0,0,0,0,0,0,0,0,0,0,0,0,0,0,0,0,0,0,0,0,0,0,0,0,0,0,0,0,0,0,0,0,0,0,0,0,0,0,0,0,0,0,0,0,0,0,0,0,0,0,0,0,0,0,0,0,0,0,0,0,0,0,0,0,0,0,0,0,0,0,0,0,0,0,0,0,0,0,0,0,0,0,0,0,0,0,0,0,0,0,0,0],"trees":[{"base_weights":[-2.835821E-1,5.263158E-1,-7.344633E-1,1.1304348E0,-0E0,-0E0,-1.032258E0,-0E0,1.4444444E0,-5.3333336E-1,5.185185E-1,2.7272728E-1,-8.235294E-1,-0E0,-1.1304348E0],"categories":[],"categories_nodes":[],"categories_segments":[],"categories_sizes":[],"default_left":[1,1,1,1,1,1,1,0,0,0,0,0,0,0,0],"id":0,"left_children":[1,3,5,7,9,11,13,-1,-1,-1,-1,-1,-1,-1,-1],"loss_changes":[2.5060944E1,8.116705E0,9.162201E0,4.0821266E0,3.9481483E0,3.7005346E0,3.7068748E0,0E0,0E0,0E0,0E0,0E0,0E0,0E0,0E0],"parents":[2147483647,0,0,1,1,2,2,3,3,4,4,5,5,6,6],"right_children":[2,4,6,8,10,12,14,-1,-1,-1,-1,-1,-1,-1,-1],"split_conditions":[4.7755E2,7.817E2,3.129E2,7.0194995E2,8.21E2,7.7865E2,6.9494995E2,-0E0,1.4444445E-1,-5.333334E-2,5.185185E-2,2.727273E-2,-8.235294E-2,-0E0,-1.1304348E-1],"split_indices":[4,1,5,7,1,10,7,0,0,0,0,0,0,0,0],"split_type":[0,0,0,0,0,0,0,0,0,0,0,0,0,0,0],"sum_hessian":[6.6E1,2.275E1,4.325E1,1.05E1,1.225E1,1.325E1,3E1,2.5E0,8E0,6.5E0,5.75E0,1E1,3.25E0,2.25E0,2.775E1],"tree_param":{"num_deleted":"0","num_feature":"16","num_nodes":"15","size_leaf_vector":"0"}},{"base_weights":[-2.5393564E-1,4.808011E-1,-6.652054E-1,1.0338646E0,-0E0,-0E0,-9.338385E-1,-0E0,1.3223822E0,-4.874222E-1,4.746299E-1,4.74538E-1,-4.9333292E-1,-0E0,-1.0459886E0],"categories":[],"categories_nodes":[],"categories_segments":[],"categories_sizes":[],"default_left":[1,1,1,1,1,1,1,0,0,0,0,0,0,0,0],"id":1,"left_children":[1,3,5,7,9,11,13,-1,-1,-1,-1,-1,-1,-1,-1],"loss_changes":[2.0705877E1,6.7689185E0,7.418392E0,3.4179106E0,3.3004818E0,3.577876E0,3.5917149E0,0E0,0E0,0E0,0E0,0E0,0E0,0E0,0E0],"parents":[2147483647,0,0,1,1,2,2,3,3,4,4,5,5,6,6],"right_children":[2,4,6,8,10,12,14,-1,-1,-1,-1,-1,-1,-1,-1],"split_conditions":[4.7755E2,7.817E2,3.129E2,7.0194995E2,8.21E2,5.1055E2,3.2085E2,-0E0,1.3223822E-1,-4.874222E-2,4.7462992E-2,4.7453802E-2,-4.9333293E-2,-0E0,-1.0459886E-1],"split_indices":[4,1,5,7,1,4,9,0,0,0,0,0,0,0,0],"split_type":[0,0,0,0,0,0,0,0,0,0,0,0,0,0,0],"sum_hessian":[6.58541E1,2.2699934E1,4.315417E1,1.0458416E1,1.2241517E1,1.3242637E1,2.9911533E1,2.5E0,7.9584165E0,6.4953804E0,5.7461367E0,6.24733E0,6.995306E0,2.990436E0,2.6921099E1],"tree_param":{"num_deleted":"0","num_feature":"16","num_nodes":"15","size_leaf_vector":"0"}},{"base_weights":[-2.2745617E-1,2.7119207E-1,-7.342573E-1,-1.20674565E-1,9.1610706E-1,-0E0,-9.3709004E-1,7.43565E-1,-3.3474636E-1,1.2482191E0,-0E0,6.653504E-1,-3.7193567E-1,-0E0,-1.1926538E0],"categories":[],"categories_nodes":[],"categories_segments":[],"categories_sizes":[],"default_left":[1,1,1,1,1,1,1,0,0,0,0,0,0,0,0],"id":2,"left_children":[1,3,5,7,9,11,13,-1,-1,-1,-1,-1,-1,-1,-1],"loss_changes":[1.7466084E1,9.30944E0,5.2749214E0,3.6518302E0,4.775038E0,2.3345366E0,6.2422276E0,0E0,0E0,0E0,0E0,0E0,0E0,0E0,0E0],"parents":[2147483647,0,0,1,1,2,2,3,3,4,4,5,5,6,6],"right_children":[2,4,6,8,10,12,14,-1,-1,-1,-1,-1,-1,-1,-1],"split_conditions":[4.9205E2,6.7025E2,1.42145E3,6.921E2,3.9725E2,6.1385E2,7.511E2,7.4356504E-2,-3.3474635E-2,1.24821916E-1,-0E0,6.653504E-2,-3.7193567E-2,-0E0,-1.1926538E-1],"split_indices":[4,12,14,10,2,12,7,0,0,0,0,0,0,0,0],"split_type":[0,0,0,0,0,0,0,0,0,0,0,0,0,0,0],"sum_hessian":[6.549334E1,3.2251953E1,3.3241383E1,1.960298E1,1.2648974E1,7.211901E0,2.6029482E1,2.473267E0,1.7129713E1,9.41684E0,3.232134E0,2.4834244E0,4.728477E0,5.9542937E0,2.007519E1],"tree_param":{"num_deleted":"0","num_feature":"16","num_nodes":"15","size_leaf_vector":"0"}},{"base_weights":[-2.0446E-1,5.654505E-1,-4.9824837E-1,1.2073843E0,-0E0,2.7127331E-1,-7.55479E-1,-0E0,1.3628192E0,-3.0238602E-1,7.532326E-1,8.4335214E-1,-1.6838938E-1,-0E0,-9.1731685E-1],"categories":[],"categories_nodes":[],"categories_segments":[],"categories_sizes":[],"default_left":[1,1,1,1,1,1,1,0,0,0,0,0,0,0,0],"id":3,"left_children":[1,3,5,7,9,11,13,-1,-1,-1,-1,-1,-1,-1,-1],"loss_changes":[1.5165483E1,7.2655096E0,1.0450659E1,1.2615738E0,2.1801376E0,3.8645377E0,4.9472923E0,0E0,0E0,0E0,0E0,0E0,0E0,0E0,0E0],"parents":[2147483647,0,0,1,1,2,2,3,3,4,4,5,5,6,6],"right_children":[2,4,6,8,10,12,14,-1,-1,-1,-1,-1,-1,-1,-1],"split_conditions":[7.1725E2,3.298E2,1.06315E3,4.793E2,4.287E2,3.8125E2,7.835E2,-0E0,1.3628192E-1,-3.0238602E-2,7.532326E-2,8.4335215E-2,-1.6838938E-2,-0E0,-9.173169E-2],"split_indices":[10,9,3,8,6,6,1,0,0,0,0,0,0,0,0],"split_type":[0,0,0,0,0,0,0,0,0,0,0,0,0,0,0],"sum_hessian":[6.5098854E1,1.6784473E1,4.8314384E1,7.884634E0,8.899839E0,1.1116504E1,3.719788E1,1.23182E0,6.6528144E0,7.4131174E0,1.4867218E0,5.4201813E0,5.696322E0,6.4098573E0,3.0788023E1],"tree_param":{"num_deleted":"0","num_feature":"16","num_nodes":"15","size_leaf_vector":"0"}},{"base_weights":[-1.8068813E-1,4.465778E-1,-4.9500427E-1,-2.6395077E-1,7.5305796E-1,-7.336136E-1,1.761858E-2,-0E0,-5.604172E-1,-0E0,8.9328444E-1,5.0532397E-2,-8.8065135E-1,8.315238E-1,-2.3125459E-1],"categories":[],"categories_nodes":[],"categories_segments":[],"categories_sizes":[],"default_left":[1,1,1,1,1,1,1,0,0,0,0,0,0,0,0],"id":4,"left_children":[1,3,5,7,9,11,13,-1,-1,-1,-1,-1,-1,-1,-1],"loss_changes":[1.3203491E1,5.3398633E0,6.2624035E0,8.9581907E-1,2.3608198E0,4.59009E0,3.6313076E0,0E0,0E0,0E0,0E0,0E0,0E0,0E0,0E0],"parents":[2147483647,0,0,1,1,2,2,3,3,4,4,5,5,6,6],"right_children":[2,4,6,8,10,12,14,-1,-1,-1,-1,-1,-1,-1,-1],"split_conditions":[4.7234998E2,7.183E2,1.9204999E2,3.884E2,3.34E2,3.2085E2,6.1895E2,-0E0,-5.6041718E-2,-0E0,8.9328445E-2,5.05324E-3,-8.806514E-2,8.3152376E-2,-2.312546E-2],"split_indices":[4,15,0,6,6,9,12,0,0,0,0,0,0,0,0],"split_type":[0,0,0,0,0,0,0,0,0,0,0,0,0,0,0],"sum_hessian":[6.460165E1,2.0362621E1,4.423902E1,5.19491E0,1.5167711E1,3.1224625E1,1.3014397E1,1.9683703E0,3.2265396E0,1.7189794E0,1.3448731E1,3.9602323E0,2.7264393E1,3.440307E0,9.57409E0],"tree_param":{"num_deleted":"0","num_feature":"16","num_nodes":"15","size_leaf_vector":"0"}},{"base_weights":[-1.6242035E-1,5.199781E-1,-4.2651528E-1,1.0940158E0,-0E0,2.4130149E-1,-6.557997E-1,-0E0,1.2556219E0,-2.5709012E-1,6.9830865E-1,7.603468E-1,-1.3985644E-1,-0E0,-8.019218E-1],"categories":[],"categories_nodes":[],"categories_segments":[],"categories_sizes":[],"default_left":[1,1,1,1,1,1,1,0,0,0,0,0,0,0,0],"id":5,"left_children":[1,3,5,7,9,11,13,-1,-1,-1,-1,-1,-1,-1,-1],"loss_changes":[1.1856363E1,5.6960344E0,8.002863E0,1.4111881E0,1.759645E0,3.104543E0,3.895134E0,0E0,0E0,0E0,0E0,0E0,0E0,0E0,0E0],"parents":[2147483647,0,0,1,1,2,2,3,3,4,4,5,5,6,6],"right_children":[2,4,6,8,10,12,14,-1,-1,-1,-1,-1,-1,-1,-1],"split_conditions":[7.1725E2,3.298E2,1.06315E3,1.3411001E3,4.287E2,3.8125E2,7.835E2,-0E0,1.2556219E-1,-2.5709013E-2,6.9830865E-2,7.603468E-2,-1.3985644E-2,-0E0,-8.019218E-2],"split_indices":[10,9,3,14,6,6,1,0,0,0,0,0,0,0,0],"split_type":[0,0,0,0,0,0,0,0,0,0,0,0,0,0,0],"sum_hessian":[6.4077E1,1.6552181E1,4.7524826E1,7.724204E0,8.827976E0,1.1018472E1,3.650635E1,1.2061046E0,6.5181E0,7.3514214E0,1.4765551E0,5.355001E0,5.6634707E0,6.3661284E0,3.0140224E1],"tree_param":{"num_deleted":"0","num_feature":"16","num_nodes":"15","size_leaf_vector":"0"}},{"base_weights":[-1.431424E-1,4.8335814E-1,-3.877649E-1,1.0180978E0,-0E0,2.1511352E-1,-5.9892124E-1,-0E0,1.1704601E0,4.0841445E-1,-3.6487424E-1,-2.8167802E-1,5.9090984E-1,-0E0,-7.353646E-1],"categories":[],"categories_nodes":[],"categories_segments":[],"categories_sizes":[],"default_left":[1,1,1,1,1,1,1,0,0,0,0,0,0,0,0],"id":6,"left_children":[1,3,5,7,9,11,13,-1,-1,-1,-1,-1,-1,-1,-1],"loss_changes":[9.963276E0,4.831016E0,6.6265135E0,1.2084808E0,1.5957797E0,2.7094822E0,3.304656E0,0E0,0E0,0E0,0E0,0E0,0E0,0E0,0E0],"parents":[2147483647,0,0,1,1,2,2,3,3,4,4,5,5,6,6],"right_children":[2,4,6,8,10,12,14,-1,-1,-1,-1,-1,-1,-1,-1],"split_conditions":[7.1725E2,3.298E2,1.06315E3,1.3411001E3,4.7234998E2,7.2215E2,7.835E2,-0E0,1.1704601E-1,4.0841445E-2,-3.6487427E-2,-2.8167803E-2,5.9090983E-2,-0E0,-7.353646E-2],"split_indices":[10,9,3,14,4,15,1,0,0,0,0,0,0,0,0],"split_type":[0,0,0,0,0,0,0,0,0,0,0,0,0,0,0],"sum_hessian":[6.3411385E1,1.638473E1,4.7026657E1,7.579354E0,8.805376E0,1.0965157E1,3.60615E1,1.2061046E0,6.373249E0,3.6697085E0,5.1356673E0,3.6841948E0,7.280962E0,6.3661284E0,2.969537E1],"tree_param":{"num_deleted":"0","num_feature":"16","num_nodes":"15","size_leaf_vector":"0"}},{"base_weights":[-1.2684566E-1,-4.650677E-1,2.7543792E-1,1.591605E-2,-6.368752E-1,7.158812E-1,-1.4998245E-1,-3.0139074E-1,7.612982E-1,-0E0,-8.0627924E-1,8.5772586E-1,-0E0,-7.4741954E-1,3.7509945E-1],"categories":[],"categories_nodes":[],"categories_segments":[],"categories_sizes":[],"default_left":[1,1,1,1,1,1,1,0,0,0,0,0,0,0,0],"id":7,"left_children":[1,3,5,7,9,11,13,-1,-1,-1,-1,-1,-1,-1,-1],"loss_changes":[8.98247E0,3.632321E0,5.987997E0,2.818539E0,3.3403988E0,1.9790664E0,5.075927E0,0E0,0E0,0E0,0E0,0E0,0E0,0E0,0E0],"parents":[2147483647,0,0,1,1,2,2,3,3,4,4,5,5,6,6],"right_children":[2,4,6,8,10,12,14,-1,-1,-1,-1,-1,-1,-1,-1],"split_conditions":[4.893E2,7.404E2,7.2215E2,3.5090002E2,1.4252E3,5.1185E2,1.8854999E2,-3.0139074E-2,7.612982E-2,-0E0,-8.0627926E-2,8.577259E-2,-0E0,-7.474195E-2,3.7509944E-2],"split_indices":[8,7,10,9,14,4,0,0,0,0,0,0,0,0,0],"split_type":[0,0,0,0,0,0,0,0,0,0,0,0,0,0,0],"sum_hessian":[6.268269E1,3.5318344E1,2.7364346E1,8.002325E0,2.7316017E1,1.4264242E1,1.3100103E1,5.089713E0,2.9126122E0,5.5103335E0,2.1805683E1,1.2323176E1,1.9410658E0,6.820633E0,6.279471E0],"tree_param":{"num_deleted":"0","num_feature":"16","num_nodes":"15","size_leaf_vector":"0"}},{"base_weights":[-1.1402459E-1,2.0983635E-1,-4.6315756E-1,-6.787453E-2,6.9739664E-1,-6.221007E-1,1.3817814E-1,-8.679653E-1,4.919112E-4,1.0047213E0,-0E0,-7.5837676E-3,-9.314436E-1,9.1942006E-1,-1.183496E-1],"categories":[],"categories_nodes":[],"categories_segments":[],"categories_sizes":[],"default_left":[1,1,1,1,1,1,1,0,0,0,0,0,0,0,0],"id":8,"left_children":[1,3,5,7,9,11,13,-1,-1,-1,-1,-1,-1,-1,-1],"loss_changes":[7.4742045E0,4.9942937E0,3.6394625E0,1.9574907E0,3.1981578E0,4.16728E0,2.1558468E0,0E0,0E0,0E0,0E0,0E0,0E0,0E0,0E0],"parents":[2147483647,0,0,1,1,2,2,3,3,4,4,5,5,6,6],"right_children":[2,4,6,8,10,12,14,-1,-1,-1,-1,-1,-1,-1,-1],"split_conditions":[4.9205E2,6.7025E2,8.1985E2,3.435E2,3.8535E2,7.5595E2,3.4965002E2,-8.679653E-2,4.919112E-5,1.0047213E-1,-0E0,-7.583768E-4,-9.314436E-2,9.1942005E-2,-1.18349595E-2],"split_indices":[4,12,7,6,6,7,9,0,0,0,0,0,0,0,0],"split_type":[0,0,0,0,0,0,0,0,0,0,0,0,0,0,0],"sum_hessian":[6.200223E1,3.0886341E1,3.111589E1,1.891962E1,1.1966722E1,2.5898827E1,5.217064E0,1.7201402E0,1.719948E1,8.415562E0,3.5511599E0,1.0097359E1,1.5801469E1,1.6144519E0,3.602612E0],"tree_param":{"num_deleted":"0","num_feature":"16","num_nodes":"15","size_leaf_vector":"0"}},{"base_weights":[-1.0439759E-1,-4.025015E-1,2.4308528E-1,-0E0,-6.225623E-1,6.474763E-1,-1.3865449E-1,-8.2768E-1,4.8513958E-1,-8.809511E-1,-0E0,9.784336E-1,7.712158E-2,5.6509185E-1,-5.5825925E-1],"categories":[],"categories_nodes":[],"categories_segments":[],"categories_sizes":[],"default_left":[1,1,1,1,1,1,1,0,0,0,0,0,0,0,0],"id":9,"left_children":[1,3,5,7,9,11,13,-1,-1,-1,-1,-1,-1,-1,-1],"loss_changes":[6.725198E0,3.3179493E0,4.9066133E0,5.5759764E0,3.361496E0,1.7003818E0,4.4152966E0,0E0,0E0,0E0,0E0,0E0,0E0,0E0,0E0],"parents":[2147483647,0,0,1,1,2,2,3,3,4,4,5,5,6,6],"right_children":[2,4,6,8,10,12,14,-1,-1,-1,-1,-1,-1,-1,-1],"split_conditions":[4.893E2,4.4665002E2,7.2215E2,4.1915002E2,1.1272E3,5.177E2,1.0638501E3,-8.2768E-2,4.851396E-2,-8.809511E-2,-0E0,9.7843364E-2,7.712158E-3,5.6509186E-2,-5.5825926E-2],"split_indices":[8,8,10,8,3,8,3,0,0,0,0,0,0,0,0],"split_type":[0,0,0,0,0,0,0,0,0,0,0,0,0,0,0],"sum_hessian":[6.1440285E1,3.453359E1,2.6906696E1,1.2120188E1,2.24134E1,1.3999731E1,1.2906965E1,4.009282E0,8.110906E0,1.5024424E1,7.3889775E0,7.296845E0,6.7028866E0,3.801427E0,9.105538E0],"tree_param":{"num_deleted":"0","num_feature":"16","num_nodes":"15","size_leaf_vector":"0"}},{"base_weights":[-9.2717886E-2,2.8809893E-1,-3.3501E-1,-3.073607E-1,6.2364674E-1,2.9863602E-1,-5.10862E-1,2.7958488E-1,-6.0519826E-1,9.8695827E-1,-0E0,7.9417646E-1,-0E0,2.885461E-1,-6.3437986E-1],"categories":[],"categories_nodes":[],"categories_segments":[],"categories_sizes":[],"default_left":[1,1,1,1,1,1,1,0,0,0,0,0,0,0,0],"id":10,"left_children":[1,3,5,7,9,11,13,-1,-1,-1,-1,-1,-1,-1,-1],"loss_changes":[5.8559027E0,5.1048017E0,4.811274E0,1.8736906E0,3.6477585E0,1.8350223E0,3.771556E0,0E0,0E0,0E0,0E0,0E0,0E0,0E0,0E0],"parents":[2147483647,0,0,1,1,2,2,3,3,4,4,5,5,6,6],"right_children":[2,4,6,8,10,12,14,-1,-1,-1,-1,-1,-1,-1,-1],"split_conditions":[3.1290002E2,7.0905E2,3.2085E2,1.39825E3,7.4330005E2,7.905E2,4.4885E2,2.7958488E-2,-6.0519826E-2,9.869583E-2,-0E0,7.9417646E-2,-0E0,2.8854609E-2,-6.343799E-2],"split_indices":[5,15,9,14,10,1,4,0,0,0,0,0,0,0,0],"split_type":[0,0,0,0,0,0,0,0,0,0,0,0,0,0,0],"sum_hessian":[6.0911167E1,2.2006567E1,3.89046E1,6.887638E0,1.5118929E1,7.064461E0,3.1840137E1,1.20894E0,5.678698E0,9.180797E0,5.938133E0,3.0497434E0,4.0147176E0,2.9989393E0,2.88412E1],"tree_param":{"num_deleted":"0","num_feature":"16","num_nodes":"15","size_leaf_vector":"0"}},{"base_weights":[-7.921408E-2,1.8783054E-1,-3.7700725E-1,-3.8375142E-1,3.9979318E-1,-5.328694E-1,1.8096747E-1,2.8455842E-1,-8.793311E-1,-0E0,8.0695456E-1,-0E0,-8.27982E-1,8.749825E-1,-4.320751E-2],"categories":[],"categories_nodes":[],"categories_segments":[],"categories_sizes":[],"default_left":[1,1,1,1,1,1,1,0,0,0,0,0,0,0,0],"id":11,"left_children":[1,3,5,7,9,11,13,-1,-1,-1,-1,-1,-1,-1,-1],"loss_changes":[5.120418E0,3.9397893E0,3.1442142E0,3.3795156E0,3.449495E0,3.596613E0,1.8208054E0,0E0,0E0,0E0,0E0,0E0,0E0,0E0,0E0],"parents":[2147483647,0,0,1,1,2,2,3,3,4,4,5,5,6,6],"right_children":[2,4,6,8,10,12,14,-1,-1,-1,-1,-1,-1,-1,-1],"split_conditions":[4.9205E2,1.755E2,8.1985E2,7.1944995E2,6.702E2,7.5595E2,3.4965002E2,2.8455842E-2,-8.7933116E-2,-0E0,8.069546E-2,-0E0,-8.2798205E-2,8.749825E-2,-4.3207514E-3],"split_indices":[4,0,7,10,12,7,9,0,0,0,0,0,0,0,0],"split_type":[0,0,0,0,0,0,0,0,0,0,0,0,0,0,0],"sum_hessian":[6.0118954E1,3.0120111E1,2.9998842E1,6.652524E0,2.3467587E1,2.4884819E1,5.114023E0,2.154738E0,4.497786E0,1.3164551E1,1.0303036E1,9.917295E0,1.4967524E1,1.6288879E0,3.4851356E0],"tree_param":{"num_deleted":"0","num_feature":"16","num_nodes":"15","size_leaf_vector":"0"}},{"base_weights":[-7.014549E-2,-3.239529E-1,2.1815605E-1,-0E0,-5.9033716E-1,4.6416724E-1,-3.4013006E-1,3.195814E-1,-8.105503E-1,-7.6117325E-1,-0E0,6.47183E-1,-5.5582747E-2,1.0763319E-1,-7.488672E-1],"categories":[],"categories_nodes":[],"categories_segments":[],"categories_sizes":[],"default_left":[1,1,1,1,1,1,1,0,0,0,0,0,0,0,0],"id":12,"left_children":[1,3,5,7,9,11,13,-1,-1,-1,-1,-1,-1,-1,-1],"loss_changes":[4.598985E0,2.8561528E0,3.9970367E0,4.713433E0,2.2234392E0,2.5720797E0,2.1141396E0,0E0,0E0,0E0,0E0,0E0,0E0,0E0,0E0],"parents":[2147483647,0,0,1,1,2,2,3,3,4,4,5,5,6,6],"right_children":[2,4,6,8,10,12,14,-1,-1,-1,-1,-1,-1,-1,-1],"split_conditions":[4.893E2,4.5645E2,4.152E2,3.699E2,8.4735E2,7.57E2,7.1365E2,3.195814E-2,-8.105503E-2,-7.611733E-2,-0E0,6.47183E-2,-5.5582747E-3,1.0763319E-2,-7.4886724E-2],"split_indices":[8,8,2,5,1,10,10,0,0,0,0,0,0,0,0],"split_type":[0,0,0,0,0,0,0,0,0,0,0,0,0,0,0],"sum_hessian":[5.9439117E1,3.3389484E1,2.6049635E1,1.5837944E1,1.755154E1,1.944215E1,6.6074853E0,1.162653E1,4.211415E0,1.3996274E1,3.5552654E0,1.5620602E1,3.8215475E0,2.3372185E0,4.2702665E0],"tree_param":{"num_deleted":"0","num_feature":"16","num_nodes":"15","size_leaf_vector":"0"}},{"base_weights":[-6.532667E-2,-2.825755E-1,2.4850453E-1,3.5156456E-1,-4.2100322E-1,4.824683E-1,-4.0029418E-1,-0E0,6.977902E-1,-5.5509603E-1,1.7334245E-1,7.051738E-1,-2.8867349E-2,-6.731578E-1,-0E0],"categories":[],"categories_nodes":[],"categories_segments":[],"categories_sizes":[],"default_left":[1,1,1,1,1,1,1,1,1,0,0,0,0,0,0],"id":13,"left_children":[1,3,5,-1,9,11,13,-1,-1,-1,-1,-1,-1,-1,-1],"loss_changes":[4.187357E0,3.5303562E0,3.788926E0,5.3933156E-1,3.0862489E0,2.8146138E0,1.0888636E0,0E0,0E0,0E0,0E0,0E0,0E0,0E0,0E0],"parents":[2147483647,0,0,1,1,2,2,3,3,4,4,5,5,6,6],"right_children":[2,4,6,-1,10,12,14,-1,-1,-1,-1,-1,-1,-1,-1],"split_conditions":[1.9204999E2,3.1759998E2,4.2034998E2,3.5156455E-2,3.7625E2,2.1675E2,4.453E2,-0E0,6.977902E-2,-5.5509605E-2,1.7334245E-2,7.051738E-2,-2.886735E-3,-6.731578E-2,-0E0],"split_indices":[0,9,2,14,9,0,2,2147483647,2147483647,0,0,0,0,0,0],"split_type":[0,0,0,0,0,0,0,0,0,0,0,0,0,0,0],"sum_hessian":[5.8887016E1,3.673992E1,2.2147095E1,5.012748E0,3.1727175E1,1.7598547E1,4.5485477E0,3.3788111E0,1.6339364E0,2.7313438E1,4.413737E0,1.3357461E1,4.241085E0,3.3649447E0,1.1836032E0],"tree_param":{"num_deleted":"2","num_feature":"16","num_nodes":"15","size_leaf_vector":"0"}},{"base_weights":[-5.657721E-2,2.5536036E-1,-2.6327845E-1,-2.398672E-1,5.488775E-1,2.5099385E-1,-4.1621333E-1,2.6579118E-1,-5.285243E-1,8.811431E-1,-0E0,6.9597477E-1,-0E0,2.576702E-1,-5.286321E-1],"categories":[],"categories_nodes":[],"categories_segments":[],"categories_sizes":[],"default_left":[1,1,1,1,1,1,1,0,0,0,0,0,0,0,0],"id":14,"left_children":[1,3,5,7,9,11,13,-1,-1,-1,-1,-1,-1,-1,-1],"loss_changes":[3.9054918E0,3.6756525E0,3.2702072E0,1.5285715E0,2.8698125E0,1.3988111E0,2.7768984E0,0E0,0E0,0E0,0E0,0E0,0E0,0E0,0E0],"parents":[2147483647,0,0,1,1,2,2,3,3,4,4,5,5,6,6],"right_children":[2,4,6,8,10,12,14,-1,-1,-1,-1,-1,-1,-1,-1],"split_conditions":[3.1290002E2,7.0905E2,3.2085E2,1.39825E3,7.4330005E2,7.905E2,4.4885E2,2.6579117E-2,-5.285243E-2,8.8114314E-2,-0E0,6.9597475E-2,-0E0,2.5767019E-2,-5.286321E-2],"split_indices":[5,15,9,14,10,1,4,0,0,0,0,0,0,0,0],"split_type":[0,0,0,0,0,0,0,0,0,0,0,0,0,0,0],"sum_hessian":[5.8405537E1,2.1255325E1,3.715021E1,6.709968E0,1.4545358E1,6.869687E0,3.0280523E1,1.2082675E0,5.501701E0,8.728208E0,5.81715E0,2.9113533E0,3.9583337E0,2.8727472E0,2.7407776E1],"tree_param":{"num_deleted":"0","num_feature":"16","num_nodes":"15","size_leaf_vector":"0"}},{"base_weights":[-4.609649E-2,6.487562E-1,-1.3972606E-1,8.3061063E-1,-0E0,-3.2633638E-1,1.4317471E-1,1.7933217E-1,-4.471616E-1,3.719785E-1,-3.5152864E-1],"categories":[],"categories_nodes":[],"categories_segments":[],"categories_sizes":[],"default_left":[1,1,1,0,0,1,1,0,0,0,0],"id":15,"left_children":[1,3,5,-1,-1,7,9,-1,-1,-1,-1],"loss_changes":[3.3950846E0,7.39517E-1,3.0672736E0,0E0,0E0,2.4753945E0,2.4067516E0,0E0,0E0,0E0,0E0],"parents":[2147483647,0,0,1,1,2,2,5,5,6,6],"right_children":[2,4,6,-1,-1,8,10,-1,-1,-1,-1],"split_conditions":[6.921E2,2.1675E2,1.9204999E2,8.306106E-2,-0E0,3.1895E2,4.2034998E2,1.7933218E-2,-4.471616E-2,3.719785E-2,-3.5152864E-2],"split_indices":[10,0,0,0,0,9,2,0,0,0,0],"split_type":[0,0,0,0,0,0,0,0,0,0,0],"sum_hessian":[5.761573E1,4.869366E0,5.274636E1,3.6525264E0,1.2168399E0,3.3819332E1,1.892703E1,4.8328047E0,2.8986526E1,1.44932785E1,4.433752E0],"tree_param":{"num_deleted":"0","num_feature":"16","num_nodes":"11","size_leaf_vector":"0"}},{"base_weights":[-3.7608977E-2,3.1982567E-2,-6.583043E-1,4.4116858E-1,-9.054973E-2,-8.351457E-1,-0E0,1.0930835E0,5.111056E-2,4.8570707E-1,-2.791777E-1,-9.3505186E-1,-0E0],"categories":[],"categories_nodes":[],"categories_segments":[],"categories_sizes":[],"default_left":[1,1,1,1,1,1,0,0,0,0,0,1,1],"id":16,"left_children":[1,3,5,7,9,-1,-1,-1,-1,-1,-1,-1,-1],"loss_changes":[3.155058E0,2.9830728E0,1.0349698E0,2.3514385E0,4.1400642E0,1.3762522E-1,0E0,0E0,0E0,0E0,0E0,0E0,0E0],"parents":[2147483647,0,0,1,1,2,2,3,3,4,4,5,5],"right_children":[2,4,6,8,10,-1,-1,-1,-1,-1,-1,-1,-1],"split_conditions":[3.7015E2,7.1725E2,1.8415E2,6.2119995E2,4.4665002E2,-8.351457E-2,-0E0,1.09308355E-1,5.111056E-3,4.8570707E-2,-2.791777E-2,-9.350519E-2,-0E0],"split_indices":[5,10,0,12,8,13,0,0,0,0,0,2147483647,2147483647],"split_type":[0,0,0,0,0,0,0,0,0,0,0,0,0],"sum_hessian":[5.7054714E1,5.0706898E1,6.3478146E0,1.2966635E1,3.7740265E1,5.0493813E0,1.2984332E0,3.2195787E0,9.747056E0,7.61133E0,3.0128935E1,3.9831502E0,1.066231E0],"tree_param":{"num_deleted":"2","num_feature":"16","num_nodes":"13","size_leaf_vector":"0"}},{"base_weights":[-2.9472122E-2,2.4018073E-1,-2.1462573E-1,-1.8929859E-1,5.047197E-1,2.1216907E-1,-3.503374E-1,2.6436684E-1,-4.720998E-1,8.107002E-1,-0E0,6.400108E-1,-0E0,2.2608778E-1,-4.5414954E-1],"categories":[],"categories_nodes":[],"categories_segments":[],"categories_sizes":[],"default_left":[1,1,1,1,1,1,1,0,0,0,0,0,0,0,0],"id":17,"left_children":[1,3,5,7,9,11,13,-1,-1,-1,-1,-1,-1,-1,-1],"loss_changes":[2.9059198E0,2.8827448E0,2.3513222E0,1.3049142E0,2.3098056E0,1.2185923E0,2.1362605E0,0E0,0E0,0E0,0E0,0E0,0E0,0E0,0E0],"parents":[2147483647,0,0,1,1,2,2,3,3,4,4,5,5,6,6],"right_children":[2,4,6,8,10,12,14,-1,-1,-1,-1,-1,-1,-1,-1],"split_conditions":[3.1290002E2,7.0905E2,3.2085E2,1.39825E3,7.4330005E2,7.905E2,4.4885E2,2.6436685E-2,-4.720998E-2,8.107002E-2,-0E0,6.4001076E-2,-0E0,2.2608778E-2,-4.5414954E-2],"split_indices":[5,15,9,14,10,1,4,0,0,0,0,0,0,0,0],"split_type":[0,0,0,0,0,0,0,0,0,0,0,0,0,0,0],"sum_hessian":[5.66825E1,2.0755955E1,3.5926544E1,6.579076E0,1.4176879E1,6.7540436E0,2.9172503E1,1.1935436E0,5.3855324E0,8.396935E0,5.7799435E0,2.827132E0,3.9269114E0,2.8022351E0,2.6370266E1],"tree_param":{"num_deleted":"0","num_feature":"16","num_nodes":"15","size_leaf_vector":"0"}},{"base_weights":[-2.1175768E-2,5.9869267E-2,-4.9111727E-1,-2.2227585E-2,4.360245E-1,2.4927821E-2,-6.964915E-1,6.0220116E-1,-1.4767525E-1,-0E0,1.1564626E0,-9.427865E-1,1.523831E-2],"categories":[],"categories_nodes":[],"categories_segments":[],"categories_sizes":[],"default_left":[1,1,1,1,1,0,1,0,0,0,0,0,0],"id":18,"left_children":[1,3,5,7,9,-1,11,-1,-1,-1,-1,-1,-1],"loss_changes":[2.6289685E0,1.8944764E0,1.7802985E0,2.600834E0,2.6509473E0,0E0,2.4822087E0,0E0,0E0,0E0,0E0,0E0,0E0],"parents":[2147483647,0,0,1,1,2,2,3,3,4,4,6,6],"right_children":[2,4,6,8,10,-1,12,-1,-1,-1,-1,-1,-1],"split_conditions":[7.8915E2,3.5805E2,3.0125E2,6.8785E2,6.504E2,2.4927822E-3,2.1542998E3,6.022012E-2,-1.4767525E-2,-0E0,1.1564626E-1,-9.4278656E-2,1.523831E-3],"split_indices":[10,9,5,10,12,0,13,0,0,0,0,0,0],"split_type":[0,0,0,0,0,0,0,0,0,0,0,0,0],"sum_hessian":[5.5931507E1,4.6633823E1,9.297685E0,3.686941E1,9.764413E0,1.5108428E0,7.786842E0,4.198596E0,3.2670815E1,7.2520533E0,2.5123596E0,6.5875854E0,1.1992563E0],"tree_param":{"num_deleted":"0","num_feature":"16","num_nodes":"13","size_leaf_vector":"0"}},{"base_weights":[-1.1690708E-2,4.587241E-2,-5.7468194E-1,3.6156115E-1,-7.8956865E-2,-7.509388E-1,-0E0,-0E0,7.6501226E-1,2.805658E-1,-4.1425237E-1,-8.531007E-1,-0E0],"categories":[],"categories_nodes":[],"categories_segments":[],"categories_sizes":[],"default_left":[1,1,1,1,1,1,0,0,0,0,0,1,1],"id":19,"left_children":[1,3,5,7,9,-1,-1,-1,-1,-1,-1,-1,-1],"loss_changes":[2.385301E0,2.303129E0,9.081576E-1,2.795349E0,4.441953E0,1.9866991E-1,0E0,0E0,0E0,0E0,0E0,0E0,0E0],"parents":[2147483647,0,0,1,1,2,2,3,3,4,4,5,5],"right_children":[2,4,6,8,10,-1,-1,-1,-1,-1,-1,-1,-1],"split_conditions":[3.7015E2,3.834E2,1.8415E2,6.7035E2,6.2315E2,-7.509388E-2,-0E0,-0E0,7.650123E-2,2.805658E-2,-4.142524E-2,-8.531007E-2,-0E0],"split_indices":[5,6,0,12,12,9,0,0,0,0,0,2147483647,2147483647],"split_type":[0,0,0,0,0,0,0,0,0,0,0,0,0],"sum_hessian":[5.547236E1,4.9548553E1,5.9238057E0,1.5773199E1,3.3775356E1,4.665468E0,1.2583375E0,8.250169E0,7.52303E0,1.4938375E1,1.883698E1,3.6627753E0,1.0026929E0],"tree_param":{"num_deleted":"2","num_feature":"16","num_nodes":"13","size_leaf_vector":"0"}},{"base_weights":[-9.4204955E-3,2.5655562E-1,-1.5928935E-1,8.9115816E-1,-0E0,-6.652263E-1,4.714388E-3,-0E0,9.954704E-1,-7.1783805E-1,1.9176768E-1,-0E0,-8.354655E-1,4.3842748E-1,-2.114214E-1],"categories":[],"categories_nodes":[],"categories_segments":[],"categories_sizes":[],"default_left":[1,1,1,1,1,1,1,1,1,0,0,0,0,0,0],"id":20,"left_children":[1,3,5,-1,9,11,13,-1,-1,-1,-1,-1,-1,-1,-1],"loss_changes":[2.1791337E0,3.4730322E0,3.8907552E0,1.1653137E-1,2.2717354E0,1.8335662E0,3.0261497E0,0E0,0E0,0E0,0E0,0E0,0E0,0E0,0E0],"parents":[2147483647,0,0,1,1,2,2,3,3,4,4,5,5,6,6],"right_children":[2,4,6,-1,10,12,14,-1,-1,-1,-1,-1,-1,-1,-1],"split_conditions":[7.8305E2,3.2385E2,8.085E2,8.911582E-2,1.03265E3,1.6835E2,2.02015E3,-0E0,9.954704E-2,-7.17838E-2,1.9176768E-2,-0E0,-8.354655E-2,4.3842748E-2,-2.114214E-2],"split_indices":[1,9,1,10,3,0,13,2147483647,2147483647,0,0,0,0,0,0],"split_type":[0,0,0,0,0,0,0,0,0,0,0,0,0,0,0],"sum_hessian":[5.508247E1,1.7190205E1,3.7892265E1,4.8808165E0,1.2309388E1,1.0020664E1,2.7871603E1,1.0502977E0,3.8305185E0,2.6477523E0,9.661635E0,1.4068078E0,8.613856E0,1.0466679E1,1.7404924E1],"tree_param":{"num_deleted":"2","num_feature":"16","num_nodes":"15","size_leaf_vector":"0"}},{"base_weights":[-5.9541096E-3,4.6132613E-2,-5.4170114E-1,3.7454808E-1,-4.48637E-2,-7.0928395E-1,-0E0,-6.146824E-2,6.4917016E-1,4.684023E-1,-2.220744E-1,-8.0434E-1,-0E0],"categories":[],"categories_nodes":[],"categories_segments":[],"categories_sizes":[],"default_left":[1,1,1,1,1,1,0,0,0,0,0,1,1],"id":21,"left_children":[1,3,5,7,9,-1,-1,-1,-1,-1,-1,-1,-1],"loss_changes":[2.0741131E0,1.8395139E0,7.790116E-1,2.2238083E0,3.2802937E0,1.3066125E-1,0E0,0E0,0E0,0E0,0E0,0E0,0E0],"parents":[2147483647,0,0,1,1,2,2,3,3,4,4,5,5],"right_children":[2,4,6,8,10,-1,-1,-1,-1,-1,-1,-1,-1],"split_conditions":[3.7015E2,7.1725E2,1.8415E2,7.5644995E2,4.4665002E2,-7.0928395E-2,-0E0,-6.146824E-3,6.491702E-2,4.6840232E-2,-2.220744E-2,-8.0434E-2,-0E0],"split_indices":[5,10,0,1,8,4,0,0,0,0,0,2147483647,2147483647],"split_type":[0,0,0,0,0,0,0,0,0,0,0,0,0],"sum_hessian":[5.4672363E1,4.895971E1,5.7126527E0,1.2330606E1,3.6629105E1,4.4638486E0,1.248804E0,3.6578522E0,8.672754E0,7.5308514E0,2.9098253E1,3.4506953E0,1.0131533E0],"tree_param":{"num_deleted":"2","num_feature":"16","num_nodes":"13","size_leaf_vector":"0"}},{"base_weights":[-4.818688E-3,2.1463354E-1,-1.641255E-1,-1.5521887E-1,4.5690557E-1,-4.7152057E-1,-0E0,2.087203E-3,-6.337709E-1,-7.121185E-3,6.935854E-1,-7.076473E-1,-0E0,-2.5097173E-1,5.841714E-1],"categories":[],"categories_nodes":[],"categories_segments":[],"categories_sizes":[],"default_left":[1,1,1,1,1,1,1,0,0,0,0,0,0,0,0],"id":22,"left_children":[1,3,5,7,9,11,13,-1,-1,-1,-1,-1,-1,-1,-1],"loss_changes":[1.9175404E0,2.2584896E0,1.8838058E0,1.193294E0,2.2952824E0,1.6441233E0,3.6663842E0,0E0,0E0,0E0,0E0,0E0,0E0,0E0,0E0],"parents":[2147483647,0,0,1,1,2,2,3,3,4,4,5,5,6,6],"right_children":[2,4,6,8,10,12,14,-1,-1,-1,-1,-1,-1,-1,-1],"split_conditions":[3.1290002E2,7.0905E2,3.3184998E2,2.5809998E2,1.0265E3,8.1915E2,1.9115E2,2.0872032E-4,-6.337709E-2,-7.121185E-4,6.935854E-2,-7.0764735E-2,-0E0,-2.5097175E-2,5.841714E-2],"split_indices":[5,15,5,11,3,1,0,0,0,0,0,0,0,0,0],"split_type":[0,0,0,0,0,0,0,0,0,0,0,0,0,0,0],"sum_hessian":[5.4286285E1,2.0046646E1,3.423964E1,6.4427986E0,1.36038475E1,1.1742506E1,2.2497133E1,4.025551E0,2.417248E0,3.495493E0,1.0108355E1,7.940697E0,3.8018088E0,1.5866444E1,6.6306896E0],"tree_param":{"num_deleted":"0","num_feature":"16","num_nodes":"15","size_leaf_vector":"0"}},{"base_weights":[-4.4450504E-3,5.988495E-2,-4.1352382E-1,-1.8073218E-2,4.189602E-1,-6.031494E-1,6.9231145E-2,-2.9977182E-1,1.7153393E-1,7.60911E-1,-4.2740937E-2,-0E0,-8.6547846E-1],"categories":[],"categories_nodes":[],"categories_segments":[],"categories_sizes":[],"default_left":[1,1,1,1,1,1,0,0,0,0,0,0,0],"id":23,"left_children":[1,3,5,7,9,11,-1,-1,-1,-1,-1,-1,-1],"loss_changes":[1.8228515E0,1.701479E0,1.463407E0,2.1357152E0,2.4193301E0,2.1814117E0,0E0,0E0,0E0,0E0,0E0,0E0,0E0],"parents":[2147483647,0,0,1,1,2,2,3,3,4,4,5,5],"right_children":[2,4,6,8,10,12,-1,-1,-1,-1,-1,-1,-1],"split_conditions":[7.8915E2,3.5805E2,2.1542998E3,4.893E2,4.2915002E2,3.018E2,6.9231144E-3,-2.9977182E-2,1.7153393E-2,7.60911E-2,-4.274094E-3,-0E0,-8.6547844E-2],"split_indices":[10,9,13,8,6,5,0,0,0,0,0,0,0],"split_type":[0,0,0,0,0,0,0,0,0,0,0,0,0],"sum_hessian":[5.3888542E1,4.519108E1,8.697465E0,3.562199E1,9.569089E0,7.5527916E0,1.1446736E0,1.6218811E1,1.940318E1,6.369486E0,3.199603E0,1.4867693E0,6.066022E0],"tree_param":{"num_deleted":"0","num_feature":"16","num_nodes":"13","size_leaf_vector":"0"}},{"base_weights":[-1.1007031E-3,2.458462E-1,-1.4244495E-1,8.4013176E-1,-0E0,-6.16416E-1,6.983297E-3,9.4076157E-1,-0E0,-6.35255E-1,1.77716E-1,-0E0,-7.8814226E-1,5.7998425E-1,-1.251493E-1],"categories":[],"categories_nodes":[],"categories_segments":[],"categories_sizes":[],"default_left":[1,1,1,1,1,1,1,1,1,0,0,0,0,0,0],"id":24,"left_children":[1,3,5,-1,9,11,13,-1,-1,-1,-1,-1,-1,-1,-1],"loss_changes":[1.8360325E0,2.9227967E0,3.298576E0,9.9463224E-2,1.7677071E0,1.723444E0,2.6629825E0,0E0,0E0,0E0,0E0,0E0,0E0,0E0,0E0],"parents":[2147483647,0,0,1,1,2,2,3,3,4,4,5,5,6,6],"right_children":[2,4,6,-1,10,12,14,-1,-1,-1,-1,-1,-1,-1,-1],"split_conditions":[7.8305E2,3.2385E2,8.085E2,8.401318E-2,1.03265E3,1.6835E2,1.4231499E3,9.407616E-2,-0E0,-6.35255E-2,1.77716E-2,-0E0,-7.881423E-2,5.7998426E-2,-1.2514929E-2],"split_indices":[1,9,1,11,3,0,14,2147483647,2147483647,0,0,0,0,0,0],"split_type":[0,0,0,0,0,0,0,0,0,0,0,0,0,0,0],"sum_hessian":[5.3560673E1,1.665243E1,3.6908245E1,4.652586E0,1.1999844E1,9.701882E0,2.7206362E1,3.6203723E0,1.0322138E0,2.5636334E0,9.436211E0,1.3810195E0,8.320863E0,5.881149E0,2.1325212E1],"tree_param":{"num_deleted":"2","num_feature":"16","num_nodes":"15","size_leaf_vector":"0"}},{"base_weights":[-0E0,4.545771E-2,-4.8537758E-1,3.1440818E-1,-5.448002E-2,-7.0948637E-1,-0E0,-0E0,6.7880154E-1,2.5826648E-1,-3.6042407E-1],"categories":[],"categories_nodes":[],"categories_segments":[],"categories_sizes":[],"default_left":[1,1,1,1,1,0,0,0,0,0,0],"id":25,"left_children":[1,3,5,7,9,-1,-1,-1,-1,-1,-1],"loss_changes":[1.601707E0,1.5881493E0,7.6769364E-1,2.125854E0,3.420268E0,0E0,0E0,0E0,0E0,0E0,0E0],"parents":[2147483647,0,0,1,1,2,2,3,3,4,4],"right_children":[2,4,6,8,10,-1,-1,-1,-1,-1,-1],"split_conditions":[3.7015E2,3.834E2,8.4415E2,6.7035E2,6.2315E2,-7.094864E-2,-0E0,-0E0,6.788015E-2,2.5826648E-2,-3.6042407E-2],"split_indices":[5,6,1,12,12,0,0,0,0,0,0],"split_type":[0,0,0,0,0,0,0,0,0,0,0],"sum_hessian":[5.3149654E1,4.7778835E1,5.370819E0,1.5073504E1,3.270533E1,3.5068235E0,1.8639956E0,8.01146E0,7.062044E0,1.4633615E1,1.8071716E1],"tree_param":{"num_deleted":"0","num_feature":"16","num_nodes":"11","size_leaf_vector":"0"}},{"base_weights":[-0E0,2.2553857E-1,-1.2667058E-1,7.9268736E-1,-0E0,-5.570181E-1,3.057364E-3,-0E0,8.937003E-1,5.874945E-1,-2.1447799E-1,-8.138661E-1,-0E0,4.316807E-1,-1.6964318E-1],"categories":[],"categories_nodes":[],"categories_segments":[],"categories_sizes":[],"default_left":[1,1,1,1,1,1,1,1,1,0,0,0,0,0,0],"id":26,"left_children":[1,3,5,-1,9,11,13,-1,-1,-1,-1,-1,-1,-1,-1],"loss_changes":[1.4839891E0,2.5385592E0,2.6480017E0,1.2261772E-1,1.6021973E0,1.6458349E0,2.4083984E0,0E0,0E0,0E0,0E0,0E0,0E0,0E0,0E0],"parents":[2147483647,0,0,1,1,2,2,3,3,4,4,5,5,6,6],"right_children":[2,4,6,-1,10,12,14,-1,-1,-1,-1,-1,-1,-1,-1],"split_conditions":[7.8305E2,3.2385E2,8.085E2,7.926874E-2,4.4125E2,3.4809998E2,2.00945E3,-0E0,8.9370035E-2,5.874945E-2,-2.1447798E-2,-8.138661E-2,-0E0,4.316807E-2,-1.6964318E-2],"split_indices":[1,9,1,9,8,9,13,2147483647,2147483647,0,0,0,0,0,0],"split_type":[0,0,0,0,0,0,0,0,0,0,0,0,0,0,0],"sum_hessian":[5.282982E1,1.6351591E1,3.647823E1,4.444699E0,1.1906893E1,9.471858E0,2.700637E1,1.0077251E0,3.4369736E0,2.217357E0,9.689536E0,6.389933E0,3.0819254E0,8.988558E0,1.8017813E1],"tree_param":{"num_deleted":"2","num_feature":"16","num_nodes":"15","size_leaf_vector":"0"}},{"base_weights":[-0E0,-1.3892186E-1,1.9246699E-1,-0E0,-5.2850413E-1,3.7120333E-1,-2.7249902E-1,-4.2176956E-1,1.4432733E-1,-7.683966E-1,7.592099E-2,6.110599E-1,-1.7068279E-1,-0E0,-5.540703E-1],"categories":[],"categories_nodes":[],"categories_segments":[],"categories_sizes":[],"default_left":[1,1,1,1,1,1,1,0,0,0,0,0,0,0,0],"id":27,"left_children":[1,3,5,7,9,11,13,-1,-1,-1,-1,-1,-1,-1,-1],"loss_changes":[1.420876E0,1.7062244E0,1.9297719E0,1.7187157E0,1.9738522E0,2.755893E0,7.67197E-1,0E0,0E0,0E0,0E0,0E0,0E0,0E0,0E0],"parents":[2147483647,0,0,1,1,2,2,3,3,4,4,5,5,6,6],"right_children":[2,4,6,8,10,12,14,-1,-1,-1,-1,-1,-1,-1,-1],"split_conditions":[1.9204999E2,7.8435E2,2.1785E2,3.83E2,2.1515E3,4.173E2,3.6125E2,-4.217696E-2,1.4432733E-2,-7.683966E-2,7.5920993E-3,6.1105993E-2,-1.706828E-2,-0E0,-5.540703E-2],"split_indices":[0,10,0,2,13,2,6,0,0,0,0,0,0,0,0],"split_type":[0,0,0,0,0,0,0,0,0,0,0,0,0,0,0],"sum_hessian":[5.248478E1,3.266909E1,1.9815685E1,2.523417E1,7.4349217E0,1.6012653E1,3.803032E0,6.3311067E0,1.8903063E1,6.31265E0,1.1222713E0,1.2290312E1,3.7223423E0,1.1422108E0,2.660821E0],"tree_param":{"num_deleted":"0","num_feature":"16","num_nodes":"15","size_leaf_vector":"0"}},{"base_weights":[-0E0,4.1727502E-2,-4.464902E-1,2.883622E-1,-5.0384793E-2,-6.648913E-1,-0E0,-7.242176E-2,6.9691634E-1,-2.996558E-1,2.7957076E-1],"categories":[],"categories_nodes":[],"categories_segments":[],"categories_sizes":[],"default_left":[1,1,1,1,1,1,1,0,0,0,0],"id":28,"left_children":[1,3,-1,7,9,-1,-1,-1,-1,-1,-1],"loss_changes":[1.3116367E0,1.342684E0,6.95544E-1,3.0554004E0,2.804707E0,0E0,0E0,0E0,0E0,0E0,0E0],"parents":[2147483647,0,0,1,1,2,2,3,3,4,4],"right_children":[2,4,-1,8,10,-1,-1,-1,-1,-1,-1],"split_conditions":[3.7015E2,6.174E2,-4.464902E-2,5.831E2,6.7115E2,-6.648913E-2,-0E0,-7.242176E-3,6.9691636E-2,-2.996558E-2,2.7957076E-2],"split_indices":[5,12,1,12,12,2147483647,2147483647,0,0,0,0],"split_type":[0,0,0,0,0,0,0,0,0,0,0],"sum_hessian":[5.2147533E1,4.698721E1,5.1603236E0,1.51495075E1,3.1837704E1,3.3513036E0,1.8090198E0,7.1821823E0,7.967325E0,1.991505E1,1.1922652E1],"tree_param":{"num_deleted":"2","num_feature":"16","num_nodes":"11","size_leaf_vector":"0"}},{"base_weights":[-0E0,1.8281928E-1,-1.3299078E-1,4.6735474E-1,-6.833779E-2,-4.2566428E-1,-0E0,4.798065E-2,9.0589297E-1,-3.7316233E-1,2.6045793E-1,-6.173122E-1,-0E0,-1.8179317E-1,4.879117E-1],"categories":[],"categories_nodes":[],"categories_segments":[],"categories_sizes":[],"default_left":[1,1,1,1,1,1,1,0,0,0,0,0,0,0,0],"id":29,"left_children":[1,3,5,7,9,11,13,-1,-1,-1,-1,-1,-1,-1,-1],"loss_changes":[1.2725301E0,1.8804893E0,1.6112053E0,1.1184211E0,1.1900433E0,1.4400663E0,2.2971668E0,0E0,0E0,0E0,0E0,0E0,0E0,0E0,0E0],"parents":[2147483647,0,0,1,1,2,2,3,3,4,4,5,5,6,6],"right_children":[2,4,6,8,10,12,14,-1,-1,-1,-1,-1,-1,-1,-1],"split_conditions":[3.1290002E2,7.5625E2,3.3184998E2,4.057E2,3.0565002E2,5.165E2,1.9115E2,4.7980654E-3,9.05893E-2,-3.7316233E-2,2.6045794E-2,-6.173122E-2,-0E0,-1.8179318E-2,4.879117E-2],"split_indices":[5,7,5,2,5,4,0,0,0,0,0,0,0,0,0],"split_type":[0,0,0,0,0,0,0,0,0,0,0,0,0,0,0],"sum_hessian":[5.190194E1,1.928368E1,3.2618263E1,1.0504225E1,8.779455E0,1.1173935E1,2.1444326E1,7.1021514E0,3.4020734E0,6.0640116E0,2.7154431E0,8.567326E0,2.6066096E0,1.5018505E1,6.4258213E0],"tree_param":{"num_deleted":"0","num_feature":"16","num_nodes":"15","size_leaf_vector":"0"}},{"base_weights":[-0E0,-1.40804E-1,1.5867104E-1,1.3625075E-1,-3.4236857E-1,3.3802152E-1,-1.9168913E-1,-4.7901997E-1,5.227259E-1,-5.365896E-1,1.2104352E-1,-1.3272815E-2,5.058692E-1,-6.4719814E-1,1.0656273E-1],"categories":[],"categories_nodes":[],"categories_segments":[],"categories_sizes":[],"default_left":[1,1,1,1,1,1,1,0,0,0,0,0,0,0,0],"id":30,"left_children":[1,3,5,7,9,11,13,-1,-1,-1,-1,-1,-1,-1,-1],"loss_changes":[1.188721E0,1.9242725E0,1.696934E0,2.964747E0,2.2536042E0,1.5541248E0,1.5274726E0,0E0,0E0,0E0,0E0,0E0,0E0,0E0,0E0],"parents":[2147483647,0,0,1,1,2,2,3,3,4,4,5,5,6,6],"right_children":[2,4,6,8,10,12,14,-1,-1,-1,-1,-1,-1,-1,-1],"split_conditions":[4.893E2,4.4665002E2,4.152E2,4.1915002E2,8.4735E2,1.0299E3,4.3475E2,-4.7902E-2,5.2272588E-2,-5.3658962E-2,1.2104352E-2,-1.3272816E-3,5.058692E-2,-6.471982E-2,1.0656274E-2],"split_indices":[8,8,2,8,1,3,2,0,0,0,0,0,0,0,0],"split_type":[0,0,0,0,0,0,0,0,0,0,0,0,0,0,0],"sum_hessian":[5.15768E1,2.893149E1,2.2645313E1,1.0231257E1,1.8700233E1,1.6889133E1,5.756178E0,2.8565943E0,7.374663E0,1.458676E1,4.1134734E0,3.832049E0,1.3057085E1,3.1413736E0,2.6148043E0],"tree_param":{"num_deleted":"0","num_feature":"16","num_nodes":"15","size_leaf_vector":"0"}},{"base_weights":[-0E0,2.0690802E-1,-1.08061306E-1,7.4403965E-1,-0E0,-4.4628322E-1,4.3885622E-2,-0E0,8.3945817E-1,-5.6007993E-1,1.4838931E-1,-0E0,-6.4352345E-1,6.706904E-1,-8.8500306E-2],"categories":[],"categories_nodes":[],"categories_segments":[],"categories_sizes":[],"default_left":[1,1,1,1,1,1,1,1,1,0,0,0,0,0,0],"id":31,"left_children":[1,3,5,-1,9,11,13,-1,-1,-1,-1,-1,-1,-1,-1],"loss_changes":[1.14308E0,2.1760683E0,2.2941267E0,5.338788E-2,1.2982172E0,1.8066716E0,2.633623E0,0E0,0E0,0E0,0E0,0E0,0E0,0E0,0E0],"parents":[2147483647,0,0,1,1,2,2,3,3,4,4,5,5,6,6],"right_children":[2,4,6,-1,10,12,14,-1,-1,-1,-1,-1,-1,-1,-1],"split_conditions":[7.8305E2,3.2385E2,8.165E2,7.4403964E-2,1.03265E3,1.683E2,1.41975E3,-0E0,8.394582E-2,-5.6007992E-2,1.4838931E-2,-0E0,-6.435235E-2,6.7069046E-2,-8.850031E-3],"split_indices":[1,9,1,14,3,0,14,2147483647,2147483647,0,0,0,0,0,0],"split_type":[0,0,0,0,0,0,0,0,0,0,0,0,0,0,0],"sum_hessian":[5.119306E1,1.5764209E1,3.5428856E1,4.227214E0,1.1536994E1,1.2422188E1,2.3006666E1,1.0450239E0,3.1821902E0,2.4290137E0,9.107981E0,2.6042485E0,9.817939E0,4.6199913E0,1.8386675E1],"tree_param":{"num_deleted":"2","num_feature":"16","num_nodes":"15","size_leaf_vector":"0"}},{"base_weights":[-0E0,4.4865392E-2,-4.0520695E-1,3.8326317E-1,-3.4799413E-3,-6.3262606E-1,-0E0,9.0977454E-1,-1.02516785E-1,-1.3052118E-1,5.031178E-1],"categories":[],"categories_nodes":[],"categories_segments":[],"categories_sizes":[],"default_left":[1,1,1,1,1,0,0,0,0,0,0],"id":32,"left_children":[1,3,5,7,9,-1,-1,-1,-1,-1,-1],"loss_changes":[1.0669472E0,1.1479623E0,7.0567393E-1,3.0628328E0,2.2300413E0,0E0,0E0,0E0,0E0,0E0,0E0],"parents":[2147483647,0,0,1,1,2,2,3,3,4,4],"right_children":[2,4,6,8,10,-1,-1,-1,-1,-1,-1],"split_conditions":[3.7015E2,1.6765E2,8.4415E2,8.2419995E2,1.1628999E3,-6.3262604E-2,-0E0,9.097745E-2,-1.02516785E-2,-1.3052118E-2,5.031178E-2],"split_indices":[5,0,1,1,3,0,0,0,0,0,0],"split_type":[0,0,0,0,0,0,0,0,0,0,0],"sum_hessian":[5.0796825E1,4.587332E1,4.9235024E0,7.4541554E0,3.8419167E1,3.1934125E0,1.7300901E0,4.1461234E0,3.3080323E0,3.2888035E1,5.531133E0],"tree_param":{"num_deleted":"0","num_feature":"16","num_nodes":"11","size_leaf_vector":"0"}},{"base_weights":[-0E0,2.0786674E-1,-1.0173771E-1,-4.2178776E-2,6.1666495E-1,-3.729938E-1,3.39094E-2,-4.7427654E-1,1.7549285E-1,-3.647803E-2,8.6938184E-1,-6.956711E-1,-0E0,3.2685566E-1,-1.4435591E-1],"categories":[],"categories_nodes":[],"categories_segments":[],"categories_sizes":[],"default_left":[1,1,1,1,1,1,1,0,0,0,0,0,0,0,0],"id":33,"left_children":[1,3,5,7,9,11,13,-1,-1,-1,-1,-1,-1,-1,-1],"loss_changes":[1.0834765E0,2.2741163E0,1.6884474E0,1.2828102E0,2.1513853E0,1.7036808E0,1.413926E0,0E0,0E0,0E0,0E0,0E0,0E0,0E0,0E0],"parents":[2147483647,0,0,1,1,2,2,3,3,4,4,5,5,6,6],"right_children":[2,4,6,8,10,12,14,-1,-1,-1,-1,-1,-1,-1,-1],"split_conditions":[3.834E2,6.702E2,1.1069E3,3.6375E2,2.7655E2,4.8995E2,4.132E2,-4.7427654E-2,1.7549286E-2,-3.647803E-3,8.693819E-2,-6.956711E-2,-0E0,3.2685567E-2,-1.4435591E-2],"split_indices":[6,12,3,6,5,8,2,0,0,0,0,0,0,0,0],"split_type":[0,0,0,0,0,0,0,0,0,0,0,0,0,0,0],"sum_hessian":[5.070163E1,1.5373019E1,3.5328613E1,8.577272E0,6.795747E0,1.3651594E1,2.1677017E1,4.0174623E0,4.55981E0,1.0306656E0,5.765081E0,6.7322254E0,6.9193687E0,1.0007543E1,1.1669476E1],"tree_param":{"num_deleted":"0","num_feature":"16","num_nodes":"15","size_leaf_vector":"0"}},{"base_weights":[-0E0,1.2742037E-1,-1.4404857E-1,-2.1664417E-1,2.8282532E-1,-3.1032154E-1,3.4347054E-1,1.4588562E-1,-6.84805E-1,-7.873607E-2,4.2643607E-1,1.8826373E-2,-6.141802E-1,6.816837E-1,-0E0],"categories":[],"categories_nodes":[],"categories_segments":[],"categories_sizes":[],"default_left":[1,1,1,1,1,1,1,0,0,0,0,0,0,0,0],"id":34,"left_children":[1,3,5,7,9,11,13,-1,-1,-1,-1,-1,-1,-1,-1],"loss_changes":[9.656399E-1,1.5378425E0,2.172732E0,1.7880511E0,1.4512392E0,2.7438467E0,1.2953054E0,0E0,0E0,0E0,0E0,0E0,0E0,0E0,0E0],"parents":[2147483647,0,0,1,1,2,2,3,3,4,4,5,5,6,6],"right_children":[2,4,6,8,10,12,14,-1,-1,-1,-1,-1,-1,-1,-1],"split_conditions":[4.9205E2,1.755E2,8.1985E2,7.349E2,1.0143E3,7.5595E2,8.4385E2,1.4588562E-2,-6.84805E-2,-7.873607E-3,4.2643607E-2,1.8826373E-3,-6.1418023E-2,6.816837E-2,-0E0],"split_indices":[4,0,7,10,3,7,7,0,0,0,0,0,0,0,0],"split_type":[0,0,0,0,0,0,0,0,0,0,0,0,0,0,0],"sum_hessian":[5.0275166E1,2.537753E1,2.4897636E1,5.771232E0,1.9606297E1,2.0366217E1,4.5314198E0,2.4366956E0,3.3345368E0,3.7225912E0,1.5883705E1,8.646803E0,1.1719413E1,3.1917124E0,1.3397075E0],"tree_param":{"num_deleted":"0","num_feature":"16","num_nodes":"15","size_leaf_vector":"0"}},{"base_weights":[-0E0,1.6864435E-1,-1.1335613E-1,-1.2201314E-1,3.831968E-1,-3.8670358E-1,-0E0,-0E0,-5.708963E-1,-2.124604E-2,5.8278245E-1,-5.6835455E-1,-0E0,-1.5025325E-1,4.3855655E-1],"categories":[],"categories_nodes":[],"categories_segments":[],"categories_sizes":[],"default_left":[1,1,1,1,1,1,1,0,0,0,0,0,0,0,0],"id":35,"left_children":[1,3,5,7,9,11,13,-1,-1,-1,-1,-1,-1,-1,-1],"loss_changes":[9.720987E-1,1.53038E0,1.3308539E0,9.4898736E-1,1.6635419E0,1.1915694E0,1.7355713E0,0E0,0E0,0E0,0E0,0E0,0E0,0E0,0E0],"parents":[2147483647,0,0,1,1,2,2,3,3,4,4,5,5,6,6],"right_children":[2,4,6,8,10,12,14,-1,-1,-1,-1,-1,-1,-1,-1],"split_conditions":[3.1290002E2,7.0905E2,3.3184998E2,2.5809998E2,1.016E3,5.165E2,1.9115E2,-0E0,-5.7089634E-2,-2.124604E-3,5.8278244E-2,-5.6835454E-2,-0E0,-1.5025325E-2,4.3855656E-2],"split_indices":[5,15,5,11,3,4,0,0,0,0,0,0,0,0,0],"split_type":[0,0,0,0,0,0,0,0,0,0,0,0,0,0,0],"sum_hessian":[4.986686E1,1.8602571E1,3.1264286E1,6.103931E0,1.2498641E1,1.06720705E1,2.0592216E1,3.8677485E0,2.2361827E0,2.7695534E0,9.729088E0,8.092143E0,2.579927E0,1.4372855E1,6.2193613E0],"tree_param":{"num_deleted":"0","num_feature":"16","num_nodes":"15","size_leaf_vector":"0"}},{"base_weights":[-0E0,1.9009636E-1,-9.719558E-2,6.846334E-1,-0E0,4.0505028E-1,-2.146779E-1,-0E0,7.7845657E-1,5.164785E-1,-1.9652338E-1,5.714547E-1,-0E0,-3.11565E-1,3.4421507E-1],"categories":[],"categories_nodes":[],"categories_segments":[],"categories_sizes":[],"default_left":[1,1,1,1,1,1,1,1,1,0,0,1,1,0,0],"id":36,"left_children":[1,3,5,-1,9,-1,13,-1,-1,-1,-1,-1,-1,-1,-1],"loss_changes":[9.163658E-1,1.741461E0,1.98692E0,7.2711706E-2,1.2271439E0,4.653834E-1,1.7520293E0,0E0,0E0,0E0,0E0,0E0,0E0,0E0,0E0],"parents":[2147483647,0,0,1,1,2,2,3,3,4,4,5,5,6,6],"right_children":[2,4,6,-1,10,-1,14,-1,-1,-1,-1,-1,-1,-1,-1],"split_conditions":[7.8305E2,3.2385E2,7.209E2,6.846334E-2,4.4125E2,4.050503E-2,1.22265E3,-0E0,7.7845655E-2,5.164785E-2,-1.9652339E-2,5.7145473E-2,-0E0,-3.11565E-2,3.4421507E-2],"split_indices":[1,9,7,9,8,11,3,2147483647,2147483647,0,0,2147483647,2147483647,0,0],"split_type":[0,0,0,0,0,0,0,0,0,0,0,0,0,0,0],"sum_hessian":[4.952348E1,1.5097048E1,3.442643E1,3.9563484E0,1.1140699E1,4.4486103E0,2.997782E1,1.0027394E0,2.953609E0,2.1544983E0,8.986201E0,3.1625173E0,1.286093E0,2.745085E1,2.5269697E0],"tree_param":{"num_deleted":"4","num_feature":"16","num_nodes":"15","size_leaf_vector":"0"}},{"base_weights":[-0E0,5.86503E-2,-2.933652E-1,-8.622465E-3,3.7323377E-1,-4.9470308E-1,9.2402145E-2,2.5377458E-1,-1.6263351E-1,6.7288214E-1,-3.3586724E-3,-0E0,-7.37839E-1],"categories":[],"categories_nodes":[],"categories_segments":[],"categories_sizes":[],"default_left":[1,1,1,1,1,1,0,0,0,0,0,0,0],"id":37,"left_children":[1,3,5,7,9,11,-1,-1,-1,-1,-1,-1,-1],"loss_changes":[8.7987524E-1,1.2697439E0,1.1097739E0,1.3026518E0,1.8171022E0,1.5064683E0,0E0,0E0,0E0,0E0,0E0,0E0,0E0],"parents":[2147483647,0,0,1,1,2,2,3,3,4,4,5,5],"right_children":[2,4,6,8,10,12,-1,-1,-1,-1,-1,-1,-1],"split_conditions":[7.8915E2,3.5805E2,2.1542998E3,6.1765E2,4.2915002E2,3.018E2,9.240215E-3,2.5377458E-2,-1.626335E-2,6.728821E-2,-3.3586725E-4,-0E0,-7.37839E-2],"split_indices":[10,9,13,12,6,5,0,0,0,0,0,0,0],"split_type":[0,0,0,0,0,0,0,0,0,0,0,0,0],"sum_hessian":[4.9137928E1,4.1617714E1,7.520213E0,3.2468258E1,9.149458E0,6.4590073E0,1.0612055E0,9.367509E0,2.3100748E1,6.1358724E0,3.013586E0,1.3387268E0,5.1202807E0],"tree_param":{"num_deleted":"0","num_feature":"16","num_nodes":"13","size_leaf_vector":"0"}},{"base_weights":[-0E0,1.3806152E-1,-1.11576304E-1,-7.675937E-2,3.9394164E-1,-5.350574E-1,-0E0,1.5905985E-1,-4.0738434E-1,5.3329533E-1,-0E0,-7.7254766E-1,-0E0,6.349084E-1,-1.2290005E-1],"categories":[],"categories_nodes":[],"categories_segments":[],"categories_sizes":[],"default_left":[1,1,1,1,1,1,1,0,0,0,0,0,0,0,0],"id":38,"left_children":[1,3,5,7,9,11,13,-1,-1,-1,-1,-1,-1,-1,-1],"loss_changes":[7.8732777E-1,1.6181242E0,1.6911457E0,1.1925341E0,1.1351318E0,1.484343E0,2.1327815E0,0E0,0E0,0E0,0E0,0E0,0E0,0E0,0E0],"parents":[2147483647,0,0,1,1,2,2,3,3,4,4,5,5,6,6],"right_children":[2,4,6,8,10,12,14,-1,-1,-1,-1,-1,-1,-1,-1],"split_conditions":[2.016E3,1.96725E3,2.0452E3,3.088E2,5.274E2,1.5106E3,4.683E2,1.5905986E-2,-4.0738434E-2,5.3329535E-2,-0E0,-7.7254765E-2,-0E0,6.349084E-2,-1.2290005E-2],"split_indices":[13,13,13,5,4,14,4,0,0,0,0,0,0,0,0],"split_type":[0,0,0,0,0,0,0,0,0,0,0,0,0,0,0],"sum_hessian":[4.896563E1,2.211698E1,2.6848648E1,1.0279171E1,1.1837809E1,6.118189E0,2.073046E1,4.5372796E0,5.7418914E0,9.996445E0,1.8413641E0,4.9014874E0,1.2167013E0,3.6119373E0,1.7118523E1],"tree_param":{"num_deleted":"0","num_feature":"16","num_nodes":"15","size_leaf_vector":"0"}},{"base_weights":[-0E0,1.8842149E-1,-8.252463E-2,-1.261888E-2,5.525682E-1,1.0508629E-2,-4.2685166E-1,-4.2560887E-1,1.7324057E-1,-2.2132285E-2,8.0461806E-1,6.431123E-1,-5.507697E-2,-6.546319E-1,2.0839779E-1],"categories":[],"categories_nodes":[],"categories_segments":[],"categories_sizes":[],"default_left":[1,1,1,1,1,1,1,0,0,0,0,0,0,0,0],"id":39,"left_children":[1,3,5,7,9,11,13,-1,-1,-1,-1,-1,-1,-1,-1],"loss_changes":[7.9418206E-1,1.694012E0,1.5398238E0,1.0402361E0,1.8671615E0,1.7100986E0,1.9921492E0,0E0,0E0,0E0,0E0,0E0,0E0,0E0,0E0],"parents":[2147483647,0,0,1,1,2,2,3,3,4,4,5,5,6,6],"right_children":[2,4,6,8,10,12,14,-1,-1,-1,-1,-1,-1,-1,-1],"split_conditions":[3.834E2,6.702E2,6.557E2,3.6375E2,2.7655E2,1.3958E3,3.607E2,-4.2560887E-2,1.7324058E-2,-2.2132285E-3,8.046181E-2,6.431123E-2,-5.5076974E-3,-6.546319E-2,2.0839779E-2],"split_indices":[6,12,12,6,5,14,9,0,0,0,0,0,0,0,0],"split_type":[0,0,0,0,0,0,0,0,0,0,0,0,0,0,0],"sum_hessian":[4.8600502E1,1.4668875E1,3.393163E1,8.303711E0,6.365164E0,2.5190662E1,8.740967E0,3.846666E0,4.4570456E0,1.0090792E0,5.356085E0,2.9714262E0,2.2219236E1,7.570205E0,1.1707612E0],"tree_param":{"num_deleted":"0","num_feature":"16","num_nodes":"15","size_leaf_vector":"0"}},{"base_weights":[-0E0,3.8515106E-1,-3.623879E-2,5.8557546E-1,-0E0,-9.346581E-2,3.7362647E-1,1.00357614E-1,-2.2901583E-1,7.184349E-1,-0E0],"categories":[],"categories_nodes":[],"categories_segments":[],"categories_sizes":[],"default_left":[1,1,1,1,1,1,1,0,0,0,0],"id":40,"left_children":[1,-1,5,-1,-1,7,9,-1,-1,-1,-1],"loss_changes":[7.472519E-1,5.4254735E-1,8.2332784E-1,0E0,0E0,1.2791817E0,8.2215077E-1,0E0,0E0,0E0,0E0],"parents":[2147483647,0,0,1,1,2,2,5,5,6,6],"right_children":[2,-1,6,-1,-1,8,10,-1,-1,-1,-1],"split_conditions":[6.921E2,3.8515106E-2,1.22265E3,5.8557548E-2,-0E0,3.8715E2,7.28E2,1.0035762E-2,-2.2901583E-2,7.184349E-2,-0E0],"split_indices":[10,11,3,2147483647,2147483647,6,15,0,0,0,0],"split_type":[0,0,0,0,0,0,0,0,0,0,0],"sum_hessian":[4.8191536E1,3.634066E0,4.4557472E1,2.5869808E0,1.0470852E0,4.1916683E1,2.640788E0,1.4321128E1,2.7595554E1,1.5775384E0,1.0632497E0],"tree_param":{"num_deleted":"2","num_feature":"16","num_nodes":"11","size_leaf_vector":"0"}},{"base_weights":[-0E0,1.8234842E-1,-7.155794E-2,6.304734E-1,-0E0,-3.8888523E-1,6.2349565E-2,-0E0,7.1442467E-1,4.8662993E-1,-1.7012542E-1,-0E0,-5.779436E-1,-1.2539235E-1,4.6490672E-1],"categories":[],"categories_nodes":[],"categories_segments":[],"categories_sizes":[],"default_left":[1,1,1,1,1,1,1,1,1,0,0,0,0,0,0],"id":41,"left_children":[1,3,5,-1,9,11,13,-1,-1,-1,-1,-1,-1,-1,-1],"loss_changes":[6.926626E-1,1.3578058E0,1.8139969E0,2.6794672E-3,1.016195E0,1.4876078E0,2.125616E0,0E0,0E0,0E0,0E0,0E0,0E0,0E0,0E0],"parents":[2147483647,0,0,1,1,2,2,3,3,4,4,5,5,6,6],"right_children":[2,4,6,-1,10,12,14,-1,-1,-1,-1,-1,-1,-1,-1],"split_conditions":[7.8305E2,3.2385E2,8.165E2,6.304734E-2,4.4125E2,1.683E2,1.87E2,-0E0,7.144247E-2,4.8662994E-2,-1.7012542E-2,-0E0,-5.7794362E-2,-1.2539235E-2,4.6490673E-2],"split_indices":[1,9,1,10,8,0,0,2147483647,2147483647,0,0,0,0,0,0],"split_type":[0,0,0,0,0,0,0,0,0,0,0,0,0,0,0],"sum_hessian":[4.796319E1,1.4528544E1,3.3434647E1,3.7148685E0,1.0813676E1,1.1573071E1,2.1861574E1,1.037724E0,2.6771445E0,2.1045628E0,8.709113E0,2.4267719E0,9.146298E0,1.3684077E1,8.177498E0],"tree_param":{"num_deleted":"2","num_feature":"16","num_nodes":"15","size_leaf_vector":"0"}},{"base_weights":[-0E0,-3.3310348E-1,5.146178E-2,-6.209476E-1,-0E0,2.446171E-1,-7.627622E-2,4.0198556E-1,-1.3595064E-2,4.4140866E-1,-2.3054764E-1],"categories":[],"categories_nodes":[],"categories_segments":[],"categories_sizes":[],"default_left":[1,1,1,0,0,1,1,0,0,0,0],"id":42,"left_children":[1,3,5,-1,-1,7,9,-1,-1,-1,-1],"loss_changes":[7.105069E-1,8.057655E-1,1.2796775E0,0E0,0E0,1.2464837E0,1.8318399E0,0E0,0E0,0E0,0E0],"parents":[2147483647,0,0,1,1,2,2,5,5,6,6],"right_children":[2,4,6,-1,-1,8,10,-1,-1,-1,-1],"split_conditions":[3.6105E2,6.7035E2,2.02455E3,-6.209476E-2,-0E0,4.1535E2,4.683E2,4.0198557E-2,-1.3595064E-3,4.4140868E-2,-2.3054764E-2],"split_indices":[2,12,13,0,0,2,4,0,0,0,0],"split_type":[0,0,0,0,0,0,0,0,0,0,0],"sum_hessian":[4.7632286E1,4.346386E0,4.32859E1,2.6283114E0,1.7180746E0,1.9982887E1,2.3303013E1,1.4476255E1,5.5066323E0,3.4345262E0,1.9868486E1],"tree_param":{"num_deleted":"0","num_feature":"16","num_nodes":"11","size_leaf_vector":"0"}},{"base_weights":[-0E0,4.818306E-2,-3.2040897E-1,3.8298059E-1,-0E0,-5.5112296E-1,-0E0,8.474965E-1,-2.6185287E-2,-1.1774588E-1,4.235084E-1],"categories":[],"categories_nodes":[],"categories_segments":[],"categories_sizes":[],"default_left":[1,1,1,1,1,1,1,0,0,0,0],"id":43,"left_children":[1,3,-1,7,9,-1,-1,-1,-1,-1,-1],"loss_changes":[6.548356E-1,1.0900424E0,6.0138446E-1,2.388197E0,1.5812392E0,0E0,0E0,0E0,0E0,0E0,0E0],"parents":[2147483647,0,0,1,1,2,2,3,3,4,4],"right_children":[2,4,-1,8,10,-1,-1,-1,-1,-1,-1],"split_conditions":[3.7015E2,1.6765E2,-3.2040898E-2,8.2419995E2,1.1628999E3,-5.51123E-2,-0E0,8.4749654E-2,-2.6185287E-3,-1.1774587E-2,4.235084E-2],"split_indices":[5,0,1,1,3,2147483647,2147483647,0,0,0,0],"split_type":[0,0,0,0,0,0,0,0,0,0,0],"sum_hessian":[4.7325077E1,4.294018E1,4.384896E0,7.1272287E0,3.5812954E1,2.8000312E0,1.5848646E0,3.9807262E0,3.1465023E0,3.0426083E1,5.386871E0],"tree_param":{"num_deleted":"2","num_feature":"16","num_nodes":"11","size_leaf_vector":"0"}},{"base_weights":[-0E0,1.4895777E-1,-8.014071E-2,3.9284703E-1,-3.940749E-2,-4.9738133E-1,-0E0,-0E0,7.733858E-1,1.9486906E-1,-3.218674E-1,-6.404332E-1,-0E0,-1.2920514E-1,4.246349E-1],"categories":[],"categories_nodes":[],"categories_segments":[],"categories_sizes":[],"default_left":[1,1,1,1,1,1,1,0,0,0,0,1,1,0,0],"id":44,"left_children":[1,3,5,7,9,-1,13,-1,-1,-1,-1,-1,-1,-1,-1],"loss_changes":[6.105415E-1,1.2266073E0,1.1573217E0,8.2748973E-1,7.938375E-1,2.6572037E-1,1.5667702E0,0E0,0E0,0E0,0E0,0E0,0E0,0E0,0E0],"parents":[2147483647,0,0,1,1,2,2,3,3,4,4,5,5,6,6],"right_children":[2,4,6,8,10,-1,14,-1,-1,-1,-1,-1,-1,-1,-1],"split_conditions":[3.1290002E2,7.5625E2,3.207E2,4.057E2,7.9605E2,-4.9738135E-2,2.5575E2,-0E0,7.7338584E-2,1.9486906E-2,-3.2186743E-2,-6.404332E-2,-0E0,-1.2920514E-2,4.2463493E-2],"split_indices":[5,7,5,2,1,1,11,0,0,0,0,2147483647,2147483647,0,0],"split_type":[0,0,0,0,0,0,0,0,0,0,0,0,0,0,0],"sum_hessian":[4.7232697E1,1.7669605E1,2.956309E1,9.540347E0,8.129258E0,4.47162E0,2.5091469E1,6.437248E0,3.103099E0,2.6779232E0,5.451335E0,2.9481068E0,1.5235133E0,1.9279953E1,5.8115172E0],"tree_param":{"num_deleted":"2","num_feature":"16","num_nodes":"15","size_leaf_vector":"0"}},{"base_weights":[-0E0,4.6209443E-2,-2.9774037E-1,3.6833695E-1,-2.2318156E-3,-5.379915E-1,-0E0,6.74307E-1,-0E0,1.7156285E-1,-2.633404E-1],"categories":[],"categories_nodes":[],"categories_segments":[],"categories_sizes":[],"default_left":[1,1,1,1,1,1,1,0,0,0,0],"id":45,"left_children":[1,3,-1,7,9,-1,-1,-1,-1,-1,-1],"loss_changes":[5.630969E-1,1.0484393E0,6.15507E-1,1.361268E0,1.7824525E0,0E0,0E0,0E0,0E0,0E0,0E0],"parents":[2147483647,0,0,1,1,2,2,3,3,4,4],"right_children":[2,4,-1,8,10,-1,-1,-1,-1,-1,-1],"split_conditions":[3.7015E2,4.4665002E2,-2.9774038E-2,8.2744995E2,7.405E2,-5.3799152E-2,-0E0,6.74307E-2,-0E0,1.7156286E-2,-2.6334042E-2],"split_indices":[5,8,1,1,10,2147483647,2147483647,0,0,0,0],"split_type":[0,0,0,0,0,0,0,0,0,0,0],"sum_hessian":[4.6974697E1,4.267474E1,4.2999573E0,7.4137993E0,3.526094E1,2.7498753E0,1.5500821E0,4.5043797E0,2.9094198E0,1.9076612E1,1.618433E1],"tree_param":{"num_deleted":"2","num_feature":"16","num_nodes":"11","size_leaf_vector":"0"}},{"base_weights":[-0E0,-2.978843E-1,4.4411268E-2,-5.768119E-1,-0E0,2.1346283E-1,-6.178147E-2,4.8085305E-1,-0E0,3.9704454E-1,-2.0623107E-1],"categories":[],"categories_nodes":[],"categories_segments":[],"categories_sizes":[],"default_left":[1,1,1,0,0,1,1,0,0,0,0],"id":46,"left_children":[1,3,5,-1,-1,7,9,-1,-1,-1,-1],"loss_changes":[5.5337477E-1,7.4411976E-1,9.454116E-1,0E0,0E0,1.2144537E0,1.4715713E0,0E0,0E0,0E0,0E0],"parents":[2147483647,0,0,1,1,2,2,5,5,6,6],"right_children":[2,4,6,-1,-1,8,10,-1,-1,-1,-1],"split_conditions":[3.6105E2,7.5155E2,2.02455E3,-5.768119E-2,-0E0,3.9859998E2,4.683E2,4.8085306E-2,-0E0,3.9704453E-2,-2.0623108E-2],"split_indices":[2,15,13,0,0,2,4,0,0,0,0],"split_type":[0,0,0,0,0,0,0,0,0,0,0],"sum_hessian":[4.6749104E1,4.2698216E0,4.2479282E1,2.642002E0,1.6278193E0,1.9632454E1,2.2846828E1,8.318411E0,1.1314043E1,3.3941705E0,1.9452658E1],"tree_param":{"num_deleted":"0","num_feature":"16","num_nodes":"11","size_leaf_vector":"0"}},{"base_weights":[-0E0,1.3848065E-1,-7.191256E-2,3.6094573E-1,-2.1943191E-2,-3.7356362E-1,5.7975748E-3,5.695067E-1,-0E0,-2.9119402E-1,2.0148228E-1,-0E0,-5.3359985E-1,-4.4340166E-1,1.1688085E-1],"categories":[],"categories_nodes":[],"categories_segments":[],"categories_sizes":[],"default_left":[1,1,1,1,1,1,1,0,0,1,1,1,1,0,0],"id":47,"left_children":[1,3,5,7,-1,-1,13,-1,-1,-1,-1,-1,-1,-1,-1],"loss_changes":[5.077909E-1,1.00233E0,1.0753181E0,7.887335E-1,6.8986523E-1,5.8308005E-1,8.368518E-1,0E0,0E0,0E0,0E0,0E0,0E0,0E0,0E0],"parents":[2147483647,0,0,1,1,2,2,3,3,4,4,5,5,6,6],"right_children":[2,4,6,8,-1,-1,14,-1,-1,-1,-1,-1,-1,-1,-1],"split_conditions":[3.1290002E2,7.5625E2,3.265E2,2.5935E2,-2.1943192E-3,-3.735636E-2,4.1915002E2,5.695067E-2,-0E0,-2.9119402E-2,2.0148229E-2,-0E0,-5.3359985E-2,-4.4340167E-2,1.1688085E-2],"split_indices":[5,7,5,11,5,9,8,0,0,2147483647,2147483647,2147483647,2147483647,0,0],"split_type":[0,0,0,0,0,0,0,0,0,0,0,0,0,0,0],"sum_hessian":[4.64561E1,1.7364553E1,2.9091545E1,9.363463E0,8.00109E0,7.8153863E0,2.127616E1,5.594679E0,3.7687845E0,5.5206203E0,2.48047E0,2.4469922E0,5.3683944E0,1.840334E0,1.9435825E1],"tree_param":{"num_deleted":"4","num_feature":"16","num_nodes":"15","size_leaf_vector":"0"}},{"base_weights":[-0E0,3.1799155E-1,-2.67393E-2,-0E0,5.277751E-1,-1.24776095E-1,1.2279115E-1,4.2442152E-1,-2.8009284E-1,6.096238E-1,-9.252889E-2],"categories":[],"categories_nodes":[],"categories_segments":[],"categories_sizes":[],"default_left":[1,1,1,1,1,1,1,0,0,0,0],"id":48,"left_children":[1,-1,5,-1,-1,7,9,-1,-1,-1,-1],"loss_changes":[4.7595358E-1,4.983248E-1,6.611642E-1,0E0,0E0,2.6242518E0,2.0261035E0,0E0,0E0,0E0,0E0],"parents":[2147483647,0,0,1,1,2,2,5,5,6,6],"right_children":[2,-1,6,-1,-1,8,10,-1,-1,-1,-1],"split_conditions":[6.921E2,3.1799156E-2,8.3575E2,-0E0,5.277751E-2,4.4365002E2,7.5355005E2,4.2442154E-2,-2.8009284E-2,6.096238E-2,-9.252889E-3],"split_indices":[10,2,1,2147483647,2147483647,8,10,0,0,0,0],"split_type":[0,0,0,0,0,0,0,0,0,0,0],"sum_hessian":[4.6317234E1,3.396327E0,4.2920906E1,1.011344E0,2.384983E0,3.0063496E1,1.2857411E1,4.826388E0,2.5237108E1,4.805443E0,8.051969E0],"tree_param":{"num_deleted":"2","num_feature":"16","num_nodes":"11","size_leaf_vector":"0"}},{"base_weights":[-0E0,1.5748793E-1,-5.8744635E-2,5.8144355E-1,-0E0,-3.675804E-1,6.65025E-2,-4.151638E-1,1.1331497E-1,-6.641867E-1,-0E0,-1.0184169E-1,4.3891895E-1],"categories":[],"categories_nodes":[],"categories_segments":[],"categories_sizes":[],"default_left":[1,1,1,0,1,1,1,1,1,0,0,0,0],"id":49,"left_children":[1,3,5,-1,-1,9,11,-1,-1,-1,-1,-1,-1],"loss_changes":[4.847259E-1,1.1464026E0,1.6109955E0,0E0,6.62954E-1,1.205566E0,1.7727829E0,0E0,0E0,0E0,0E0,0E0,0E0],"parents":[2147483647,0,0,1,1,2,2,4,4,5,5,6,6],"right_children":[2,4,6,-1,-1,10,12,-1,-1,-1,-1,-1,-1],"split_conditions":[7.8305E2,3.2385E2,8.165E2,5.8144357E-2,-0E0,4.0540002E2,1.87E2,-4.151638E-2,1.1331498E-2,-6.641867E-2,-0E0,-1.0184169E-2,4.3891896E-2],"split_indices":[1,9,1,0,3,2,0,2147483647,2147483647,0,0,0,0],"split_type":[0,0,0,0,0,0,0,0,0,0,0,0,0],"sum_hessian":[4.6152397E1,1.391956E1,3.2232838E1,3.4855044E0,1.0434055E1,1.10456705E1,2.1187166E1,2.155059E0,8.278996E0,5.422215E0,5.6234555E0,1.3242502E1,7.9446635E0],"tree_param":{"num_deleted":"2","num_feature":"16","num_nodes":"13","size_leaf_vector":"0"}},{"base_weights":[-0E0,4.0919155E-2,-2.7373224E-1,3.5275868E-1,-1.9837148E-3,-5.1810545E-1,-0E0,6.898236E-1,-1.8392684E-1,-4.4933847E-1,5.2451678E-2],"categories":[],"categories_nodes":[],"categories_segments":[],"categories_sizes":[],"default_left":[1,1,1,1,1,1,1,0,0,0,0],"id":50,"left_children":[1,3,-1,7,9,-1,-1,-1,-1,-1,-1],"loss_changes":[4.5736942E-1,9.236779E-1,6.002754E-1,2.0794332E0,1.291579E0,0E0,0E0,0E0,0E0,0E0,0E0],"parents":[2147483647,0,0,1,1,2,2,3,3,4,4],"right_children":[2,4,-1,8,10,-1,-1,-1,-1,-1,-1],"split_conditions":[3.7015E2,1.6765E2,-2.7373224E-2,8.5419995E2,1.7515E2,-5.1810544E-2,-0E0,6.898236E-2,-1.8392684E-2,-4.4933848E-2,5.2451678E-3],"split_indices":[5,0,1,1,0,2147483647,2147483647,0,0,0,0],"split_type":[0,0,0,0,0,0,0,0,0,0,0],"sum_hessian":[4.591765E1,4.1769363E1,4.1482825E0,6.9971056E0,3.477226E1,2.673288E0,1.4749942E0,5.267072E0,1.730033E0,4.978054E0,2.9794205E1],"tree_param":{"num_deleted":"2","num_feature":"16","num_nodes":"11","size_leaf_vector":"0"}},{"base_weights":[-0E0,-2.6946414E-1,3.701312E-2,-5.5619586E-1,-0E0,-3.0511577E-2,2.3892285E-1,-2.3920377E-1,8.1264324E-2,5.341402E-1,-3.5191853E-2],"categories":[],"categories_nodes":[],"categories_segments":[],"categories_sizes":[],"default_left":[1,1,1,0,0,1,1,0,0,0,0],"id":51,"left_children":[1,3,5,-1,-1,7,9,-1,-1,-1,-1],"loss_changes":[4.3294588E-1,7.0154953E-1,7.965923E-1,0E0,0E0,8.5627586E-1,1.691345E0,0E0,0E0,0E0,0E0],"parents":[2147483647,0,0,1,1,2,2,5,5,6,6],"right_children":[2,4,6,-1,-1,8,10,-1,-1,-1,-1],"split_conditions":[3.6105E2,6.7035E2,2.529E2,-5.5619586E-2,-0E0,4.0895E2,4.0235E2,-2.3920378E-2,8.126433E-3,5.3414024E-2,-3.5191854E-3],"split_indices":[2,12,11,0,0,6,6,0,0,0,0],"split_type":[0,0,0,0,0,0,0,0,0,0,0],"sum_hessian":[4.5765083E1,4.158678E0,4.1606407E1,2.4786243E0,1.6800535E0,2.8103819E1,1.3502588E1,1.2525122E1,1.5578696E1,7.800776E0,5.701812E0],"tree_param":{"num_deleted":"0","num_feature":"16","num_nodes":"11","size_leaf_vector":"0"}},{"base_weights":[-0E0,-3.3926043E-1,2.7724285E-2,4.9786973E-1,-3.146234E-2,7.3685837E-1,-0E0,-1.453604E-1,3.0216298E-1],"categories":[],"categories_nodes":[],"categories_segments":[],"categories_sizes":[],"default_left":[1,0,1,1,1,0,0,0,0],"id":52,"left_children":[1,-1,3,5,7,-1,-1,-1,-1],"loss_changes":[4.1628307E-1,0E0,1.7142148E0,9.283891E-1,1.345535E0,0E0,0E0,0E0,0E0],"parents":[2147483647,0,0,2,2,3,3,4,4],"right_children":[2,-1,4,6,8,-1,-1,-1,-1],"split_conditions":[4.1915002E2,-3.3926044E-2,4.4365002E2,1.1575E3,8.4735E2,7.368584E-2,-0E0,-1.453604E-2,3.0216297E-2],"split_indices":[8,0,8,3,1,0,0,0,0],"split_type":[0,0,0,0,0,0,0,0,0],"sum_hessian":[4.5600853E1,2.3210764E0,4.3279774E1,5.8997006E0,3.7380074E1,3.8597429E0,2.0399578E0,3.0521767E1,6.858308E0],"tree_param":{"num_deleted":"0","num_feature":"16","num_nodes":"9","size_leaf_vector":"0"}},{"base_weights":[-0E0,1.23828284E-1,-7.140073E-2,-8.259417E-2,3.081057E-1,-3.0701303E-1,7.7317553E-3,-0E0,-4.8288938E-1,5.758868E-1,-0E0,-4.8364258E-1,-0E0,-1.1678185E-1,3.063776E-1],"categories":[],"categories_nodes":[],"categories_segments":[],"categories_sizes":[],"default_left":[1,1,1,1,1,1,1,1,1,0,0,0,0,0,0],"id":53,"left_children":[1,3,5,-1,9,11,13,-1,-1,-1,-1,-1,-1,-1,-1],"loss_changes":[4.2713326E-1,9.377281E-1,8.513237E-1,6.6969097E-1,1.2623423E0,9.123088E-1,9.641578E-1,0E0,0E0,0E0,0E0,0E0,0E0,0E0,0E0],"parents":[2147483647,0,0,1,1,2,2,3,3,4,4,5,5,6,6],"right_children":[2,4,6,-1,10,12,14,-1,-1,-1,-1,-1,-1,-1,-1],"split_conditions":[3.1290002E2,7.0905E2,3.3184998E2,-8.2594175E-3,7.4330005E2,5.165E2,1.8655E2,-0E0,-4.8288938E-2,5.7588678E-2,-0E0,-4.836426E-2,-0E0,-1.1678185E-2,3.063776E-2],"split_indices":[5,15,5,11,10,4,0,2147483647,2147483647,0,0,0,0,0,0],"split_type":[0,0,0,0,0,0,0,0,0,0,0,0,0,0,0],"sum_hessian":[4.5535744E1,1.7054337E1,2.848141E1,5.744594E0,1.1309742E1,9.613897E0,1.8867512E1,3.6753144E0,2.0692797E0,6.329798E0,4.9799438E0,7.177255E0,2.4366424E0,1.1382395E1,7.4851174E0],"tree_param":{"num_deleted":"2","num_feature":"16","num_nodes":"15","size_leaf_vector":"0"}},{"base_weights":[-0E0,1.3960437E-1,-6.010988E-2,5.405695E-1,-0E0,-3.531454E-1,5.3776972E-2,-4.047827E-1,1.0508987E-1,-0E0,-5.1597875E-1,5.5700696E-1,-4.2166326E-2],"categories":[],"categories_nodes":[],"categories_segments":[],"categories_sizes":[],"default_left":[1,1,1,0,1,1,1,1,1,0,0,0,0],"id":54,"left_children":[1,3,5,-1,-1,9,11,-1,-1,-1,-1,-1,-1],"loss_changes":[4.0171376E-1,9.7437763E-1,1.4096751E0,0E0,6.0954547E-1,1.0498717E0,1.5985409E0,0E0,0E0,0E0,0E0,0E0,0E0],"parents":[2147483647,0,0,1,1,2,2,4,4,5,5,6,6],"right_children":[2,4,6,-1,-1,10,12,-1,-1,-1,-1,-1,-1],"split_conditions":[7.8305E2,3.2385E2,8.165E2,5.405695E-2,-0E0,1.683E2,1.41975E3,-4.047827E-2,1.0508987E-2,-0E0,-5.1597875E-2,5.5700697E-2,-4.216633E-3],"split_indices":[1,9,1,0,3,0,14,2147483647,2147483647,0,0,0,0],"split_type":[0,0,0,0,0,0,0,0,0,0,0,0,0],"sum_hessian":[4.525011E1,1.3549453E1,3.1700657E1,3.30483E0,1.0244623E1,1.0741679E1,2.0958979E1,2.1040664E0,8.140556E0,2.2981238E0,8.443555E0,4.255547E0,1.6703432E1],"tree_param":{"num_deleted":"2","num_feature":"16","num_nodes":"13","size_leaf_vector":"0"}},{"base_weights":[-0E0,4.287923E-2,-2.0203052E-1,-2.2626163E-2,3.4984484E-1,-4.5463577E-1,-0E0,2.1199991E-1,-1.7242281E-1,6.2347883E-1,-0E0,-6.10883E-1,-0E0,-0E0,2.1512336E-1],"categories":[],"categories_nodes":[],"categories_segments":[],"categories_sizes":[],"default_left":[1,1,1,1,1,1,1,0,0,0,0,1,1,1,1],"id":55,"left_children":[1,3,5,7,9,-1,-1,-1,-1,-1,-1,-1,-1,-1,-1],"loss_changes":[3.8216078E-1,1.127203E0,7.769295E-1,1.0765915E0,1.4856484E0,2.691822E-1,9.323106E-2,0E0,0E0,0E0,0E0,0E0,0E0,0E0,0E0],"parents":[2147483647,0,0,1,1,2,2,3,3,4,4,5,5,6,6],"right_children":[2,4,6,8,10,-1,-1,-1,-1,-1,-1,-1,-1,-1,-1],"split_conditions":[7.8915E2,3.5805E2,8.1775E2,6.1765E2,4.2915002E2,-4.5463577E-2,-0E0,2.1199992E-2,-1.724228E-2,6.2347885E-2,-0E0,-6.10883E-2,-0E0,-0E0,2.1512335E-2],"split_indices":[10,9,10,12,6,8,12,0,0,0,0,2147483647,2147483647,2147483647,2147483647],"split_type":[0,0,0,0,0,0,0,0,0,0,0,0,0,0,0],"sum_hessian":[4.497943E1,3.839091E1,6.58852E0,2.9717827E1,8.673084E0,4.257369E0,2.331151E0,8.816929E0,2.0900898E1,5.867438E0,2.8056467E0,2.633245E0,1.624124E0,1.3165665E0,1.0145845E0],"tree_param":{"num_deleted":"4","num_feature":"16","num_nodes":"15","size_leaf_vector":"0"}},{"base_weights":[-0E0,-7.873369E-2,1.0684527E-1,-3.444366E-1,5.9380602E-2,4.2004135E-1,-2.3291744E-2,-5.883411E-1,-0E0,5.4892683E-1,-4.56166E-2,6.028751E-1,-0E0,-2.6411453E-1,2.8358662E-1],"categories":[],"categories_nodes":[],"categories_segments":[],"categories_sizes":[],"default_left":[1,1,1,1,1,1,1,0,0,0,0,0,0,0,0],"id":56,"left_children":[1,3,5,7,9,11,13,-1,-1,-1,-1,-1,-1,-1,-1],"loss_changes":[3.9876089E-1,1.2656717E0,1.2511563E0,1.5387114E0,1.3298026E0,1.1494577E0,1.0406704E0,0E0,0E0,0E0,0E0,0E0,0E0,0E0,0E0],"parents":[2147483647,0,0,1,1,2,2,3,3,4,4,5,5,6,6],"right_children":[2,4,6,8,10,12,14,-1,-1,-1,-1,-1,-1,-1,-1],"split_conditions":[4.893E2,1.10715E3,5.066E2,7.6380005E2,7.9635E2,2.0987002E3,1.48015E3,-5.8834113E-2,-0E0,5.4892685E-2,-4.5616603E-3,6.0287513E-2,-0E0,-2.6411453E-2,2.8358663E-2],"split_indices":[8,3,8,10,1,13,14,0,0,0,0,0,0,0,0],"split_type":[0,0,0,0,0,0,0,0,0,0,0,0,0,0,0],"sum_hessian":[4.488703E1,2.5164354E1,1.9722675E1,1.0572197E1,1.4592157E1,7.3911595E0,1.2331516E1,7.411488E0,3.1607082E0,3.512285E0,1.1079872E1,6.2359037E0,1.1552563E0,8.813272E0,3.518244E0],"tree_param":{"num_deleted":"0","num_feature":"16","num_nodes":"15","size_leaf_vector":"0"}},{"base_weights":[-0E0,9.9445105E-2,-9.1270834E-2,-1.343662E-1,2.1775474E-1,-2.4871625E-1,2.979203E-1,2.8400617E-2,-4.9835697E-1,-0E0,4.870758E-1,1.609383E-2,-5.2631146E-1,-0E0,6.7716026E-1],"categories":[],"categories_nodes":[],"categories_segments":[],"categories_sizes":[],"default_left":[1,1,1,1,1,1,1,0,0,0,0,0,0,0,0],"id":57,"left_children":[1,3,5,7,9,11,13,-1,-1,-1,-1,-1,-1,-1,-1],"loss_changes":[4.2513406E-1,7.597358E-1,1.4504243E0,8.181474E-1,1.0658507E0,1.9107994E0,1.1757627E0,0E0,0E0,0E0,0E0,0E0,0E0,0E0,0E0],"parents":[2147483647,0,0,1,1,2,2,3,3,4,4,5,5,6,6],"right_children":[2,4,6,8,10,12,14,-1,-1,-1,-1,-1,-1,-1,-1],"split_conditions":[4.9205E2,1.7515E2,8.1985E2,7.349E2,1.4571499E3,7.5595E2,3.2159998E2,2.8400617E-3,-4.9835697E-2,-0E0,4.8707582E-2,1.609383E-3,-5.2631147E-2,-0E0,6.7716025E-2],"split_indices":[4,0,7,10,14,7,5,0,0,0,0,0,0,0,0],"split_type":[0,0,0,0,0,0,0,0,0,0,0,0,0,0,0],"sum_hessian":[4.465653E1,2.2392572E1,2.2263958E1,4.6381807E0,1.775439E1,1.7937714E1,4.3262444E0,1.9436742E0,2.6945066E0,1.0513342E1,7.2410493E0,7.818738E0,1.0118975E1,1.7311819E0,2.5950625E0],"tree_param":{"num_deleted":"0","num_feature":"16","num_nodes":"15","size_leaf_vector":"0"}},{"base_weights":[-0E0,1.4441812E-1,-5.3836957E-2,-0E0,6.1922354E-1,-2.923019E-1,4.9845062E-2,-4.546451E-1,1.16855815E-1,-0E0,-5.4422593E-1,2.2673213E-1,-2.1165614E-1],"categories":[],"categories_nodes":[],"categories_segments":[],"categories_sizes":[],"default_left":[1,1,1,1,0,1,1,0,0,0,0,0,0],"id":58,"left_children":[1,3,5,7,-1,9,11,-1,-1,-1,-1,-1,-1],"loss_changes":[3.8899487E-1,1.3275118E0,1.052708E0,8.284323E-1,0E0,1.0786409E0,1.0049001E0,0E0,0E0,0E0,0E0,0E0,0E0],"parents":[2147483647,0,0,1,1,2,2,3,3,5,5,6,6],"right_children":[2,4,6,8,-1,10,12,-1,-1,-1,-1,-1,-1],"split_conditions":[3.834E2,3.756E2,1.1069E3,2.313E2,6.1922353E-2,1.06135E3,7.3369995E2,-4.5464512E-2,1.1685582E-2,-0E0,-5.4422595E-2,2.2673214E-2,-2.1165615E-2],"split_indices":[6,6,3,11,0,3,15,0,0,0,0,0,0],"split_type":[0,0,0,0,0,0,0,0,0,0,0,0,0],"sum_hessian":[4.4360516E1,1.317865E1,3.1181866E1,9.945291E0,3.2333598E0,1.182059E1,1.9361277E1,2.4463964E0,7.498894E0,5.48038E0,6.34021E0,1.390951E1,5.4517665E0],"tree_param":{"num_deleted":"0","num_feature":"16","num_nodes":"13","size_leaf_vector":"0"}},{"base_weights":[-0E0,-6.3535236E-2,1.20163284E-1,-2.3408106E-1,2.0193808E-1,5.144666E-1,-1.1293812E-2,4.0053472E-2,-5.4875743E-1,-3.178942E-1,4.6004593E-1,6.678252E-1,-0E0,4.970961E-2,-4.568654E-1],"categories":[],"categories_nodes":[],"categories_segments":[],"categories_sizes":[],"default_left":[1,1,1,1,1,1,1,0,0,0,0,1,1,0,0],"id":59,"left_children":[1,3,5,7,9,-1,13,-1,-1,-1,-1,-1,-1,-1,-1],"loss_changes":[3.682154E-1,1.3777798E0,1.4152427E0,2.2746663E0,1.557704E0,6.913103E-1,7.611768E-1,0E0,0E0,0E0,0E0,0E0,0E0,0E0,0E0],"parents":[2147483647,0,0,1,1,2,2,3,3,4,4,5,5,6,6],"right_children":[2,4,6,8,10,-1,14,-1,-1,-1,-1,-1,-1,-1,-1],"split_conditions":[1.9204999E2,4.3015002E2,7.2380005E2,2.02015E3,1.5270001E2,5.1446658E-2,7.63E2,4.0053474E-3,-5.4875743E-2,-3.178942E-2,4.6004593E-2,6.678253E-2,-0E0,4.9709613E-3,-4.568654E-2],"split_indices":[0,2,7,13,0,4,15,0,0,0,0,2147483647,2147483647,0,0],"split_type":[0,0,0,0,0,0,0,0,0,0,0,0,0,0,0],"sum_hessian":[4.4161015E1,2.767712E1,1.6483896E1,1.9216883E1,8.460236E0,5.2950273E0,1.11888685E1,9.038084E0,1.01788E1,1.4446703E0,7.0155654E0,4.2858796E0,1.0091478E0,8.648875E0,2.5399935E0],"tree_param":{"num_deleted":"2","num_feature":"16","num_nodes":"15","size_leaf_vector":"0"}},{"base_weights":[-0E0,-2.4846342E-1,3.7537698E-2,-5.1607996E-1,-0E0,-1.89967E-2,2.197489E-1,1.6804992E-1,-1.5877476E-1,4.9329674E-1,-1.814635E-2],"categories":[],"categories_nodes":[],"categories_segments":[],"categories_sizes":[],"default_left":[1,1,1,1,1,1,1,0,0,0,0],"id":60,"left_children":[1,-1,5,-1,-1,7,9,-1,-1,-1,-1],"loss_changes":[3.6099768E-1,5.9234387E-1,6.272428E-1,0E0,0E0,7.500089E-1,1.3936049E0,0E0,0E0,0E0,0E0],"parents":[2147483647,0,0,1,1,2,2,5,5,6,6],"right_children":[2,-1,6,-1,-1,8,10,-1,-1,-1,-1],"split_conditions":[3.6105E2,-2.4846343E-2,2.529E2,-5.1607996E-2,-0E0,3.1265E2,4.0235E2,1.6804991E-2,-1.5877476E-2,4.9329676E-2,-1.8146349E-3],"split_indices":[2,12,11,2147483647,2147483647,5,6,0,0,0,0],"split_type":[0,0,0,0,0,0,0,0,0,0,0],"sum_hessian":[4.3908657E1,3.911874E0,3.9996784E1,2.36254E0,1.5493342E0,2.7020714E1,1.2976069E1,8.410109E0,1.8610605E1,7.491633E0,5.484437E0],"tree_param":{"num_deleted":"2","num_feature":"16","num_nodes":"11","size_leaf_vector":"0"}},{"base_weights":[-0E0,-2.0246303E-2,3.138901E-1,8.708411E-2,-1.8443811E-1,5.0236905E-1,-0E0,-0E0,3.0339876E-1,7.4626125E-2,-3.4662485E-1],"categories":[],"categories_nodes":[],"categories_segments":[],"categories_sizes":[],"default_left":[1,1,1,1,1,1,1,1,1,0,0],"id":61,"left_children":[1,3,-1,-1,9,-1,-1,-1,-1,-1,-1],"loss_changes":[3.525614E-1,8.5915995E-1,2.3580289E-1,6.269153E-1,1.1689265E0,0E0,0E0,0E0,0E0,0E0,0E0],"parents":[2147483647,0,0,1,1,2,2,3,3,4,4],"right_children":[2,4,-1,-1,10,-1,-1,-1,-1,-1,-1],"split_conditions":[1.22265E3,4.9205E2,3.138901E-2,8.708411E-3,1.42145E3,5.0236907E-2,-0E0,-0E0,3.0339876E-2,7.462613E-3,-3.4662485E-2],"split_indices":[3,4,15,12,14,2147483647,2147483647,2147483647,2147483647,0,0],"split_type":[0,0,0,0,0,0,0,0,0,0,0],"sum_hessian":[4.371935E1,4.131708E1,2.4022667E0,2.1585835E1,1.9731247E1,1.2625805E0,1.1396862E0,1.39145565E1,7.6712775E0,5.430747E0,1.4300499E1],"tree_param":{"num_deleted":"4","num_feature":"16","num_nodes":"11","size_leaf_vector":"0"}},{"base_weights":[-0E0,3.7930254E-2,-2.343179E-1,3.0528823E-1,-0E0,-4.752873E-1,-0E0,6.527598E-1,-0E0,2.560664E-1,-1.6142768E-1],"categories":[],"categories_nodes":[],"categories_segments":[],"categories_sizes":[],"default_left":[1,1,1,1,1,1,1,0,0,0,0],"id":62,"left_children":[1,3,-1,7,9,-1,-1,-1,-1,-1,-1],"loss_changes":[3.2603964E-1,6.8690753E-1,5.1665044E-1,1.0079968E0,1.3463981E0,0E0,0E0,0E0,0E0,0E0,0E0],"parents":[2147483647,0,0,1,1,2,2,3,3,4,4],"right_children":[2,4,-1,8,10,-1,-1,-1,-1,-1,-1],"split_conditions":[3.7015E2,4.4665002E2,-2.3431791E-2,3.4875E2,6.187E2,-4.752873E-2,-0E0,6.527598E-2,-0E0,2.5606642E-2,-1.6142769E-2],"split_indices":[5,8,1,9,12,2147483647,2147483647,0,0,0,0],"split_type":[0,0,0,0,0,0,0,0,0,0,0],"sum_hessian":[4.3504257E1,3.963066E1,3.873595E0,6.997381E0,3.263328E1,2.4716313E0,1.4019638E0,3.1149476E0,3.8824334E0,1.0234638E1,2.2398642E1],"tree_param":{"num_deleted":"2","num_feature":"16","num_nodes":"11","size_leaf_vector":"0"}},{"base_weights":[-0E0,1.1133624E-1,-5.502759E-2,-0E0,4.6383008E-1,-3.9564553E-1,-0E0,1.2383852E-1,-2.0462629E-1,-0E0,6.569922E-1,-0E0,-5.381595E-1,-9.620842E-2,3.5929427E-1],"categories":[],"categories_nodes":[],"categories_segments":[],"categories_sizes":[],"default_left":[1,1,1,1,1,1,1,1,1,1,1,1,1,0,0],"id":63,"left_children":[1,3,5,-1,-1,-1,13,-1,-1,-1,-1,-1,-1,-1,-1],"loss_changes":[3.0013257E-1,8.323277E-1,7.0444053E-1,3.9331517E-1,5.863923E-1,2.619049E-1,9.8431826E-1,0E0,0E0,0E0,0E0,0E0,0E0,0E0,0E0],"parents":[2147483647,0,0,1,1,2,2,3,3,4,4,5,5,6,6],"right_children":[2,4,6,-1,-1,-1,14,-1,-1,-1,-1,-1,-1,-1,-1],"split_conditions":[3.1290002E2,3.0655E2,3.207E2,-0E0,4.638301E-2,-3.9564554E-2,2.5575E2,1.2383852E-2,-2.046263E-2,-0E0,6.569922E-2,-0E0,-5.381595E-2,-9.6208425E-3,3.5929427E-2],"split_indices":[5,5,5,7,9,9,11,2147483647,2147483647,2147483647,2147483647,2147483647,2147483647,0,0],"split_type":[0,0,0,0,0,0,0,0,0,0,0,0,0,0,0],"sum_hessian":[4.3448246E1,1.6348259E1,2.7099985E1,1.2479892E1,3.8683677E0,4.0437694E0,2.3056217E1,7.0263124E0,5.4535794E0,1.0833392E0,2.7850285E0,1.4133257E0,2.6304436E0,1.7777681E1,5.278535E0],"tree_param":{"num_deleted":"6","num_feature":"16","num_nodes":"15","size_leaf_vector":"0"}},{"base_weights":[-0E0,-2.2393075E-1,3.570848E-2,-5.0277317E-1,-0E0,1.7080581E-1,-3.7806887E-2,-0E0,3.5243338E-1,-4.67421E-1,2.1891309E-2],"categories":[],"categories_nodes":[],"categories_segments":[],"categories_sizes":[],"default_left":[1,1,1,1,1,1,1,0,0,0,0],"id":64,"left_children":[1,-1,5,-1,-1,7,9,-1,-1,-1,-1],"loss_changes":[2.970558E-1,5.9698683E-1,5.408565E-1,0E0,0E0,8.923238E-1,1.025091E0,0E0,0E0,0E0,0E0],"parents":[2147483647,0,0,1,1,2,2,5,5,6,6],"right_children":[2,-1,6,-1,-1,8,10,-1,-1,-1,-1],"split_conditions":[3.6105E2,-2.2393076E-2,2.02455E3,-5.027732E-2,-0E0,1.96625E3,2.04455E3,-0E0,3.524334E-2,-4.67421E-2,2.189131E-3],"split_indices":[2,12,13,2147483647,2147483647,13,13,0,0,0,0],"split_type":[0,0,0,0,0,0,0,0,0,0,0],"sum_hessian":[4.331215E1,3.896236E0,3.9415913E1,2.3329601E0,1.5632759E0,1.8217419E1,2.1198494E1,7.519543E0,1.0697876E1,3.7967348E0,1.740176E1],"tree_param":{"num_deleted":"2","num_feature":"16","num_nodes":"11","size_leaf_vector":"0"}},{"base_weights":[-0E0,-4.1689985E-2,1.409342E-1,-5.3640467E-1,2.8464444E-2,4.852443E-1,-1.10863134E-1,-0E0,-7.4296093E-1,1.2616518E-1,-3.91145E-1,-0E0,7.077157E-1,-5.3671896E-1,1.0934197E-1],"categories":[],"categories_nodes":[],"categories_segments":[],"categories_sizes":[],"default_left":[1,1,1,1,1,1,1,0,0,0,0,0,0,0,0],"id":65,"left_children":[1,3,5,7,9,11,13,-1,-1,-1,-1,-1,-1,-1,-1],"loss_changes":[2.8507593E-1,1.6973679E0,1.4158328E0,9.3062985E-1,9.654178E-1,1.2588959E0,1.0221344E0,0E0,0E0,0E0,0E0,0E0,0E0,0E0,0E0],"parents":[2147483647,0,0,1,1,2,2,3,3,4,4,5,5,6,6],"right_children":[2,4,6,8,10,12,14,-1,-1,-1,-1,-1,-1,-1,-1],"split_conditions":[6.7025E2,3.725E2,3.847E2,6.0565E2,5.245E2,2.6995E2,5.0005E2,-0E0,-7.4296094E-2,1.2616518E-2,-3.91145E-2,-0E0,7.077157E-2,-5.3671896E-2,1.0934197E-2],"split_indices":[12,2,6,12,8,5,8,0,0,0,0,0,0,0,0],"split_type":[0,0,0,0,0,0,0,0,0,0,0,0,0,0,0],"sum_hessian":[4.32233E1,3.2831177E1,1.0392124E1,5.022406E0,2.7808771E1,5.675591E0,4.7165327E0,1.1972245E0,3.8251817E0,2.505705E1,2.751721E0,1.0238402E0,4.651751E0,2.6655235E0,2.0510092E0],"tree_param":{"num_deleted":"0","num_feature":"16","num_nodes":"15","size_leaf_vector":"0"}},{"base_weights":[-0E0,1.0342642E-1,-6.1240517E-2,-7.2100036E-2,2.7905995E-1,-3.682717E-1,-0E0,-0E0,-4.5293933E-1,-8.930053E-4,4.755563E-1,-0E0,-5.153501E-1,-9.8392166E-2,3.190696E-1],"categories":[],"categories_nodes":[],"categories_segments":[],"categories_sizes":[],"default_left":[1,1,1,1,1,1,1,1,1,0,0,1,1,0,0],"id":66,"left_children":[1,3,5,-1,9,-1,13,-1,-1,-1,-1,-1,-1,-1,-1],"loss_changes":[2.8735787E-1,7.5412655E-1,5.713502E-1,5.7493377E-1,1.1131186E0,2.7420944E-1,8.094155E-1,0E0,0E0,0E0,0E0,0E0,0E0,0E0,0E0],"parents":[2147483647,0,0,1,1,2,2,3,3,4,4,5,5,6,6],"right_children":[2,4,6,-1,10,-1,14,-1,-1,-1,-1,-1,-1,-1,-1],"split_conditions":[3.1290002E2,7.0905E2,3.207E2,-7.2100037E-3,1.0265E3,-3.6827173E-2,2.5575E2,-0E0,-4.5293935E-2,-8.930053E-5,4.7555633E-2,-0E0,-5.153501E-2,-9.839217E-3,3.190696E-2],"split_indices":[5,15,5,11,3,9,11,2147483647,2147483647,0,0,2147483647,2147483647,0,0],"split_type":[0,0,0,0,0,0,0,0,0,0,0,0,0,0,0],"sum_hessian":[4.2954445E1,1.609617E1,2.6858273E1,5.4976673E0,1.0598504E1,3.9831123E0,2.287516E1,3.5305734E0,1.967094E0,2.6827009E0,7.9158034E0,1.4059645E0,2.577148E0,1.7703085E1,5.1720743E0],"tree_param":{"num_deleted":"4","num_feature":"16","num_nodes":"15","size_leaf_vector":"0"}},{"base_weights":[-0E0,-8.463882E-2,7.508947E-2,5.8557786E-2,-3.6606738E-1,-1.6982248E-1,2.210377E-1,-6.289669E-2,3.32941E-1,8.001936E-2,-6.5646195E-1,9.187844E-3,-3.852318E-1,-5.2723397E-2,3.5686144E-1],"categories":[],"categories_nodes":[],"categories_segments":[],"categories_sizes":[],"default_left":[1,1,1,1,1,1,1,0,0,0,0,1,1,0,0],"id":67,"left_children":[1,3,5,7,9,-1,13,-1,-1,-1,-1,-1,-1,-1,-1],"loss_changes":[2.8549305E-1,1.2062371E0,9.0998966E-1,7.220468E-1,1.9029024E0,6.335454E-1,9.6953875E-1,0E0,0E0,0E0,0E0,0E0,0E0,0E0,0E0],"parents":[2147483647,0,0,1,1,2,2,3,3,4,4,5,5,6,6],"right_children":[2,4,6,8,10,-1,14,-1,-1,-1,-1,-1,-1,-1,-1],"split_conditions":[1.10715E3,1.06315E3,2.2045E2,1.0314E3,7.1845E2,-1.6982248E-2,3.8165E2,-6.2896693E-3,3.32941E-2,8.001937E-3,-6.5646194E-2,9.1878435E-4,-3.852318E-2,-5.2723396E-3,3.5686146E-2],"split_indices":[3,3,11,3,10,11,2,0,0,0,0,2147483647,2147483647,0,0],"split_type":[0,0,0,0,0,0,0,0,0,0,0,0,0,0,0],"sum_hessian":[4.2744457E1,2.0769226E1,2.1975231E1,1.1935054E1,8.834172E0,5.5860686E0,1.6389162E1,6.281021E0,5.6540327E0,2.4111552E0,6.423017E0,1.0382663E0,4.5478024E0,3.1962557E0,1.3192906E1],"tree_param":{"num_deleted":"2","num_feature":"16","num_nodes":"15","size_leaf_vector":"0"}},{"base_weights":[-0E0,-2.7287535E-2,2.6531556E-1,6.644775E-2,-1.7752667E-1,4.6037075E-1,-0E0,-1.2832229E-1,1.7962658E-1,5.806624E-2,-3.3231694E-1],"categories":[],"categories_nodes":[],"categories_segments":[],"categories_sizes":[],"default_left":[1,1,1,1,1,1,1,1,1,0,0],"id":68,"left_children":[1,3,-1,-1,9,-1,-1,-1,-1,-1,-1],"loss_changes":[2.6756975E-1,7.024609E-1,2.3801376E-1,5.5871433E-1,1.0295804E0,0E0,0E0,0E0,0E0,0E0,0E0],"parents":[2147483647,0,0,1,1,2,2,3,3,4,4],"right_children":[2,4,-1,-1,10,-1,-1,-1,-1,-1,-1],"split_conditions":[1.22265E3,4.9205E2,2.6531557E-2,6.644775E-3,1.42145E3,4.6037074E-2,-0E0,-1.2832229E-2,1.7962659E-2,5.8066244E-3,-3.3231694E-2],"split_indices":[3,4,15,0,14,2147483647,2147483647,2147483647,2147483647,0,0],"split_type":[0,0,0,0,0,0,0,0,0,0,0],"sum_hessian":[4.2521618E1,4.015584E1,2.3657742E0,2.0972569E1,1.9183273E1,1.240897E0,1.124877E0,4.411471E0,1.6561098E1,5.2925124E0,1.3890761E1],"tree_param":{"num_deleted":"4","num_feature":"16","num_nodes":"11","size_leaf_vector":"0"}},{"base_weights":[-0E0,-4.7505554E-2,1.3119383E-1,-1.5922943E-1,1.8516476E-1,5.657623E-1,-6.1314594E-2,-0E0,-4.1581646E-1,5.212684E-1,-0E0,-0E0,7.0745695E-1,-3.6689377E-1,3.423675E-1],"categories":[],"categories_nodes":[],"categories_segments":[],"categories_sizes":[],"default_left":[1,1,1,1,1,1,1,0,0,0,0,1,1,0,0],"id":69,"left_children":[1,3,5,7,9,-1,13,-1,-1,-1,-1,-1,-1,-1,-1],"loss_changes":[2.7584937E-1,8.500941E-1,1.5226855E0,1.4096324E0,8.5615593E-1,6.269419E-2,1.0697685E0,0E0,0E0,0E0,0E0,0E0,0E0,0E0,0E0],"parents":[2147483647,0,0,1,1,2,2,3,3,4,4,5,5,6,6],"right_children":[2,4,6,8,10,-1,14,-1,-1,-1,-1,-1,-1,-1,-1],"split_conditions":[3.5805E2,1.1381E3,7.533E2,4.828E2,4.081E2,5.657623E-2,6.4975E2,-0E0,-4.1581646E-2,5.2126843E-2,-0E0,-0E0,7.07457E-2,-3.668938E-2,3.423675E-2],"split_indices":[9,3,10,4,2,15,12,0,0,0,0,2147483647,2147483647,0,0],"split_type":[0,0,0,0,0,0,0,0,0,0,0,0,0,0,0],"sum_hessian":[4.2322693E1,3.1565928E1,1.0756764E1,2.4442617E1,7.123311E0,4.301728E0,6.455037E0,1.355907E1,1.0883547E1,3.1758735E0,3.9474375E0,1.7857949E0,2.515933E0,5.1357255E0,1.3193115E0],"tree_param":{"num_deleted":"2","num_feature":"16","num_nodes":"15","size_leaf_vector":"0"}},{"base_weights":[-0E0,3.0257924E-2,-2.1383944E-1,2.8634897E-1,-1.5632253E-3,-4.618857E-1,-0E0,6.02499E-1,-0E0,2.1605729E-1,-1.5203077E-1],"categories":[],"categories_nodes":[],"categories_segments":[],"categories_sizes":[],"default_left":[1,1,1,1,1,1,1,0,0,0,0],"id":70,"left_children":[1,3,-1,7,9,-1,-1,-1,-1,-1,-1],"loss_changes":[2.52455E-1,6.0561997E-1,5.040138E-1,8.223211E-1,1.0327497E0,0E0,0E0,0E0,0E0,0E0,0E0],"parents":[2147483647,0,0,1,1,2,2,3,3,4,4],"right_children":[2,4,-1,8,10,-1,-1,-1,-1,-1,-1],"split_conditions":[3.7015E2,4.4665002E2,-2.1383945E-2,3.4875E2,6.187E2,-4.618857E-2,-0E0,6.0249902E-2,-0E0,2.1605728E-2,-1.5203076E-2],"split_indices":[5,8,1,9,12,2147483647,2147483647,0,0,0,0],"split_type":[0,0,0,0,0,0,0,0,0,0,0],"sum_hessian":[4.204924E1,3.8315525E1,3.7337134E0,6.8240113E0,3.1491514E1,2.3771405E0,1.3565729E0,3.0326066E0,3.7914047E0,9.978212E0,2.15133E1],"tree_param":{"num_deleted":"2","num_feature":"16","num_nodes":"11","size_leaf_vector":"0"}},{"base_weights":[-0E0,-5.4915372E-2,1.01386264E-1,-2.1455508E-1,1.7524481E-1,4.6681425E-1,-7.3137367E-3,1.1801512E-2,-4.993083E-1,-2.6114222E-1,4.0957725E-1,5.69275E-1,-0E0,4.1984797E-2,-4.2711356E-1],"categories":[],"categories_nodes":[],"categories_segments":[],"categories_sizes":[],"default_left":[1,1,1,1,1,1,1,0,0,0,0,1,1,1,1],"id":71,"left_children":[1,3,5,7,9,-1,-1,-1,-1,-1,-1,-1,-1,-1,-1],"loss_changes":[2.5353557E-1,1.0817376E0,1.1239579E0,1.7285414E0,1.1946526E0,2.6829076E-1,6.4523655E-1,0E0,0E0,0E0,0E0,0E0,0E0,0E0,0E0],"parents":[2147483647,0,0,1,1,2,2,3,3,4,4,5,5,6,6],"right_children":[2,4,6,8,10,-1,-1,-1,-1,-1,-1,-1,-1,-1,-1],"split_conditions":[1.9204999E2,4.3015002E2,7.2380005E2,2.02015E3,1.5270001E2,4.6681426E-2,-7.313737E-4,1.1801512E-3,-4.993083E-2,-2.6114224E-2,4.0957727E-2,5.6927502E-2,-0E0,4.19848E-3,-4.271136E-2],"split_indices":[0,2,7,13,0,4,15,0,0,0,0,2147483647,2147483647,2147483647,2147483647],"split_type":[0,0,0,0,0,0,0,0,0,0,0,0,0,0,0],"sum_hessian":[4.198941E1,2.6347681E1,1.5641728E1,1.8162632E1,8.185048E0,4.9398932E0,1.0701835E1,8.696408E0,9.466225E0,1.3287411E0,6.856307E0,3.8220022E0,1.1178911E0,8.250814E0,2.4510207E0],"tree_param":{"num_deleted":"4","num_feature":"16","num_nodes":"15","size_leaf_vector":"0"}},{"base_weights":[-0E0,-4.0773433E-2,1.2806271E-1,-1.4253843E-1,1.5723209E-1,-0E0,6.926713E-1,-0E0,-3.796861E-1,4.7745794E-1,-0E0,2.3812138E-1,-4.3274242E-1],"categories":[],"categories_nodes":[],"categories_segments":[],"categories_sizes":[],"default_left":[1,1,1,1,1,1,0,0,0,0,0,0,0],"id":72,"left_children":[1,3,5,7,9,11,-1,-1,-1,-1,-1,-1,-1],"loss_changes":[2.4371554E-1,6.558151E-1,1.4281319E0,1.166412E0,7.4248946E-1,1.2194576E0,0E0,0E0,0E0,0E0,0E0,0E0,0E0],"parents":[2147483647,0,0,1,1,2,2,3,3,4,4,5,5],"right_children":[2,4,6,8,10,12,-1,-1,-1,-1,-1,-1,-1],"split_conditions":[3.5805E2,1.1381E3,6.504E2,4.828E2,4.081E2,7.6795E2,6.926713E-2,-0E0,-3.796861E-2,4.7745794E-2,-0E0,2.3812138E-2,-4.3274242E-2],"split_indices":[9,3,12,4,2,10,0,0,0,0,0,0,0],"split_type":[0,0,0,0,0,0,0,0,0,0,0,0,0],"sum_hessian":[4.1763817E1,3.1163586E1,1.0600231E1,2.4105204E1,7.058382E0,8.227162E0,2.3730686E0,1.3476029E1,1.0629174E1,3.1309137E0,3.927468E0,4.3287363E0,3.898426E0],"tree_param":{"num_deleted":"0","num_feature":"16","num_nodes":"13","size_leaf_vector":"0"}},{"base_weights":[-0E0,1.17687464E-1,-4.1275267E-2,4.932212E-1,-0E0,-3.0434063E-1,5.086889E-2,2.9192922E-1,-1.4777255E-1,-0E0,-4.7242728E-1,-8.255E-2,3.815609E-1],"categories":[],"categories_nodes":[],"categories_segments":[],"categories_sizes":[],"default_left":[1,1,1,0,1,1,1,1,1,0,0,0,0],"id":73,"left_children":[1,3,5,-1,-1,9,11,-1,-1,-1,-1,-1,-1],"loss_changes":[2.3612003E-1,7.999506E-1,9.993581E-1,0E0,4.2572713E-1,9.364033E-1,1.228684E0,0E0,0E0,0E0,0E0,0E0,0E0],"parents":[2147483647,0,0,1,1,2,2,4,4,5,5,6,6],"right_children":[2,4,6,-1,-1,10,12,-1,-1,-1,-1,-1,-1],"split_conditions":[7.8305E2,3.2385E2,8.165E2,4.932212E-2,-0E0,1.683E2,1.87E2,2.9192923E-2,-1.4777255E-2,-0E0,-4.7242727E-2,-8.255E-3,3.815609E-2],"split_indices":[1,9,1,0,8,0,0,2147483647,2147483647,0,0,0,0],"split_type":[0,0,0,0,0,0,0,0,0,0,0,0,0],"sum_hessian":[4.147386E1,1.2341566E1,2.9132294E1,3.0479605E0,9.293605E0,9.775003E0,1.9357292E1,1.8257335E0,7.4678717E0,2.107768E0,7.667235E0,1.2172616E1,7.1846757E0],"tree_param":{"num_deleted":"2","num_feature":"16","num_nodes":"13","size_leaf_vector":"0"}},{"base_weights":[-0E0,-2.00703E-1,3.3467468E-2,-4.546274E-1,-0E0,2.812099E-1,-0E0,4.5075908E-1,-0E0,-1.3349041E-1,1.6504616E-1],"categories":[],"categories_nodes":[],"categories_segments":[],"categories_sizes":[],"default_left":[1,1,1,1,1,1,1,1,1,0,0],"id":74,"left_children":[1,-1,5,-1,-1,-1,9,-1,-1,-1,-1],"loss_changes":[2.2955039E-1,4.7234434E-1,4.7620413E-1,0E0,0E0,5.898912E-1,7.326107E-1,0E0,0E0,0E0,0E0],"parents":[2147483647,0,0,1,1,2,2,5,5,6,6],"right_children":[2,-1,6,-1,-1,-1,10,-1,-1,-1,-1],"split_conditions":[3.6105E2,-2.00703E-2,3.1759998E2,-4.546274E-2,-0E0,2.8120989E-2,3.5205E2,4.507591E-2,-0E0,-1.3349041E-2,1.6504616E-2],"split_indices":[2,12,9,2147483647,2147483647,8,9,2147483647,2147483647,0,0],"split_type":[0,0,0,0,0,0,0,0,0,0,0],"sum_hessian":[4.1240414E1,3.6248863E0,3.7615524E1,2.186681E0,1.4382051E0,5.5688276E0,3.20467E1,4.4598236E0,1.109004E0,1.9681326E1,1.2365373E1],"tree_param":{"num_deleted":"4","num_feature":"16","num_nodes":"11","size_leaf_vector":"0"}},{"base_weights":[-0E0,3.9361913E-2,-1.5825067E-1,-8.329187E-2,1.8027683E-1,-3.7116572E-1,4.7448836E-2,3.9772894E-2,-5.172834E-1,-4.9777716E-2,2.7025205E-1,-6.266782E-1,-0E0],"categories":[],"categories_nodes":[],"categories_segments":[],"categories_sizes":[],"default_left":[1,1,1,1,1,1,0,0,0,1,1,0,0],"id":75,"left_children":[1,3,5,7,-1,11,-1,-1,-1,-1,-1,-1,-1],"loss_changes":[2.287664E-1,7.3943204E-1,6.430401E-1,1.3685659E0,6.6868126E-1,7.4301744E-1,0E0,0E0,0E0,0E0,0E0,0E0,0E0],"parents":[2147483647,0,0,1,1,2,2,3,3,4,4,5,5],"right_children":[2,4,6,8,-1,12,-1,-1,-1,-1,-1,-1,-1],"split_conditions":[7.8915E2,1.089E3,2.1366E3,1.06315E3,1.8027684E-2,1.8904999E2,4.7448836E-3,3.9772894E-3,-5.1728338E-2,-4.9777715E-3,2.7025206E-2,-6.2667824E-2,-0E0],"split_indices":[10,3,13,3,0,0,0,0,0,2147483647,2147483647,0,0],"split_type":[0,0,0,0,0,0,0,0,0,0,0,0,0],"sum_hessian":[4.1190765E1,3.5301815E1,5.888947E0,1.5298386E1,2.0003431E1,4.887282E0,1.001665E0,1.08312E1,4.4671855E0,2.624789E0,1.7378641E1,2.957147E0,1.9301353E0],"tree_param":{"num_deleted":"2","num_feature":"16","num_nodes":"13","size_leaf_vector":"0"}},{"base_weights":[-0E0,-5.5416018E-2,8.737992E-2,-2.5216025E-1,9.766826E-2,3.636541E-1,-1.3652025E-2,-4.839591E-1,1.8325116E-1,3.4045446E-1,-2.7138678E-2,5.385513E-1,-0E0,1.07377656E-1,-3.436668E-1],"categories":[],"categories_nodes":[],"categories_segments":[],"categories_sizes":[],"default_left":[1,1,1,1,1,1,1,0,0,1,1,0,0,0,0],"id":76,"left_children":[1,3,5,7,-1,11,13,-1,-1,-1,-1,-1,-1,-1,-1],"loss_changes":[2.1914664E-1,9.000834E-1,8.873739E-1,1.7633033E0,6.6571325E-1,9.151318E-1,7.636767E-1,0E0,0E0,0E0,0E0,0E0,0E0,0E0,0E0],"parents":[2147483647,0,0,1,1,2,2,3,3,4,4,5,5,6,6],"right_children":[2,4,6,8,-1,12,14,-1,-1,-1,-1,-1,-1,-1,-1],"split_conditions":[4.893E2,7.5805E2,5.066E2,3.5790002E2,9.766826E-3,2.0987002E3,7.2215E2,-4.8395913E-2,1.8325116E-2,3.4045447E-2,-2.713868E-3,5.385513E-2,-0E0,1.0737766E-2,-3.436668E-2],"split_indices":[8,10,8,9,8,13,10,0,0,2147483647,2147483647,0,0,0,0],"split_type":[0,0,0,0,0,0,0,0,0,0,0,0,0,0,0],"sum_hessian":[4.101174E1,2.2937603E1,1.8074139E1,1.2612781E1,1.0324821E1,6.794068E0,1.1280072E1,9.656927E0,2.9558542E0,5.639283E0,4.6855383E0,5.7089705E0,1.0850972E0,6.529794E0,4.7502775E0],"tree_param":{"num_deleted":"2","num_feature":"16","num_nodes":"15","size_leaf_vector":"0"}},{"base_weights":[-0E0,1.2242289E-1,-3.9379638E-2,4.631778E-1,-0E0,-2.7185586E-1,3.4189027E-2,2.9930884E-1,-1.2773457E-1,-0E0,-4.3384346E-1,-8.382834E-2,3.4178996E-1],"categories":[],"categories_nodes":[],"categories_segments":[],"categories_sizes":[],"default_left":[1,1,1,1,1,1,1,1,1,0,0,0,0],"id":77,"left_children":[1,-1,5,-1,-1,9,11,-1,-1,-1,-1,-1,-1],"loss_changes":[2.424931E-1,6.490302E-1,7.5460434E-1,0E0,3.8910678E-1,8.113647E-1,1.0187339E0,0E0,0E0,0E0,0E0,0E0,0E0],"parents":[2147483647,0,0,1,1,2,2,4,4,5,5,6,6],"right_children":[2,-1,6,-1,-1,10,12,-1,-1,-1,-1,-1,-1],"split_conditions":[7.8305E2,1.2242289E-2,8.165E2,4.6317782E-2,-0E0,1.683E2,1.87E2,2.9930884E-2,-1.2773457E-2,-0E0,-4.3384347E-2,-8.382834E-3,3.4179E-2],"split_indices":[1,9,1,2147483647,2147483647,0,0,2147483647,2147483647,0,0,0,0],"split_type":[0,0,0,0,0,0,0,0,0,0,0,0,0],"sum_hessian":[4.0790237E1,1.2108656E1,2.8681583E1,2.9410803E0,9.167576E0,9.514221E0,1.9167362E1,1.823751E0,7.3438253E0,2.075037E0,7.439184E0,1.2028785E1,7.138577E0],"tree_param":{"num_deleted":"4","num_feature":"16","num_nodes":"13","size_leaf_vector":"0"}},{"base_weights":[-0E0,3.5213098E-2,-1.9255783E-1,2.6837543E-1,-0E0,-4.3183663E-1,-0E0,5.0108993E-1,-0E0,1.77348E-1,-1.4299016E-1],"categories":[],"categories_nodes":[],"categories_segments":[],"categories_sizes":[],"default_left":[1,1,1,1,1,1,1,0,0,0,0],"id":78,"left_children":[1,3,-1,7,9,-1,-1,-1,-1,-1,-1],"loss_changes":[2.1589327E-1,5.026111E-1,4.3778527E-1,7.06455E-1,7.986465E-1,0E0,0E0,0E0,0E0,0E0,0E0],"parents":[2147483647,0,0,1,1,2,2,3,3,4,4],"right_children":[2,4,-1,8,10,-1,-1,-1,-1,-1,-1],"split_conditions":[3.7015E2,4.4665002E2,-1.9255783E-2,8.2744995E2,6.2315E2,-4.3183666E-2,-0E0,5.0108995E-2,-0E0,1.7734801E-2,-1.42990155E-2],"split_indices":[5,8,1,1,12,2147483647,2147483647,0,0,0,0],"split_type":[0,0,0,0,0,0,0,0,0,0,0],"sum_hessian":[4.0635185E1,3.708625E1,3.5489345E0,6.6339307E0,3.045232E1,2.2520573E0,1.2968773E0,4.0033298E0,2.6306012E0,1.1276832E1,1.9175488E1],"tree_param":{"num_deleted":"2","num_feature":"16","num_nodes":"11","size_leaf_vector":"0"}},{"base_weights":[-0E0,-3.0038528E-2,1.2955473E-1,-4.8428398E-1,2.9478578E-2,4.2444715E-1,-5.5448007E-2,-0E0,-6.623776E-1,1.22162975E-1,-3.4390908E-1,-0E0,6.2886876E-1,-4.5883653E-1,8.353672E-2],"categories":[],"categories_nodes":[],"categories_segments":[],"categories_sizes":[],"default_left":[1,1,1,1,1,1,1,1,1,0,0,0,0,0,0],"id":79,"left_children":[1,3,5,-1,9,11,13,-1,-1,-1,-1,-1,-1,-1,-1],"loss_changes":[2.0622239E-1,1.3347191E0,9.6893E-1,6.686754E-1,7.652402E-1,9.1616607E-1,7.1037734E-1,0E0,0E0,0E0,0E0,0E0,0E0,0E0,0E0],"parents":[2147483647,0,0,1,1,2,2,3,3,4,4,5,5,6,6],"right_children":[2,4,6,-1,10,12,14,-1,-1,-1,-1,-1,-1,-1,-1],"split_conditions":[6.7025E2,3.725E2,3.847E2,-4.8428398E-2,5.245E2,2.7655E2,5.0005E2,-0E0,-6.623776E-2,1.2216298E-2,-3.4390908E-2,-0E0,6.288688E-2,-4.588365E-2,8.353672E-3],"split_indices":[12,2,6,12,8,5,8,2147483647,2147483647,0,0,0,0,0,0],"split_type":[0,0,0,0,0,0,0,0,0,0,0,0,0,0,0],"sum_hessian":[4.0583942E1,3.1018703E1,9.565238E0,4.7130265E0,2.6305677E1,5.2722993E0,4.292939E0,1.1350566E0,3.57797E0,2.3759073E1,2.5466046E0,1.0983949E0,4.1739044E0,2.3541005E0,1.9388385E0],"tree_param":{"num_deleted":"2","num_feature":"16","num_nodes":"15","size_leaf_vector":"0"}},{"base_weights":[-0E0,3.6678165E-2,-1.547036E-1,-6.6031046E-2,1.6093235E-1,-3.7013635E-1,4.1483063E-2,3.6494676E-2,-4.6957943E-1,3.187533E-1,-0E0,-0E0,-5.581877E-1],"categories":[],"categories_nodes":[],"categories_segments":[],"categories_sizes":[],"default_left":[1,1,1,1,1,1,1,0,0,1,1,1,1],"id":80,"left_children":[1,3,-1,7,-1,-1,-1,-1,-1,-1,-1,-1,-1],"loss_changes":[2.0939644E-1,5.601122E-1,6.2916976E-1,1.1040869E0,6.3626665E-1,6.7321444E-1,0E0,0E0,0E0,0E0,0E0,0E0,0E0],"parents":[2147483647,0,0,1,1,2,2,3,3,4,4,5,5],"right_children":[2,4,-1,8,-1,-1,-1,-1,-1,-1,-1,-1,-1],"split_conditions":[7.8915E2,1.089E3,-1.547036E-2,1.06315E3,1.6093235E-2,-3.7013635E-2,4.1483063E-3,3.6494676E-3,-4.6957944E-2,3.187533E-2,-0E0,-0E0,-5.5818774E-2],"split_indices":[10,3,13,3,2,2147483647,2147483647,0,0,2147483647,2147483647,2147483647,2147483647],"split_type":[0,0,0,0,0,0,0,0,0,0,0,0,0],"sum_hessian":[4.0367012E1,3.4620014E1,5.746998E0,1.480373E1,1.9816286E1,4.745973E0,1.0010248E0,1.0553939E1,4.249791E0,1.0568402E1,9.247883E0,1.0587393E0,3.6872337E0],"tree_param":{"num_deleted":"6","num_feature":"16","num_nodes":"13","size_leaf_vector":"0"}},{"base_weights":[-0E0,-5.6913354E-2,8.190637E-2,-3.793021E-1,-0E0,3.0038336E-1,-5.2451137E-2,-0E0,-5.552107E-1,1.1442584E-1,-2.6491278E-1,-0E0,4.6901858E-1,2.2444853E-1,-3.2094437E-1],"categories":[],"categories_nodes":[],"categories_segments":[],"categories_sizes":[],"default_left":[1,1,1,1,1,1,1,1,1,1,1,0,0,0,0],"id":81,"left_children":[1,3,5,-1,-1,11,13,-1,-1,-1,-1,-1,-1,-1,-1],"loss_changes":[2.0187601E-1,7.326388E-1,8.1299895E-1,5.9808916E-1,4.854275E-1,8.83402E-1,8.825874E-1,0E0,0E0,0E0,0E0,0E0,0E0,0E0,0E0],"parents":[2147483647,0,0,1,1,2,2,3,3,4,4,5,5,6,6],"right_children":[2,4,6,-1,-1,12,14,-1,-1,-1,-1,-1,-1,-1,-1],"split_conditions":[4.893E2,7.3355005E2,7.2215E2,-3.7930213E-2,-0E0,3.6175E2,5.003E2,-0E0,-5.552107E-2,1.1442584E-2,-2.6491279E-2,-0E0,4.690186E-2,2.2444854E-2,-3.2094438E-2],"split_indices":[8,10,10,5,8,6,8,2147483647,2147483647,2147483647,2147483647,0,0,0,0],"split_type":[0,0,0,0,0,0,0,0,0,0,0,0,0,0,0],"sum_hessian":[4.027978E1,2.2566462E1,1.771332E1,4.622945E0,1.7943516E1,9.10878E0,8.60454E0,1.0583968E0,3.5645483E0,1.5014296E1,2.9292202E0,1.9465302E0,7.1622496E0,2.4831738E0,6.1213665E0],"tree_param":{"num_deleted":"4","num_feature":"16","num_nodes":"15","size_leaf_vector":"0"}},{"base_weights":[-0E0,1.1026073E-1,-4.286961E-2,4.5848116E-1,-0E0,2.4757032E-1,-1.348999E-1,2.571849E-1,-1.3167787E-1,4.0194026E-1,-0E0,-2.1847707E-1,2.0450746E-1],"categories":[],"categories_nodes":[],"categories_segments":[],"categories_sizes":[],"default_left":[1,1,1,1,1,1,1,1,1,1,1,0,0],"id":82,"left_children":[1,-1,5,-1,-1,-1,11,-1,-1,-1,-1,-1,-1],"loss_changes":[2.1055639E-1,6.61193E-1,7.00618E-1,0E0,3.2775366E-1,3.0731648E-1,7.796918E-1,0E0,0E0,0E0,0E0,0E0,0E0],"parents":[2147483647,0,0,1,1,2,2,4,4,5,5,6,6],"right_children":[2,-1,6,-1,-1,-1,12,-1,-1,-1,-1,-1,-1],"split_conditions":[7.8305E2,1.1026073E-2,7.209E2,4.5848116E-2,-0E0,2.4757033E-2,1.22265E3,2.571849E-2,-1.3167786E-2,4.0194027E-2,-0E0,-2.1847708E-2,2.0450747E-2],"split_indices":[1,9,7,2147483647,2147483647,11,3,2147483647,2147483647,2147483647,2147483647,0,0],"split_type":[0,0,0,0,0,0,0,0,0,0,0,0,0],"sum_hessian":[4.008591E1,1.1908487E1,2.8177422E1,2.8920438E0,9.016443E0,3.7588189E0,2.4418604E1,1.8017393E0,7.2147036E0,2.7076285E0,1.0511905E0,2.2243801E1,2.1748016E0],"tree_param":{"num_deleted":"6","num_feature":"16","num_nodes":"13","size_leaf_vector":"0"}},{"base_weights":[-0E0,-1.7843515E-1,3.1525664E-2,-4.1533992E-1,-0E0,2.6571333E-1,-0E0,4.3201086E-1,-0E0,-1.1565302E-1,1.3571821E-1],"categories":[],"categories_nodes":[],"categories_segments":[],"categories_sizes":[],"default_left":[1,1,1,1,1,1,1,1,1,1,1],"id":83,"left_children":[-1,-1,-1,-1,-1,-1,-1,-1,-1,-1,-1],"loss_changes":[1.78829E-1,3.9176357E-1,4.1273382E-1,0E0,0E0,5.4234254E-1,5.0944936E-1,0E0,0E0,0E0,0E0],"parents":[2147483647,0,0,1,1,2,2,5,5,6,6],"right_children":[-1,-1,-1,-1,-1,-1,-1,-1,-1,-1,-1],"split_conditions":[-0E0,-1.7843515E-2,3.1525665E-3,-4.153399E-2,-0E0,2.6571333E-2,-0E0,4.3201085E-2,-0E0,-1.15653025E-2,1.3571821E-2],"split_indices":[2,2147483647,2147483647,2147483647,2147483647,2147483647,2147483647,2147483647,2147483647,2147483647,2147483647],"split_type":[0,0,0,0,0,0,0,0,0,0,0],"sum_hessian":[3.9931065E1,3.4465566E0,3.648451E1,2.0916846E0,1.354872E0,5.3734508E0,3.1111057E1,4.3170075E0,1.0564435E0,1.891302E1,1.2198038E1],"tree_param":{"num_deleted":"10","num_feature":"16","num_nodes":"11","size_leaf_vector":"0"}},{"base_weights":[-0E0,-1.7843515E-1,3.1525664E-2,-4.1533992E-1,-0E0,2.6571333E-1,-0E0,4.3201086E-1,-0E0,-1.1565302E-1,1.3571821E-1],"categories":[],"categories_nodes":[],"categories_segments":[],"categories_sizes":[],"default_left":[1,1,1,1,1,1,1,1,1,1,1],"id":84,"left_children":[-1,-1,-1,-1,-1,-1,-1,-1,-1,-1,-1],"loss_changes":[1.78829E-1,3.9176357E-1,4.1273382E-1,0E0,0E0,5.4234254E-1,5.0944936E-1,0E0,0E0,0E0,0E0],"parents":[2147483647,0,0,1,1,2,2,5,5,6,6],"right_children":[-1,-1,-1,-1,-1,-1,-1,-1,-1,-1,-1],"split_conditions":[-0E0,-1.7843515E-2,3.1525665E-3,-4.153399E-2,-0E0,2.6571333E-2,-0E0,4.3201085E-2,-0E0,-1.15653025E-2,1.3571821E-2],"split_indices":[2,2147483647,2147483647,2147483647,2147483647,2147483647,2147483647,2147483647,2147483647,2147483647,2147483647],"split_type":[0,0,0,0,0,0,0,0,0,0,0],"sum_hessian":[3.9931065E1,3.4465566E0,3.648451E1,2.0916846E0,1.354872E0,5.3734508E0,3.1111057E1,4.3170075E0,1.0564435E0,1.891302E1,1.2198038E1],"tree_param":{"num_deleted":"10","num_feature":"16","num_nodes":"11","size_leaf_vector":"0"}},{"base_weights":[-0E0,-1.7843515E-1,3.1525664E-2,-4.1533992E-1,-0E0,2.6571333E-1,-0E0,4.3201086E-1,-0E0,-1.1565302E-1,1.3571821E-1],"categories":[],"categories_nodes":[],"categories_segments":[],"categories_sizes":[],"default_left":[1,1,1,1,1,1,1,1,1,1,1],"id":85,"left_children":[-1,-1,-1,-1,-1,-1,-1,-1,-1,-1,-1],"loss_changes":[1.78829E-1,3.9176357E-1,4.1273382E-1,0E0,0E0,5.4234254E-1,5.0944936E-1,0E0,0E0,0E0,0E0],"parents":[2147483647,0,0,1,1,2,2,5,5,6,6],"right_children":[-1,-1,-1,-1,-1,-1,-1,-1,-1,-1,-1],"split_conditions":[-0E0,-1.7843515E-2,3.1525665E-3,-4.153399E-2,-0E0,2.6571333E-2,-0E0,4.3201085E-2,-0E0,-1.15653025E-2,1.3571821E-2],"split_indices":[2,2147483647,2147483647,2147483647,2147483647,2147483647,2147483647,2147483647,2147483647,2147483647,2147483647],"split_type":[0,0,0,0,0,0,0,0,0,0,0],"sum_hessian":[3.9931065E1,3.4465566E0,3.648451E1,2.0916846E0,1.354872E0,5.3734508E0,3.1111057E1,4.3170075E0,1.0564435E0,1.891302E1,1.2198038E1],"tree_param":{"num_deleted":"10","num_feature":"16","num_nodes":"11","size_leaf_vector":"0"}},{"base_weights":[-0E0,-1.7843515E-1,3.1525664E-2,-4.1533992E-1,-0E0,2.6571333E-1,-0E0,4.3201086E-1,-0E0,-1.1565302E-1,1.3571821E-1],"categories":[],"categories_nodes":[],"categories_segments":[],"categories_sizes":[],"default_left":[1,1,1,1,1,1,1,1,1,1,1],"id":86,"left_children":[-1,-1,-1,-1,-1,-1,-1,-1,-1,-1,-1],"loss_changes":[1.78829E-1,3.9176357E-1,4.1273382E-1,0E0,0E0,5.4234254E-1,5.0944936E-1,0E0,0E0,0E0,0E0],"parents":[2147483647,0,0,1,1,2,2,5,5,6,6],"right_children":[-1,-1,-1,-1,-1,-1,-1,-1,-1,-1,-1],"split_conditions":[-0E0,-1.7843515E-2,3.1525665E-3,-4.153399E-2,-0E0,2.6571333E-2,-0E0,4.3201085E-2,-0E0,-1.15653025E-2,1.3571821E-2],"split_indices":[2,2147483647,2147483647,2147483647,2147483647,2147483647,2147483647,2147483647,2147483647,2147483647,2147483647],"split_type":[0,0,0,0,0,0,0,0,0,0,0],"sum_hessian":[3.9931065E1,3.4465566E0,3.648451E1,2.0916846E0,1.354872E0,5.3734508E0,3.1111057E1,4.3170075E0,1.0564435E0,1.891302E1,1.2198038E1],"tree_param":{"num_deleted":"10","num_feature":"16","num_nodes":"11","size_leaf_vector":"0"}},{"base_weights":[-0E0,-1.7843515E-1,3.1525664E-2,-4.1533992E-1,-0E0,2.6571333E-1,-0E0,4.3201086E-1,-0E0,-1.1565302E-1,1.3571821E-1],"categories":[],"categories_nodes":[],"categories_segments":[],"categories_sizes":[],"default_left":[1,1,1,1,1,1,1,1,1,1,1],"id":87,"left_children":[-1,-1,-1,-1,-1,-1,-1,-1,-1,-1,-1],"loss_changes":[1.78829E-1,3.9176357E-1,4.1273382E-1,0E0,0E0,5.4234254E-1,5.0944936E-1,0E0,0E0,0E0,0E0],"parents":[2147483647,0,0,1,1,2,2,5,5,6,6],"right_children":[-1,-1,-1,-1,-1,-1,-1,-1,-1,-1,-1],"split_conditions":[-0E0,-1.7843515E-2,3.1525665E-3,-4.153399E-2,-0E0,2.6571333E-2,-0E0,4.3201085E-2,-0E0,-1.15653025E-2,1.3571821E-2],"split_indices":[2,2147483647,2147483647,2147483647,2147483647,2147483647,2147483647,2147483647,2147483647,