{"learner":{"attributes":{"best_iteration":"349","best_ntree_limit":"350","scikit_learn":"{\"use_label_encoder\": false, \"n_estimators\": 350, \"objective\": \"multi:softprob\", \"max_depth\": 3, \"max_leaves\": null, \"max_bin\": null, \"grow_policy\": null, \"learning_rate\": 0.1, \"verbosity\": null, \"booster\": null, \"tree_method\": null, \"gamma\": 0.7, \"min_child_weight\": 1, \"max_delta_step\": null, \"subsample\": 0.8, \"sampling_method\": null, \"colsample_bytree\": 1, \"colsample_bylevel\": null, \"colsample_bynode\": null, \"reg_alpha\": 1, \"reg_lambda\": 1, \"scale_pos_weight\": null, \"base_score\": null, \"missing\": NaN, \"num_parallel_tree\": null, \"random_state\": null, \"n_jobs\": 12, \"monotone_constraints\": null, \"interaction_constraints\": null, \"importance_type\": null, \"gpu_id\": null, \"validate_parameters\": null, \"predictor\": null, \"enable_categorical\": false, \"max_cat_to_onehot\": null, \"eval_metric\": null, \"early_stopping_rounds\": null, \"callbacks\": null, \"kwargs\": {\"num_class\": 5, \"seed\": 1234}, \"classes_\": [0, 1, 2, 3, 4], \"n_classes_\": 5, \"_estimator_type\": \"classifier\"}"},"feature_names":[],"feature_types":[],"gradient_booster":{"model":{"gbtree_model_param":{"num_parallel_tree":"1","num_trees":"1750","size_leaf_vector":"0"},"tree_info":[0,1,2,3,4,0,1,2,3,4,0,1,2,3,4,0,1,2,3,4,0,1,2,3,4,0,1,2,3,4,0,1,2,3,4,0,1,2,3,4,0,1,2,3,4,0,1,2,3,4,0,1,2,3,4,0,1,2,3,4,0,1,2,3,4,0,1,2,3,4,0,1,2,3,4,0,1,2,3,4,0,1,2,3,4,0,1,2,3,4,0,1,2,3,4,0,1,2,3,4,0,1,2,3,4,0,1,2,3,4,0,1,2,3,4,0,1,2,3,4,0,1,2,3,4,0,1,2,3,4,0,1,2,3,4,0,1,2,3,4,0,1,2,3,4,0,1,2,3,4,0,1,2,3,4,0,1,2,3,4,0,1,2,3,4,0,1,2,3,4,0,1,2,3,4,0,1,2,3,4,0,1,2,3,4,0,1,2,3,4,0,1,2,3,4,0,1,2,3,4,0,1,2,3,4,0,1,2,3,4,0,1,2,3,4,0,1,2,3,4,0,1,2,3,4,0,1,2,3,4,0,1,2,3,4,0,1,2,3,4,0,1,2,3,4,0,1,2,3,4,0,1,2,3,4,0,1,2,3,4,0,1,2,3,4,0,1,2,3,4,0,1,2,3,4,0,1,2,3,4,0,1,2,3,4,0,1,2,3,4,0,1,2,3,4,0,1,2,3,4,0,1,2,3,4,0,1,2,3,4,0,1,2,3,4,0,1,2,3,4,0,1,2,3,4,0,1,2,3,4,0,1,2,3,4,0,1,2,3,4,0,1,2,3,4,0,1,2,3,4,0,1,2,3,4,0,1,2,3,4,0,1,2,3,4,0,1,2,3,4,0,1,2,3,4,0,1,2,3,4,0,1,2,3,4,0,1,2,3,4,0,1,2,3,4,0,1,2,3,4,0,1,2,3,4,0,1,2,3,4,0,1,2,3,4,0,1,2,3,4,0,1,2,3,4,0,1,2,3,4,0,1,2,3,4,0,1,2,3,4,0,1,2,3,4,0,1,2,3,4,0,1,2,3,4,0,1,2,3,4,0,1,2,3,4,0,1,2,3,4,0,1,2,3,4,0,1,2,3,4,0,1,2,3,4,0,1,2,3,4,0,1,2,3,4,0,1,2,3,4,0,1,2,3,4,0,1,2,3,4,0,1,2,3,4,0,1,2,3,4,0,1,2,3,4,0,1,2,3,4,0,1,2,3,4,0,1,2,3,4,0,1,2,3,4,0,1,2,3,4,0,1,2,3,4,0,1,2,3,4,0,1,2,3,4,0,1,2,3,4,0,1,2,3,4,0,1,2,3,4,0,1,2,3,4,0,1,2,3,4,0,1,2,3,4,0,1,2,3,4,0,1,2,3,4,0,1,2,3,4,0,1,2,3,4,0,1,2,3,4,0,1,2,3,4,0,1,2,3,4,0,1,2,3,4,0,1,2,3,4,0,1,2,3,4,0,1,2,3,4,0,1,2,3,4,0,1,2,3,4,0,1,2,3,4,0,1,2,3,4,0,1,2,3,4,0,1,2,3,4,0,1,2,3,4,0,1,2,3,4,0,1,2,3,4,0,1,2,3,4,0,1,2,3,4,0,1,2,3,4,0,1,2,3,4,0,1,2,3,4,0,1,2,3,4,0,1,2,3,4,0,1,2,3,4,0,1,2,3,4,0,1,2,3,4,0,1,2,3,4,0,1,2,3,4,0,1,2,3,4,0,1,2,3,4,0,1,2,3,4,0,1,2,3,4,0,1,2,3,4,0,1,2,3,4,0,1,2,3,4,0,1,2,3,4,0,1,2,3,4,0,1,2,3,4,0,1,2,3,4,0,1,2,3,4,0,1,2,3,4,0,1,2,3,4,0,1,2,3,4,0,1,2,3,4,0,1,2,3,4,0,1,2,3,4,0,1,2,3,4,0,1,2,3,4,0,1,2,3,4,0,1,2,3,4,0,1,2,3,4,0,1,2,3,4,0,1,2,3,4,0,1,2,3,4,0,1,2,3,4,0,1,2,3,4,0,1,2,3,4,0,1,2,3,4,0,1,2,3,4,0,1,2,3,4,0,1,2,3,4,0,1,2,3,4,0,1,2,3,4,0,1,2,3,4,0,1,2,3,4,0,1,2,3,4,0,1,2,3,4,0,1,2,3,4,0,1,2,3,4,0,1,2,3,4,0,1,2,3,4,0,1,2,3,4,0,1,2,3,4,0,1,2,3,4,0,1,2,3,4,0,1,2,3,4,0,1,2,3,4,0,1,2,3,4,0,1,2,3,4,0,1,2,3,4,0,1,2,3,4,0,1,2,3,4,0,1,2,3,4,0,1,2,3,4,0,1,2,3,4,0,1,2,3,4,0,1,2,3,4,0,1,2,3,4,0,1,2,3,4,0,1,2,3,4,0,1,2,3,4,0,1,2,3,4,0,1,2,3,4,0,1,2,3,4,0,1,2,3,4,0,1,2,3,4,0,1,2,3,4,0,1,2,3,4,0,1,2,3,4,0,1,2,3,4,0,1,2,3,4,0,1,2,3,4,0,1,2,3,4,0,1,2,3,4,0,1,2,3,4,0,1,2,3,4,0,1,2,3,4,0,1,2,3,4,0,1,2,3,4,0,1,2,3,4,0,1,2,3,4,0,1,2,3,4,0,1,2,3,4,0,1,2,3,4,0,1,2,3,4,0,1,2,3,4,0,1,2,3,4,0,1,2,3,4,0,1,2,3,4,0,1,2,3,4,0,1,2,3,4,0,1,2,3,4,0,1,2,3,4,0,1,2,3,4,0,1,2,3,4,0,1,2,3,4,0,1,2,3,4,0,1,2,3,4,0,1,2,3,4,0,1,2,3,4,0,1,2,3,4,0,1,2,3,4,0,1,2,3,4,0,1,2,3,4,0,1,2,3,4,0,1,2,3,4,0,1,2,3,4,0,1,2,3,4,0,1,2,3,4,0,1,2,3,4,0,1,2,3,4,0,1,2,3,4,0,1,2,3,4,0,1,2,3,4,0,1,2,3,4,0,1,2,3,4,0,1,2,3,4,0,1,2,3,4,0,1,2,3,4,0,1,2,3,4,0,1,2,3,4,0,1,2,3,4,0,1,2,3,4,0,1,2,3,4,0,1,2,3,4,0,1,2,3,4,0,1,2,3,4,0,1,2,3,4,0,1,2,3,4,0,1,2,3,4,0,1,2,3,4,0,1,2,3,4,0,1,2,3,4,0,1,2,3,4,0,1,2,3,4,0,1,2,3,4,0,1,2,3,4,0,1,2,3,4,0,1,2,3,4,0,1,2,3,4,0,1,2,3,4,0,1,2,3,4,0,1,2,3,4,0,1,2,3,4,0,1,2,3,4,0,1,2,3,4,0,1,2,3,4,0,1,2,3,4,0,1,2,3,4,0,1,2,3,4,0,1,2,3,4,0,1,2,3,4,0,1,2,3,4,0,1,2,3,4,0,1,2,3,4,0,1,2,3,4,0,1,2,3,4,0,1,2,3,4,0,1,2,3,4,0,1,2,3,4,0,1,2,3,4,0,1,2,3,4,0,1,2,3,4,0,1,2,3,4,0,1,2,3,4,0,1,2,3,4,0,1,2,3,4,0,1,2,3,4,0,1,2,3,4,0,1,2,3,4,0,1,2,3,4,0,1,2,3,4,0,1,2,3,4,0,1,2,3,4,0,1,2,3,4,0,1,2,3,4,0,1,2,3,4,0,1,2,3,4,0,1,2,3,4,0,1,2,3,4,0,1,2,3,4,0,1,2,3,4,0,1,2,3,4,0,1,2,3,4,0,1,2,3,4,0,1,2,3,4,0,1,2,3,4,0,1,2,3,4,0,1,2,3,4,0,1,2,3,4,0,1,2,3,4,0,1,2,3,4,0,1,2,3,4,0,1,2,3,4,0,1,2,3,4,0,1,2,3,4,0,1,2,3,4],"trees":[{"base_weights":[6.274731E-1,-0E0,1.194833E0,6.2322944E-1,-4.096834E-1,-0E0,1.6541352E0,1.1244018E0,-0E0,-5.3287977E-1,-0E0,4.6511626E-1,-2.7027026E-1,-6.849315E-2,1.8314424E0],"categories":[],"categories_nodes":[],"categories_segments":[],"categories_sizes":[],"default_left":[1,1,1,1,1,1,1,0,0,0,0,0,0,0,0],"id":0,"left_children":[1,3,5,7,9,11,13,-1,-1,-1,-1,-1,-1,-1,-1],"loss_changes":[2.5190784E1,9.089633E0,1.9731361E1,5.084959E0,1.4038558E0,1.6568196E0,1.0012947E1,0E0,0E0,0E0,0E0,0E0,0E0,0E0,0E0],"parents":[2147483647,0,0,1,1,2,2,3,3,4,4,5,5,6,6],"right_children":[2,4,6,8,10,12,14,-1,-1,-1,-1,-1,-1,-1,-1],"split_conditions":[1.13825E3,2.3675E2,9.9515E2,5.9315E2,1.77005E3,1.121E2,1.26899994E2,1.12440184E-1,-0E0,-5.328798E-2,-0E0,4.6511628E-2,-2.7027026E-2,-6.849315E-3,1.8314424E-1],"split_indices":[11,48,13,58,4,84,26,0,0,0,0,0,0,0,0],"split_type":[0,0,0,0,0,0,0,0,0,0,0,0,0,0,0],"sum_hessian":[6.976E1,3.3600002E1,3.6160004E1,1.3120001E1,2.0480001E1,1.056E1,2.5600002E1,7.3600006E0,5.76E0,1.6640001E1,3.8400002E0,4.1600003E0,6.4000006E0,1.9200001E0,2.3680002E1],"tree_param":{"num_deleted":"0","num_feature":"86","num_nodes":"15","size_leaf_vector":"0"}},{"base_weights":[-2.0442928E-1,-4.939422E-1,2.0336604E-1,-5.555555E-1,-0E0,7.246376E-1,-2.0356233E-1,-0E0,-5.805038E-1,-2.892562E-1,5.263158E-1,1.1751151E0,-0E0,3.9325842E-1,-4.255319E-1],"categories":[],"categories_nodes":[],"categories_segments":[],"categories_sizes":[],"default_left":[1,1,1,1,1,1,1,1,1,0,0,0,0,0,0],"id":1,"left_children":[1,3,5,-1,9,11,13,-1,-1,-1,-1,-1,-1,-1,-1],"loss_changes":[8.707316E0,1.1950912E0,6.718253E0,6.4001465E-1,1.0365376E0,4.739798E0,2.2821407E0,0E0,0E0,0E0,0E0,0E0,0E0,0E0,0E0],"parents":[2147483647,0,0,1,1,2,2,3,3,4,4,5,5,6,6],"right_children":[2,4,6,-1,10,12,14,-1,-1,-1,-1,-1,-1,-1,-1],"split_conditions":[6.0925E2,2.7515E2,4.6315E2,-5.5555552E-2,2.2279999E2,3.5284998E2,2.4985E2,-0E0,-5.8050383E-2,-2.8925618E-2,5.2631583E-2,1.1751151E-1,-0E0,3.9325844E-2,-4.255319E-2],"split_indices":[16,70,9,0,74,46,29,2147483647,2147483647,0,0,0,0,0,0],"split_type":[0,0,0,0,0,0,0,0,0,0,0,0,0,0,0],"sum_hessian":[6.944E1,4.1920002E1,2.7520002E1,3.6800003E1,5.1200004E0,1.2800001E1,1.4720001E1,1.2800001E0,3.5520004E1,3.8400002E0,1.2800001E0,7.6800003E0,5.1200004E0,2.5600002E0,1.2160001E1],"tree_param":{"num_deleted":"2","num_feature":"86","num_nodes":"15","size_leaf_vector":"0"}},{"base_weights":[-2.0337012E-2,-3.100775E-1,5.128205E-1,1.4234875E-1,-4.6961322E-1,1.1867703E0,-0E0,-2.5423726E-1,8.5271317E-1,8.77193E-2,-5.2119124E-1,-5.7312155E-9,1.5207373E0,-3.333333E-1,4.575163E-1],"categories":[],"categories_nodes":[],"categories_segments":[],"categories_sizes":[],"default_left":[1,1,1,1,1,1,1,0,0,0,0,0,0,0,0],"id":2,"left_children":[1,3,5,7,9,11,13,-1,-1,-1,-1,-1,-1,-1,-1],"loss_changes":[1.0590489E1,3.7460675E0,8.324753E0,3.9818072E0,1.5198002E0,5.595134E0,2.2810457E0,0E0,0E0,0E0,0E0,0E0,0E0,0E0,0E0],"parents":[2147483647,0,0,1,1,2,2,3,3,4,4,5,5,6,6],"right_children":[2,4,6,8,10,12,14,-1,-1,-1,-1,-1,-1,-1,-1],"split_conditions":[9.761E2,1.9985E2,2.59E2,7.1025E2,8.3615E2,2.7E2,3.3695E2,-2.5423726E-2,8.527132E-2,8.77193E-3,-5.2119125E-2,-5.7312155E-10,1.5207373E-1,-3.333333E-2,4.575163E-2],"split_indices":[79,21,66,39,79,49,81,0,0,0,0,0,0,0,0],"split_type":[0,0,0,0,0,0,0,0,0,0,0,0,0,0,0],"sum_hessian":[6.7840004E1,4.5440002E1,2.2400002E1,1.0240001E1,3.52E1,9.280001E0,1.3120001E1,6.0800004E0,4.1600003E0,1.2800001E0,3.3920002E1,1.6000001E0,7.6800003E0,8.000001E0,5.1200004E0],"tree_param":{"num_deleted":"0","num_feature":"86","num_nodes":"15","size_leaf_vector":"0"}},{"base_weights":[-2.5210083E-1,8.2949305E-1,-4.1117385E-1,1.3354037E0,-1.2345679E-1,3.1073445E-1,-5.1006246E-1,1.6279069E0,-0E0,1.0824742E0,-2.3809524E-1,-0E0,-5.5762076E-1],"categories":[],"categories_nodes":[],"categories_segments":[],"categories_sizes":[],"default_left":[1,1,1,1,0,1,1,0,0,0,0,0,0],"id":3,"left_children":[1,3,5,7,-1,9,11,-1,-1,-1,-1,-1,-1],"loss_changes":[1.2207291E1,5.5615044E0,4.9066954E0,2.1899471E0,0E0,4.100871E0,1.732789E0,0E0,0E0,0E0,0E0,0E0,0E0],"parents":[2147483647,0,0,1,1,2,2,3,3,5,5,6,6],"right_children":[2,4,6,8,-1,10,12,-1,-1,-1,-1,-1,-1],"split_conditions":[2.3315E2,4.1275E2,1.04825E3,6.0195E2,-1.2345679E-2,2.4785E2,1.38895E3,1.627907E-1,-0E0,1.0824742E-1,-2.3809524E-2,-0E0,-5.576208E-2],"split_indices":[53,61,78,31,0,24,63,0,0,0,0,0,0],"split_type":[0,0,0,0,0,0,0,0,0,0,0,0,0],"sum_hessian":[7.04E1,7.6800003E0,6.2720005E1,5.4400005E0,2.2400002E0,6.0800004E0,5.6640003E1,4.1600003E0,1.2800001E0,2.88E0,3.2000003E0,3.8400002E0,5.2800003E1],"tree_param":{"num_deleted":"0","num_feature":"86","num_nodes":"13","size_leaf_vector":"0"}},{"base_weights":[-1.8003273E-1,-4.64135E-1,2.897474E-1,2.8248588E-2,-5.614714E-1,-4.6184736E-1,7.461024E-1,-2.6548672E-1,6.7415726E-1,-0E0,-5.8441556E-1,1.1591694E0,-0E0],"categories":[],"categories_nodes":[],"categories_segments":[],"categories_sizes":[],"default_left":[1,1,1,1,1,0,1,0,0,1,1,0,0],"id":4,"left_children":[1,3,5,7,-1,-1,11,-1,-1,-1,-1,-1,-1],"loss_changes":[1.0094568E1,2.820817E0,9.862241E0,1.9309119E0,6.491871E-1,0E0,5.535099E0,0E0,0E0,0E0,0E0,0E0,0E0],"parents":[2147483647,0,0,1,1,2,2,3,3,4,4,6,6],"right_children":[2,4,6,8,-1,-1,12,-1,-1,-1,-1,-1,-1],"split_conditions":[1.849E2,2.3170001E2,3.465E2,3.93125E3,-5.614714E-2,-4.6184737E-2,3.1375E2,-2.6548672E-2,6.741573E-2,-0E0,-5.8441557E-2,1.15916945E-1,-0E0],"split_indices":[65,61,46,30,26,0,82,0,0,2147483647,2147483647,0,0],"split_type":[0,0,0,0,0,0,0,0,0,0,0,0,0],"sum_hessian":[7.232001E1,4.64E1,2.5920002E1,6.0800004E0,4.0320004E1,8.960001E0,1.6960001E1,3.5200002E0,2.5600002E0,1.2800001E0,3.904E1,1.056E1,6.4000006E0],"tree_param":{"num_deleted":"2","num_feature":"86","num_nodes":"13","size_leaf_vector":"0"}},{"base_weights":[5.9101236E-1,3.798453E-2,1.1889749E0,-2.5054058E-1,5.882167E-1,1.4830325E0,2.3112217E-2,-0E0,-5.015236E-1,-3.9336592E-2,1.0153447E0,1.6177747E0,-0E0,-2.0513913E-1,7.29344E-1],"categories":[],"categories_nodes":[],"categories_segments":[],"categories_sizes":[],"default_left":[1,1,1,1,1,1,1,0,0,0,0,0,0,0,0],"id":5,"left_children":[1,3,5,7,9,11,13,-1,-1,-1,-1,-1,-1,-1,-1],"loss_changes":[2.2866121E1,6.8072515E0,1.0174152E1,1.7967547E0,5.0875235E0,5.7935867E0,2.0574453E0,0E0,0E0,0E0,0E0,0E0,0E0,0E0,0E0],"parents":[2147483647,0,0,1,1,2,2,3,3,4,4,5,5,6,6],"right_children":[2,4,6,8,10,12,14,-1,-1,-1,-1,-1,-1,-1,-1],"split_conditions":[7.882E2,2.60225E3,2.4095E2,6.1815E2,9.9355E2,1.22675E3,2.749E2,-0E0,-5.015236E-2,-3.9336593E-3,1.0153448E-1,1.6177748E-1,-0E0,-2.0513913E-2,7.2934404E-2],"split_indices":[69,15,48,45,13,62,66,0,0,0,0,0,0,0,0],"split_type":[0,0,0,0,0,0,0,0,0,0,0,0,0,0,0],"sum_hessian":[7.199358E1,3.8823444E1,3.317014E1,2.4633587E1,1.4189859E1,2.558678E1,7.5833583E0,1.2093075E1,1.2540512E1,5.1661844E0,9.023675E0,2.3556122E1,2.0306578E0,5.197206E0,2.3861523E0],"tree_param":{"num_deleted":"0","num_feature":"86","num_nodes":"15","size_leaf_vector":"0"}},{"base_weights":[-1.6640097E-1,-4.63366E-1,2.6288983E-1,-5.3015107E-1,3.9388165E-1,-2.543599E-1,7.08624E-1,-0E0,-5.525088E-1,-4.5887938E-1,9.784128E-2,-8.6895436E-2,1.0477252E0],"categories":[],"categories_nodes":[],"categories_segments":[],"categories_sizes":[],"default_left":[1,1,1,1,0,1,1,1,1,0,0,0,0],"id":6,"left_children":[1,3,5,-1,-1,9,11,-1,-1,-1,-1,-1,-1],"loss_changes":[9.161912E0,2.7911625E0,7.0010033E0,6.200485E-1,0E0,1.3048158E0,5.404414E0,0E0,0E0,0E0,0E0,0E0,0E0],"parents":[2147483647,0,0,1,1,2,2,3,3,5,5,6,6],"right_children":[2,4,6,-1,-1,10,12,-1,-1,-1,-1,-1,-1],"split_conditions":[6.0995E2,2.042E2,3.099E2,-5.301511E-2,3.9388165E-2,2.0485E2,1.6325E2,-0E0,-5.525088E-2,-4.588794E-2,9.784128E-3,-8.689544E-3,1.0477252E-1],"split_indices":[16,18,82,0,0,36,27,2147483647,2147483647,0,0,0,0],"split_type":[0,0,0,0,0,0,0,0,0,0,0,0,0],"sum_hessian":[6.833888E1,4.172521E1,2.661367E1,4.0145695E1,1.5795166E0,1.1478901E1,1.5134769E1,1.2314374E0,3.8914257E1,8.866572E0,2.6123283E0,3.8642206E0,1.1270549E1],"tree_param":{"num_deleted":"2","num_feature":"86","num_nodes":"13","size_leaf_vector":"0"}},{"base_weights":[1.9135436E-2,-3.6404347E-1,5.6706744E-1,6.0903728E-2,-5.09435E-1,9.92229E-1,-2.6763478E-2,7.984186E-1,-3.5122624E-1,-5.643323E-1,-0E0,-0E0,1.467743E0,-3.2951036E-1,3.3043858E-1],"categories":[],"categories_nodes":[],"categories_segments":[],"categories_sizes":[],"default_left":[1,1,1,1,1,1,1,0,0,0,0,0,0,0,0],"id":7,"left_children":[1,3,5,7,9,11,13,-1,-1,-1,-1,-1,-1,-1,-1],"loss_changes":[1.5276011E1,3.0252624E0,8.718856E0,3.658784E0,7.251711E-1,7.6686707E0,1.4880276E0,0E0,0E0,0E0,0E0,0E0,0E0,0E0,0E0],"parents":[2147483647,0,0,1,1,2,2,3,3,4,4,5,5,6,6],"right_children":[2,4,6,8,10,12,14,-1,-1,-1,-1,-1,-1,-1,-1],"split_conditions":[3.5965002E2,1.48245E3,1.086E2,6.265E1,1.16995E3,5.7995E2,1.9379999E2,7.984186E-2,-3.5122626E-2,-5.643323E-2,-0E0,-0E0,1.467743E-1,-3.295104E-2,3.3043858E-2],"split_indices":[44,63,0,67,78,58,36,0,0,0,0,0,0,0,0],"split_type":[0,0,0,0,0,0,0,0,0,0,0,0,0,0,0],"sum_hessian":[6.980794E1,4.0203476E1,2.9604467E1,8.6435175E0,3.1559958E1,1.7842772E1,1.1761695E1,3.6323948E0,5.011122E0,2.7810358E1,3.7495985E0,6.6717215E0,1.117105E1,7.92333E0,3.838365E0],"tree_param":{"num_deleted":"0","num_feature":"86","num_nodes":"15","size_leaf_vector":"0"}},{"base_weights":[-3.1809723E-1,4.9606025E-1,-4.720854E-1,1.2025951E0,-1.5149766E-1,6.5240785E-2,-5.674819E-1,1.5194675E0,-0E0,-0E0,-2.6563984E-1,7.2046876E-1,-2.949919E-1,-0E0,-5.8603555E-1],"categories":[],"categories_nodes":[],"categories_segments":[],"categories_sizes":[],"default_left":[1,1,1,1,1,1,1,0,0,1,1,0,0,1,1],"id":8,"left_children":[1,3,5,7,-1,11,-1,-1,-1,-1,-1,-1,-1,-1,-1],"loss_changes":[8.754744E0,5.9434643E0,3.5563316E0,1.9438152E0,1.9224387E-1,2.5712998E0,6.789932E-1,0E0,0E0,0E0,0E0,0E0,0E0,0E0,0E0],"parents":[2147483647,0,0,1,1,2,2,3,3,4,4,5,5,6,6],"right_children":[2,4,6,8,-1,12,-1,-1,-1,-1,-1,-1,-1,-1,-1],"split_conditions":[1.04495E3,3.09E2,1.28465E3,2.5831E3,-1.5149767E-2,4.017E2,-5.674819E-2,1.5194675E-1,-0E0,-0E0,-2.6563985E-2,7.2046876E-2,-2.9499192E-2,-0E0,-5.8603555E-2],"split_indices":[78,61,34,15,9,61,8,0,0,2147483647,2147483647,0,0,2147483647,2147483647],"split_type":[0,0,0,0,0,0,0,0,0,0,0,0,0,0,0],"sum_hessian":[6.715421E1,9.294968E0,5.7859245E1,4.7736707E0,4.521297E0,7.190709E0,5.0668537E1,3.458586E0,1.3150845E0,1.0010914E0,3.5202055E0,3.1809134E0,4.0097957E0,1.2427764E0,4.9425762E1],"tree_param":{"num_deleted":"4","num_feature":"86","num_nodes":"15","size_leaf_vector":"0"}},{"base_weights":[-1.13222644E-1,-3.200681E-1,6.5346384E-1,-4.538716E-1,1.974861E-1,-0E0,1.2867866E0,1.8349327E-1,-5.140267E-1,-1.7093013E-1,1.3087866E0,4.739178E-1,-3.4053218E-1,1.5170039E0,-0E0],"categories":[],"categories_nodes":[],"categories_segments":[],"categories_sizes":[],"default_left":[1,1,1,1,1,1,1,0,0,0,0,0,0,0,0],"id":9,"left_children":[1,3,5,7,9,11,13,-1,-1,-1,-1,-1,-1,-1,-1],"loss_changes":[1.0647584E1,4.1680236E0,6.7550573E0,2.1767168E0,5.6600876E0,1.198111E0,1.9619055E0,0E0,0E0,0E0,0E0,0E0,0E0,0E0,0E0],"parents":[2147483647,0,0,1,1,2,2,3,3,4,4,5,5,6,6],"right_children":[2,4,6,8,10,12,14,-1,-1,-1,-1,-1,-1,-1,-1],"split_conditions":[4.1645E2,1.10495E3,2.278E2,1.289E2,1.8470001E2,2.5009E3,7.3805E2,1.8349327E-2,-5.140267E-2,-1.7093014E-2,1.3087867E-1,4.7391783E-2,-3.4053218E-2,1.5170039E-1,-0E0],"split_indices":[75,38,74,26,65,15,39,0,0,0,0,0,0,0,0],"split_type":[0,0,0,0,0,0,0,0,0,0,0,0,0,0,0],"sum_hessian":[6.692437E1,5.4190956E1,1.2733412E1,4.4691936E1,9.499016E0,6.112154E0,6.6212583E0,2.2438202E0,4.2448116E1,7.0936766E0,2.4053395E0,1.3694571E0,4.742697E0,5.3361278E0,1.2851305E0],"tree_param":{"num_deleted":"0","num_feature":"86","num_nodes":"15","size_leaf_vector":"0"}},{"base_weights":[5.612451E-1,-0E0,9.80686E-1,-3.2084218E-1,3.3836833E-1,-3.926724E-2,1.2520659E0,2.198077E-2,-5.087241E-1,-0E0,9.9909616E-1,-3.758119E-1,2.6070118E-1,1.4604871E0,-0E0],"categories":[],"categories_nodes":[],"categories_segments":[],"categories_sizes":[],"default_left":[1,1,1,1,1,1,1,0,0,0,0,0,0,0,0],"id":10,"left_children":[1,3,5,7,9,11,13,-1,-1,-1,-1,-1,-1,-1,-1],"loss_changes":[1.8497282E1,3.7025993E0,1.3517635E1,1.6777072E0,3.9790545E0,1.1721615E0,8.609539E0,0E0,0E0,0E0,0E0,0E0,0E0,0E0,0E0],"parents":[2147483647,0,0,1,1,2,2,3,3,4,4,5,5,6,6],"right_children":[2,4,6,8,10,12,14,-1,-1,-1,-1,-1,-1,-1,-1],"split_conditions":[3.816E2,1.2095E3,1.8448501E3,1.0125E2,1.8065E2,1.3545E2,3.5575E2,2.198077E-3,-5.087241E-2,-0E0,9.990962E-2,-3.758119E-2,2.6070118E-2,1.4604871E-1,-0E0],"split_indices":[1,60,32,0,28,37,50,0,0,0,0,0,0,0,0],"split_type":[0,0,0,0,0,0,0,0,0,0,0,0,0,0,0],"sum_hessian":[7.5464485E1,3.2187378E1,4.3277107E1,1.7316683E1,1.4870693E1,8.500246E0,3.477686E1,4.558829E0,1.2757854E1,1.0064062E1,4.8066316E0,5.4578013E0,3.0424445E0,2.9330582E1,5.4462786E0],"tree_param":{"num_deleted":"0","num_feature":"86","num_nodes":"15","size_leaf_vector":"0"}},{"base_weights":[-2.0958695E-1,-3.8888916E-1,3.8378814E-1,4.408176E-2,-5.125484E-1,8.444162E-1,-2.1694802E-1,5.9720075E-1,-3.5604465E-1,-5.3234863E-1,-0E0,-0E0,1.3672655E0,-0E0,-3.213727E-1],"categories":[],"categories_nodes":[],"categories_segments":[],"categories_sizes":[],"default_left":[1,1,1,1,1,1,1,0,0,1,1,0,0,1,1],"id":11,"left_children":[1,3,5,7,-1,11,-1,-1,-1,-1,-1,-1,-1,-1,-1],"loss_changes":[7.5663314E0,3.4513597E0,5.06524E0,2.978453E0,6.411476E-1,4.7003355E0,2.6268968E-1,0E0,0E0,0E0,0E0,0E0,0E0,0E0,0E0],"parents":[2147483647,0,0,1,1,2,2,3,3,4,4,5,5,6,6],"right_children":[2,4,6,8,-1,12,-1,-1,-1,-1,-1,-1,-1,-1,-1],"split_conditions":[2.0304999E2,2.7409998E2,4.5315E2,1.479E3,-5.125484E-2,6.3199997E1,-2.1694802E-2,5.9720077E-2,-3.5604466E-2,-5.3234864E-2,-0E0,-0E0,1.3672654E-1,-0E0,-3.213727E-2],"split_indices":[36,6,72,22,82,67,6,0,0,2147483647,2147483647,0,0,2147483647,2147483647],"split_type":[0,0,0,0,0,0,0,0,0,0,0,0,0,0,0],"sum_hessian":[6.866573E1,5.4290478E1,1.4375255E1,1.0407441E1,4.3883038E1,8.849041E0,5.5262136E0,5.210849E0,5.1965923E0,4.286874E1,1.014297E0,3.57805E0,5.270991E0,1.0086586E0,4.517555E0],"tree_param":{"num_deleted":"4","num_feature":"86","num_nodes":"15","size_leaf_vector":"0"}},{"base_weights":[-3.7449334E-2,3.788762E-1,-3.5869464E-1,-1.1060941E-1,8.9356905E-1,3.1337118E-1,-4.4395497E-1,4.9830252E-1,-3.9619526E-1,-5.7657108E-2,1.1045688E0,8.8657176E-1,-0E0,1.0013378E-1,-5.1502573E-1],"categories":[],"categories_nodes":[],"categories_segments":[],"categories_sizes":[],"default_left":[1,1,1,1,1,1,1,0,0,0,0,0,0,0,0],"id":12,"left_children":[1,3,5,7,9,11,13,-1,-1,-1,-1,-1,-1,-1,-1],"loss_changes":[9.3369665E0,8.228302E0,2.606845E0,2.6759753E0,4.185484E0,1.4926783E0,1.9331598E0,0E0,0E0,0E0,0E0,0E0,0E0,0E0,0E0],"parents":[2147483647,0,0,1,1,2,2,3,3,4,4,5,5,6,6],"right_children":[2,4,6,8,10,12,14,-1,-1,-1,-1,-1,-1,-1,-1],"split_conditions":[1.0635E2,3.402E2,2.395E2,1.2165E2,2.2955E2,5.543E2,1.567E2,4.9830254E-2,-3.9619528E-2,-5.765711E-3,1.10456884E-1,8.865718E-2,-0E0,1.0013378E-2,-5.1502574E-2],"split_indices":[0,10,66,37,61,54,36,0,0,0,0,0,0,0,0],"split_type":[0,0,0,0,0,0,0,0,0,0,0,0,0,0,0],"sum_hessian":[6.794771E1,2.8160347E1,3.9787357E1,1.3840182E1,1.4320165E1,2.8576493E0,3.692971E1,3.0629964E0,1.0777185E1,1.8713181E0,1.2448846E1,1.3810211E0,1.4766283E0,2.5937338E0,3.4335976E1],"tree_param":{"num_deleted":"0","num_feature":"86","num_nodes":"15","size_leaf_vector":"0"}},{"base_weights":[-2.1256922E-1,5.515129E-1,-4.3088043E-1,1.1083783E0,-3.2304963E-1,1.9552256E-1,-5.1626897E-1,-0E0,1.3628376E0,8.970874E-1,-1.6566217E-1,7.852604E-2,-5.557765E-1],"categories":[],"categories_nodes":[],"categories_segments":[],"categories_sizes":[],"default_left":[1,1,1,1,0,1,1,0,0,0,0,0,0],"id":13,"left_children":[1,3,5,7,-1,9,11,-1,-1,-1,-1,-1,-1],"loss_changes":[1.1093929E1,7.9831614E0,3.243781E0,3.7071877E0,0E0,2.3116748E0,1.6514635E0,0E0,0E0,0E0,0E0,0E0,0E0],"parents":[2147483647,0,0,1,1,2,2,3,3,5,5,6,6],"right_children":[2,4,6,8,-1,10,12,-1,-1,-1,-1,-1,-1],"split_conditions":[2.4185E2,4.1275E2,2.266E2,7.1735E2,-3.2304965E-2,2.7316E3,1.9875E2,-0E0,1.3628376E-1,8.970874E-2,-1.6566217E-2,7.852605E-3,-5.5577647E-2],"split_indices":[53,61,61,77,0,56,70,0,0,0,0,0,0],"split_type":[0,0,0,0,0,0,0,0,0,0,0,0,0],"sum_hessian":[6.480587E1,1.3044312E1,5.176156E1,8.50497E0,4.5393424E0,4.6498322E0,4.7111725E1,1.2220592E0,7.28291E0,2.0169811E0,2.632851E0,1.2963002E0,4.5815426E1],"tree_param":{"num_deleted":"0","num_feature":"86","num_nodes":"13","size_leaf_vector":"0"}},{"base_weights":[-1.3468961E-1,-3.8684234E-1,4.7710487E-1,3.7682343E-1,-4.5681602E-1,-0E0,1.172797E0,8.471992E-1,-0E0,-4.9530792E-1,1.6701521E-1,-3.3505732E-1,6.4894754E-1,1.5043384E0,-0E0],"categories":[],"categories_nodes":[],"categories_segments":[],"categories_sizes":[],"default_left":[1,1,1,1,1,1,1,0,0,0,0,0,0,0,0],"id":14,"left_children":[1,3,5,7,9,11,13,-1,-1,-1,-1,-1,-1,-1,-1],"loss_changes":[1.0748994E1,2.9570255E0,7.3478966E0,1.2361809E0,1.5641336E0,2.5632937E0,4.5934105E0,0E0,0E0,0E0,0E0,0E0,0E0,0E0,0E0],"parents":[2147483647,0,0,1,1,2,2,3,3,4,4,5,5,6,6],"right_children":[2,4,6,8,10,12,14,-1,-1,-1,-1,-1,-1,-1,-1],"split_conditions":[2.2805E2,9.4649994E1,4.227E2,4.6325E2,5.0069998E2,1.1278E3,7.42E2,8.471992E-2,-0E0,-4.9530793E-2,1.6701521E-2,-3.3505734E-2,6.489476E-2,1.5043384E-1,-0E0],"split_indices":[74,84,75,9,25,38,77,0,0,0,0,0,0,0,0],"split_type":[0,0,0,0,0,0,0,0,0,0,0,0,0,0,0],"sum_hessian":[6.806717E1,4.9618855E1,1.8448317E1,2.5972416E0,4.702161E1,1.0887572E1,7.560744E0,1.4339716E0,1.1632701E0,4.5992767E1,1.0288446E0,8.272806E0,2.6147656E0,6.232904E0,1.3278399E0],"tree_param":{"num_deleted":"0","num_feature":"86","num_nodes":"15","size_leaf_vector":"0"}},{"base_weights":[5.0284046E-1,-1.5269716E-3,9.3451786E-1,3.4708524E-1,-3.8017216E-1,-0E0,1.217961E0,6.4295185E-1,-3.1534794E-1,7.575326E-2,-5.226628E-1,-2.03952E-1,5.4045093E-1,-0E0,1.3142418E0],"categories":[],"categories_nodes":[],"categories_segments":[],"categories_sizes":[],"default_left":[1,1,1,1,1,1,1,0,0,0,0,0,0,0,0],"id":15,"left_children":[1,3,5,7,9,11,13,-1,-1,-1,-1,-1,-1,-1,-1],"loss_changes":[1.7600801E1,4.8156633E0,1.0784416E1,3.9584794E0,1.7039988E0,1.4547399E0,4.241173E0,0E0,0E0,0E0,0E0,0E0,0E0,0E0,0E0],"parents":[2147483647,0,0,1,1,2,2,3,3,4,4,5,5,6,6],"right_children":[2,4,6,8,10,12,14,-1,-1,-1,-1,-1,-1,-1,-1],"split_conditions":[6.9335E2,3.303E2,5.501E2,4.1859998E2,2.6005E2,8.0075E2,2.326E2,6.429519E-2,-3.1534795E-2,7.5753257E-3,-5.226628E-2,-2.03952E-2,5.4045092E-2,-0E0,1.3142417E-1],"split_indices":[85,81,54,14,6,69,53,0,0,0,0,0,0,0,0],"split_type":[0,0,0,0,0,0,0,0,0,0,0,0,0,0,0],"sum_hessian":[7.55482E1,3.423191E1,4.131629E1,1.6491146E1,1.7740765E1,1.013394E1,3.1182352E1,1.2463494E1,4.0276513E0,2.664752E0,1.5076013E1,7.341339E0,2.7926006E0,2.0871325E0,2.909522E1],"tree_param":{"num_deleted":"0","num_feature":"86","num_nodes":"15","size_leaf_vector":"0"}},{"base_weights":[-1.5128435E-1,2.4187714E-1,-4.4802788E-1,-2.7609512E-1,7.312757E-1,-5.3562945E-1,-0E0,5.8983588E-3,-4.5552522E-1,1.0470171E0,-2.1114607E-1,-0E0,-5.621268E-1,4.5537546E-1,-2.3648307E-1],"categories":[],"categories_nodes":[],"categories_segments":[],"categories_sizes":[],"default_left":[1,1,1,1,1,1,1,0,0,0,0,1,1,0,0],"id":16,"left_children":[1,3,5,7,9,-1,13,-1,-1,-1,-1,-1,-1,-1,-1],"loss_changes":[8.201397E0,7.8250594E0,1.838541E0,1.1338967E0,5.760231E0,6.087475E-1,9.341074E-1,0E0,0E0,0E0,0E0,0E0,0E0,0E0,0E0],"parents":[2147483647,0,0,1,1,2,2,3,3,4,4,5,5,6,6],"right_children":[2,4,6,8,10,-1,14,-1,-1,-1,-1,-1,-1,-1,-1],"split_conditions":[1.3104999E2,1.0185E3,2.623E2,2.7265002E2,1.15445E3,-5.3562947E-2,4.706E2,5.8983586E-4,-4.5552522E-2,1.0470171E-1,-2.1114608E-2,-0E0,-5.6212682E-2,4.5537546E-2,-2.3648307E-2],"split_indices":[37,61,57,49,59,7,9,0,0,0,0,2147483647,2147483647,0,0],"split_type":[0,0,0,0,0,0,0,0,0,0,0,0,0,0,0],"sum_hessian":[6.660097E1,2.7276615E1,3.9324352E1,1.2470521E1,1.4806094E1,3.3621277E1,5.7030754E0,3.0581846E0,9.412336E0,1.1802117E1,3.003977E0,1.2605029E0,3.2360775E1,2.323496E0,3.379579E0],"tree_param":{"num_deleted":"2","num_feature":"86","num_nodes":"15","size_leaf_vector":"0"}},{"base_weights":[1.6523236E-2,-2.9330775E-1,4.4105074E-1,1.9831018E-1,-4.375008E-1,-1.5903984E-1,9.526426E-1,-2.7391475E-1,9.3013513E-1,-4.9442896E-1,8.7177575E-2,2.826979E-1,-3.8904932E-1,1.2550273E0,-0E0],"categories":[],"categories_nodes":[],"categories_segments":[],"categories_sizes":[],"default_left":[1,1,1,1,1,1,1,0,0,0,0,0,0,0,0],"id":17,"left_children":[1,3,5,7,9,11,13,-1,-1,-1,-1,-1,-1,-1,-1],"loss_changes":[9.364109E0,3.1031263E0,1.043422E1,3.6757202E0,1.4114451E0,1.6572404E0,4.0456295E0,0E0,0E0,0E0,0E0,0E0,0E0,0E0,0E0],"parents":[2147483647,0,0,1,1,2,2,3,3,4,4,5,5,6,6],"right_children":[2,4,6,8,10,12,14,-1,-1,-1,-1,-1,-1,-1,-1],"split_conditions":[3.4015002E2,1.80925E3,7.0725E2,2.9345E2,4.8675E2,2.6556E3,2.1885E2,-2.7391477E-2,9.301352E-2,-4.94429E-2,8.717758E-3,2.8269788E-2,-3.890493E-2,1.2550274E-1,-0E0],"split_indices":[10,32,39,49,68,56,21,0,0,0,0,0,0,0,0],"split_type":[0,0,0,0,0,0,0,0,0,0,0,0,0,0,0],"sum_hessian":[6.808599E1,3.8176987E1,2.9909002E1,7.0000987E0,3.117689E1,1.3181601E1,1.6727402E1,3.8044581E0,3.1956408E0,2.9896654E1,1.2802354E0,2.9463537E0,1.0235248E1,1.1782569E1,4.944832E0],"tree_param":{"num_deleted":"0","num_feature":"86","num_nodes":"15","size_leaf_vector":"0"}},{"base_weights":[-2.2993308E-1,5.877773E-1,-4.0910798E-1,1.0140568E0,-2.2166078E-1,3.5553824E-2,-4.9541435E-1,1.3410714E0,-0E0,8.256918E-1,-2.0232409E-1,-0E0,-5.501399E-1],"categories":[],"categories_nodes":[],"categories_segments":[],"categories_sizes":[],"default_left":[1,1,1,1,0,1,1,0,0,0,0,0,0],"id":18,"left_children":[1,3,5,7,-1,9,11,-1,-1,-1,-1,-1,-1],"loss_changes":[1.0167761E1,5.090359E0,2.709941E0,3.2075672E0,0E0,2.3890383E0,1.751976E0,0E0,0E0,0E0,0E0,0E0,0E0],"parents":[2147483647,0,0,1,1,2,2,3,3,5,5,6,6],"right_children":[2,4,6,8,-1,10,12,-1,-1,-1,-1,-1,-1],"split_conditions":[1.04825E3,4.1275E2,1.28465E3,1.21545E3,-2.2166079E-2,1.1471E3,1.033E2,1.3410714E-1,-0E0,8.256918E-2,-2.023241E-2,-0E0,-5.5013992E-2],"split_indices":[78,61,34,33,0,55,8,0,0,0,0,0,0],"split_type":[0,0,0,0,0,0,0,0,0,0,0,0,0],"sum_hessian":[6.79765E1,1.0804734E1,5.7171772E1,7.721137E0,3.0835974E0,7.5052357E0,4.9666534E1,5.769973E0,1.9511642E0,2.1376283E0,5.367607E0,3.7901075E0,4.5876427E1],"tree_param":{"num_deleted":"0","num_feature":"86","num_nodes":"13","size_leaf_vector":"0"}},{"base_weights":[-1.7867531E-1,-3.967739E-1,4.9777552E-1,-5.0012714E-1,-0E0,-1.8990952E-1,9.030718E-1,-0E0,-5.6512296E-1,-3.565367E-1,1.0537218E0,-0E0,-3.0026296E-1,1.1982542E0,-4.7627445E-2],"categories":[],"categories_nodes":[],"categories_segments":[],"categories_sizes":[],"default_left":[1,1,1,1,1,1,1,0,0,0,0,1,1,0,0],"id":19,"left_children":[1,3,5,7,9,-1,13,-1,-1,-1,-1,-1,-1,-1,-1],"loss_changes":[1.032367E1,2.104659E0,5.407325E0,1.4776554E0,4.9634337E0,2.2973502E-1,4.37833E0,0E0,0E0,0E0,0E0,0E0,0E0,0E0,0E0],"parents":[2147483647,0,0,1,1,2,2,3,3,4,4,5,5,6,6],"right_children":[2,4,6,8,10,-1,14,-1,-1,-1,-1,-1,-1,-1,-1],"split_conditions":[4.1645E2,1.10495E3,1.2082E3,2.3365E2,1.8470001E2,-1.8990953E-2,8.0295E2,-0E0,-5.6512296E-2,-3.565367E-2,1.0537218E-1,-0E0,-3.0026296E-2,1.1982542E-1,-4.7627445E-3],"split_indices":[75,38,43,61,65,43,69,0,0,0,0,2147483647,2147483647,0,0],"split_type":[0,0,0,0,0,0,0,0,0,0,0,0,0,0,0],"sum_hessian":[6.8321236E1,5.3094475E1,1.5226758E1,4.146131E1,1.1633163E1,4.928479E0,1.0298279E1,4.5785713E0,3.688274E1,9.347594E0,2.2855692E0,1.0087818E0,3.9196973E0,8.462289E0,1.83599E0],"tree_param":{"num_deleted":"2","num_feature":"86","num_nodes":"15","size_leaf_vector":"0"}},{"base_weights":[4.2864496E-1,8.358258E-1,-0E0,-0E0,1.0391716E0,-4.490169E-1,4.2423916E-1,-3.3877823E-1,4.7480175E-1,-0E0,1.13042E0,-0E0,-5.352658E-1,-0E0,8.0031675E-1],"categories":[],"categories_nodes":[],"categories_segments":[],"categories_sizes":[],"default_left":[1,1,1,1,1,1,1,0,0,0,0,0,0,0,0],"id":20,"left_children":[1,3,5,7,9,11,13,-1,-1,-1,-1,-1,-1,-1,-1],"loss_changes":[1.38038225E1,6.4781857E0,7.8195543E0,1.7298648E0,3.6069756E0,9.830017E-1,4.1202297E0,0E0,0E0,0E0,0E0,0E0,0E0,0E0,0E0],"parents":[2147483647,0,0,1,1,2,2,3,3,4,4,5,5,6,6],"right_children":[2,4,6,8,10,12,14,-1,-1,-1,-1,-1,-1,-1,-1],"split_conditions":[6.058E2,1.10595E3,5.7065E2,1.3568999E3,4.185E1,4.75E1,3.731E2,-3.3877824E-2,4.7480177E-2,-0E0,1.13042E-1,-0E0,-5.352658E-2,-0E0,8.003168E-2],"split_indices":[45,59,54,34,23,23,61,0,0,0,0,0,0,0,0],"split_type":[0,0,0,0,0,0,0,0,0,0,0,0,0,0,0],"sum_hessian":[7.882227E1,3.975278E1,3.9069492E1,8.389604E0,3.1363176E1,1.877667E1,2.029282E1,4.533164E0,3.8564396E0,2.1911938E0,2.9171984E1,2.428908E0,1.6347763E1,8.876894E0,1.1415927E1],"tree_param":{"num_deleted":"0","num_feature":"86","num_nodes":"15","size_leaf_vector":"0"}},{"base_weights":[-2.3604043E-1,-4.5183545E-1,1.07811265E-1,-5.161341E-1,3.5273188E-1,4.9304888E-1,-2.4751781E-1,-5.5959845E-1,-0E0,-7.252544E-3,1.0744447E0,-4.4773027E-1,7.8586094E-2],"categories":[],"categories_nodes":[],"categories_segments":[],"categories_sizes":[],"default_left":[1,1,1,1,0,1,1,0,0,0,0,0,0],"id":21,"left_children":[1,3,5,7,-1,9,11,-1,-1,-1,-1,-1,-1],"loss_changes":[5.402375E0,2.593791E0,3.7970238E0,8.576069E-1,0E0,5.0614905E0,1.210533E0,0E0,0E0,0E0,0E0,0E0,0E0],"parents":[2147483647,0,0,1,1,2,2,3,3,5,5,6,6],"right_children":[2,4,6,8,-1,10,12,-1,-1,-1,-1,-1,-1],"split_conditions":[6.1865E2,2.0579999E2,1.1248E3,1.7970001E2,3.527319E-2,8.3025E2,2.4275E2,-5.5959847E-2,-0E0,-7.252544E-4,1.07444465E-1,-4.4773027E-2,7.85861E-3],"split_indices":[16,18,59,26,0,61,70,0,0,0,0,0,0],"split_type":[0,0,0,0,0,0,0,0,0,0,0,0,0],"sum_hessian":[6.6513985E1,4.2460648E1,2.4053337E1,4.0801327E1,1.6593227E0,1.2705311E1,1.1348025E1,3.729868E1,3.5026484E0,6.435218E0,6.270093E0,8.700108E0,2.647918E0],"tree_param":{"num_deleted":"0","num_feature":"86","num_nodes":"13","size_leaf_vector":"0"}},{"base_weights":[-4.6453676E-3,3.2788336E-1,-4.0701187E-1,8.370497E-1,-0E0,2.6532646E-2,-4.608435E-1,-0E0,1.0804697E0,4.6452224E-1,-3.5321835E-1,-5.4846746E-1,-0E0],"categories":[],"categories_nodes":[],"categories_segments":[],"categories_sizes":[],"default_left":[1,1,1,1,1,0,1,0,0,0,0,0,0],"id":22,"left_children":[1,3,5,7,9,-1,11,-1,-1,-1,-1,-1,-1],"loss_changes":[9.098001E0,6.7024145E0,1.1900053E0,3.828435E0,3.5949972E0,0E0,1.6039133E0,0E0,0E0,0E0,0E0,0E0,0E0],"parents":[2147483647,0,0,1,1,2,2,3,3,4,4,6,6],"right_children":[2,4,6,8,10,-1,12,-1,-1,-1,-1,-1,-1],"split_conditions":[1.6615E2,5.5435E2,1.0878501E3,2.8535E2,6.836E2,2.6532647E-3,1.197E3,-0E0,1.0804697E-1,4.6452224E-2,-3.5321835E-2,-5.4846745E-2,-0E0],"split_indices":[27,54,43,49,85,0,62,0,0,0,0,0,0],"split_type":[0,0,0,0,0,0,0,0,0,0,0,0,0],"sum_hessian":[6.5409004E1,3.4553055E1,3.085595E1,1.4021194E1,2.053186E1,1.4123085E0,2.9443642E1,2.7264469E0,1.1294748E1,7.612064E0,1.2919796E1,2.5825102E1,3.6185393E0],"tree_param":{"num_deleted":"0","num_feature":"86","num_nodes":"13","size_leaf_vector":"0"}},{"base_weights":[-1.7388348E-1,5.0943184E-1,-4.2060047E-1,9.3253124E-1,-3.089078E-1,-5.094901E-1,-0E0,1.1543261E0,-0E0,-5.5638826E-1,-0E0,4.518008E-1,-3.1002668E-1],"categories":[],"categories_nodes":[],"categories_segments":[],"categories_sizes":[],"default_left":[1,1,1,1,0,1,1,0,0,0,0,0,0],"id":23,"left_children":[1,3,5,7,-1,9,11,-1,-1,-1,-1,-1,-1],"loss_changes":[1.0644136E1,6.4268346E0,1.9013777E0,3.4104166E0,0E0,1.1095142E0,1.4069448E0,0E0,0E0,0E0,0E0,0E0,0E0],"parents":[2147483647,0,0,1,1,2,2,3,3,5,5,6,6],"right_children":[2,4,6,8,-1,10,12,-1,-1,-1,-1,-1,-1],"split_conditions":[1.0609E3,4.1275E2,1.20395E3,1.79715E3,-3.0890781E-2,1.6026001E3,6.1635E2,1.1543261E-1,-0E0,-5.5638827E-2,-0E0,4.518008E-2,-3.1002669E-2],"split_indices":[78,61,62,52,0,22,31,0,0,0,0,0,0],"split_type":[0,0,0,0,0,0,0,0,0,0,0,0,0],"sum_hessian":[6.139386E1,1.4928721E1,4.6465137E1,1.0554342E1,4.374379E0,3.8672478E1,7.7926598E0,9.10023E0,1.4541122E0,3.5850395E1,2.822082E0,3.311816E0,4.4808435E0],"tree_param":{"num_deleted":"0","num_feature":"86","num_nodes":"13","size_leaf_vector":"0"}},{"base_weights":[-1.5481466E-1,-3.2683483E-1,5.625196E-1,-0E0,-4.320313E-1,1.0674566E0,-0E0,6.070295E-1,-2.243745E-1,-4.744273E-1,1.4929914E-1,-0E0,1.2819552E0,1.1854625E-1,-2.6646274E-1],"categories":[],"categories_nodes":[],"categories_segments":[],"categories_sizes":[],"default_left":[1,1,1,1,1,1,1,0,0,0,0,0,0,1,1],"id":24,"left_children":[1,3,5,7,9,11,-1,-1,-1,-1,-1,-1,-1,-1,-1],"loss_changes":[8.038751E0,2.130433E0,4.4349976E0,2.1238055E0,1.4479852E0,1.4696198E0,3.5751325E-1,0E0,0E0,0E0,0E0,0E0,0E0,0E0,0E0],"parents":[2147483647,0,0,1,1,2,2,3,3,4,4,5,5,6,6],"right_children":[2,4,6,8,10,12,-1,-1,-1,-1,-1,-1,-1,-1,-1],"split_conditions":[2.4125E2,1.4595001E2,1.4941E3,2.3620001E2,7.0115E2,1.575E2,-0E0,6.070295E-2,-2.2437451E-2,-4.744273E-2,1.4929915E-2,-0E0,1.2819552E-1,1.1854625E-2,-2.6646275E-2],"split_indices":[74,26,22,70,31,27,79,0,0,0,0,0,0,2147483647,2147483647],"split_type":[0,0,0,0,0,0,0,0,0,0,0,0,0,0,0],"sum_hessian":[6.456603E1,5.364107E1,1.0924958E1,1.1955814E1,4.1685257E1,6.203733E0,4.7212257E0,3.4672506E0,8.488564E0,4.0626484E1,1.058775E0,1.3147482E0,4.8889847E0,1.1020464E0,3.619179E0],"tree_param":{"num_deleted":"2","num_feature":"86","num_nodes":"15","size_leaf_vector":"0"}},{"base_weights":[4.3796265E-1,7.2676814E-1,-1.2836233E-1,8.794657E-1,-0E0,-4.263088E-1,3.1213844E-1,1.310545E-1,1.0606785E0,4.6254176E-1,-4.017534E-1,-0E0,-5.0897294E-1,-2.5162506E-1,7.133698E-1],"categories":[],"categories_nodes":[],"categories_segments":[],"categories_sizes":[],"default_left":[1,1,1,1,1,1,1,0,0,0,0,1,1,0,0],"id":25,"left_children":[1,3,5,7,9,-1,13,-1,-1,-1,-1,-1,-1,-1,-1],"loss_changes":[1.46057E1,7.259201E0,3.9761505E0,5.2822456E0,1.9658017E0,5.961106E-1,3.058546E0,0E0,0E0,0E0,0E0,0E0,0E0,0E0,0E0],"parents":[2147483647,0,0,1,1,2,2,3,3,4,4,5,5,6,6],"right_children":[2,4,6,8,10,-1,14,-1,-1,-1,-1,-1,-1,-1,-1],"split_conditions":[2.411E2,1.004E3,5.724E2,2.6705E2,1.15835E3,-4.263088E-2,3.885E2,1.3105451E-2,1.0606785E-1,4.6254177E-2,-4.017534E-2,-0E0,-5.0897297E-2,-2.5162507E-2,7.133698E-2],"split_indices":[48,79,54,61,62,46,75,0,0,0,0,2147483647,2147483647,0,0],"split_type":[0,0,0,0,0,0,0,0,0,0,0,0,0,0,0],"sum_hessian":[8.407091E1,5.6659206E1,2.7411701E1,4.776054E1,8.898665E0,1.7725122E1,9.68658E0,1.0721635E1,3.7038906E1,2.9341004E0,5.964565E0,3.2873847E0,1.4437737E1,3.1463022E0,6.5402775E0],"tree_param":{"num_deleted":"2","num_feature":"86","num_nodes":"15","size_leaf_vector":"0"}},{"base_weights":[-2.345607E-1,4.8124723E-2,-4.5300683E-1,5.236333E-1,-2.0675027E-1,-5.4896414E-1,-0E0,-1.8329611E-1,9.1113967E-1,2.0660011E-1,-4.6950823E-1,5.789756E-1,-2.5607955E-1],"categories":[],"categories_nodes":[],"categories_segments":[],"categories_sizes":[],"default_left":[1,1,1,1,1,0,1,0,0,0,0,0,0],"id":26,"left_children":[1,3,5,7,9,-1,11,-1,-1,-1,-1,-1,-1],"loss_changes":[4.276805E0,3.5867167E0,1.8849783E0,3.8411844E0,2.1336575E0,0E0,1.28773E0,0E0,0E0,0E0,0E0,0E0,0E0],"parents":[2147483647,0,0,1,1,2,2,3,3,4,4,6,6],"right_children":[2,4,6,8,10,-1,12,-1,-1,-1,-1,-1,-1],"split_conditions":[4.638E2,9.933E2,1.8279E3,1.82015E3,1.6935E2,-5.4896414E-2,1.0916E3,-1.8329611E-2,9.111397E-2,2.0660011E-2,-4.6950825E-2,5.7897564E-2,-2.5607957E-2],"split_indices":[9,13,61,32,28,0,11,0,0,0,0,0,0],"split_type":[0,0,0,0,0,0,0,0,0,0,0,0,0],"sum_hessian":[6.1348606E1,2.5086601E1,3.6262005E1,9.755407E0,1.5331194E1,3.0628805E1,5.633198E0,2.726969E0,7.028438E0,4.562214E0,1.076898E1,1.9193792E0,3.7138186E0],"tree_param":{"num_deleted":"0","num_feature":"86","num_nodes":"13","size_leaf_vector":"0"}},{"base_weights":[-0E0,-3.1722426E-1,4.1792807E-1,-0E0,-5.037623E-1,-4.1824386E-2,7.122418E-1,4.5624197E-1,-2.824879E-1,-0E0,-5.377666E-1,-2.588507E-1,5.3457886E-1,-5.4787535E-2,9.471931E-1],"categories":[],"categories_nodes":[],"categories_segments":[],"categories_sizes":[],"default_left":[1,1,1,1,1,1,1,0,0,1,1,0,0,0,0],"id":27,"left_children":[1,3,5,7,-1,11,13,-1,-1,-1,-1,-1,-1,-1,-1],"loss_changes":[9.20857E0,2.7364702E0,4.7985163E0,2.0455818E0,5.713258E-1,1.2937126E0,4.5212183E0,0E0,0E0,0E0,0E0,0E0,0E0,0E0,0E0],"parents":[2147483647,0,0,1,1,2,2,3,3,4,4,5,5,6,6],"right_children":[2,4,6,8,-1,12,14,-1,-1,-1,-1,-1,-1,-1,-1],"split_conditions":[3.867E2,1.0635E2,7.0185E2,2.5905E2,-5.0376233E-2,2.568E2,4.1055E2,4.5624197E-2,-2.824879E-2,-0E0,-5.377666E-2,-2.588507E-2,5.3457886E-2,-5.4787537E-3,9.471931E-2],"split_indices":[14,0,39,66,77,48,7,0,0,2147483647,2147483647,0,0,0,0],"split_type":[0,0,0,0,0,0,0,0,0,0,0,0,0,0,0],"sum_hessian":[6.722574E1,3.793777E1,2.9287968E1,1.2714591E1,2.522318E1,1.0439855E1,1.8848114E1,5.788595E0,6.9259963E0,1.2358733E0,2.3987307E1,9.244826E0,1.1950278E0,3.601419E0,1.5246695E1],"tree_param":{"num_deleted":"2","num_feature":"86","num_nodes":"15","size_leaf_vector":"0"}},{"base_weights":[-2.0100345E-1,-4.2337155E-1,5.036342E-1,-5.3218055E-1,-0E0,1.1042235E0,-2.1065496E-1,-0E0,-5.552168E-1,6.921732E-1,-2.1194822E-1,1.2492957E0,-0E0,-3.0881515E-1,-0E0],"categories":[],"categories_nodes":[],"categories_segments":[],"categories_sizes":[],"default_left":[1,1,1,1,1,1,1,1,1,0,0,0,0,1,1],"id":28,"left_children":[1,3,5,-1,9,11,-1,-1,-1,-1,-1,-1,-1,-1,-1],"loss_changes":[9.812643E0,2.7445602E0,7.216509E0,6.605749E-1,1.9453092E0,1.063405E0,2.3908943E-1,0E0,0E0,0E0,0E0,0E0,0E0,0E0,0E0],"parents":[2147483647,0,0,1,1,2,2,3,3,4,4,5,5,6,6],"right_children":[2,4,6,-1,10,12,-1,-1,-1,-1,-1,-1,-1,-1,-1],"split_conditions":[1.2933E3,4.864E2,1.1669E3,-5.3218056E-2,7.515E2,5.8375E2,-2.1065496E-2,-0E0,-5.552168E-2,6.921732E-2,-2.1194821E-2,1.2492957E-1,-0E0,-3.0881515E-2,-0E0],"split_indices":[43,72,55,26,69,31,9,2147483647,2147483647,0,0,0,0,2147483647,2147483647],"split_type":[0,0,0,0,0,0,0,0,0,0,0,0,0,0,0],"sum_hessian":[6.0776424E1,4.7579666E1,1.3196758E1,3.943607E1,8.143596E0,7.632924E0,5.5638347E0,1.1429412E0,3.829313E1,2.4309099E0,5.712686E0,6.4257174E0,1.2072067E0,4.561296E0,1.002539E0],"tree_param":{"num_deleted":"4","num_feature":"86","num_nodes":"15","size_leaf_vector":"0"}},{"base_weights":[-1.4743587E-1,-3.67055E-1,3.9401412E-1,-4.6423382E-1,2.802124E-2,-2.1681187E-1,7.397145E-1,-0E0,-5.067918E-1,7.914715E-1,-1.9935904E-1,-0E0,-3.2270828E-1,-0E0,1.0680481E0],"categories":[],"categories_nodes":[],"categories_segments":[],"categories_sizes":[],"default_left":[1,1,1,1,1,1,1,0,0,0,0,1,1,0,0],"id":29,"left_children":[1,3,5,7,9,-1,13,-1,-1,-1,-1,-1,-1,-1,-1],"loss_changes":[8.055006E0,2.3427396E0,4.5750027E0,1.1833754E0,2.251138E0,2.606939E-1,3.5067968E0,0E0,0E0,0E0,0E0,0E0,0E0,0E0,0E0],"parents":[2147483647,0,0,1,1,2,2,3,3,4,4,5,5,6,6],"right_children":[2,4,6,8,10,-1,14,-1,-1,-1,-1,-1,-1,-1,-1],"split_conditions":[4.1645E2,4.1859998E2,1.2082E3,9.356E2,2.3620001E2,-2.1681188E-2,2.278E2,-0E0,-5.0679177E-2,7.914715E-2,-1.9935904E-2,-0E0,-3.227083E-2,-0E0,1.0680481E-1],"split_indices":[75,14,43,38,70,3,74,0,0,0,0,2147483647,2147483647,0,0],"split_type":[0,0,0,0,0,0,0,0,0,0,0,0,0,0,0],"sum_hessian":[6.574927E1,4.8319313E1,1.7429956E1,4.0671303E1,7.6480103E0,5.3886976E0,1.2041259E1,2.0973759E0,3.8573925E1,2.1950428E0,5.452967E0,1.001657E0,4.387041E0,3.7115207E0,8.329738E0],"tree_param":{"num_deleted":"2","num_feature":"86","num_nodes":"15","size_leaf_vector":"0"}},{"base_weights":[3.6074853E-1,-1.5215781E-2,6.5800846E-1,-2.12026E-1,4.40045E-1,9.5173967E-1,1.7230302E-1,2.6932687E-1,-3.6526448E-1,7.5736E-1,-1.3837144E-1,1.7099448E-1,1.1342678E0,-5.4113146E-2,8.057275E-1],"categories":[],"categories_nodes":[],"categories_segments":[],"categories_sizes":[],"default_left":[1,1,1,1,1,1,1,0,0,0,0,0,0,0,0],"id":30,"left_children":[1,3,5,7,9,11,13,-1,-1,-1,-1,-1,-1,-1,-1],"loss_changes":[1.0229416E1,3.2098732E0,5.7542515E0,2.2795575E0,2.5698423E0,2.6699524E0,3.8221905E0,0E0,0E0,0E0,0E0,0E0,0E0,0E0,0E0],"parents":[2147483647,0,0,1,1,2,2,3,3,4,4,5,5,6,6],"right_children":[2,4,6,8,10,12,14,-1,-1,-1,-1,-1,-1,-1,-1],"split_conditions":[1.577E2,1.5075E2,3.574E2,3.5740002E2,3.6E2,9.953E2,2.6539E3,2.6932687E-2,-3.652645E-2,7.5736E-2,-1.3837144E-2,1.7099448E-2,1.1342678E-1,-5.411315E-3,8.057275E-2],"split_indices":[18,37,44,14,46,13,15,0,0,0,0,0,0,0,0],"split_type":[0,0,0,0,0,0,0,0,0,0,0,0,0,0,0],"sum_hessian":[8.468976E1,3.6328037E1,4.836172E1,2.7269981E1,9.058053E0,2.8255684E1,2.0106035E1,4.8262906E0,2.2443691E1,6.765849E0,2.2922044E0,6.759223E0,2.149646E1,1.4322383E1,5.7836533E0],"tree_param":{"num_deleted":"0","num_feature":"86","num_nodes":"15","size_leaf_vector":"0"}},{"base_weights":[-1.8919322E-1,-4.0438348E-1,1.0581614E-1,-4.732497E-1,4.3456957E-1,3.983017E-1,-3.3676192E-1,-5.2142656E-1,2.071709E-2,-5.1526908E-2,8.0086344E-1,-4.150119E-1,-0E0],"categories":[],"categories_nodes":[],"categories_segments":[],"categories_sizes":[],"default_left":[1,1,1,1,0,1,1,0,0,0,0,1,1],"id":31,"left_children":[1,3,5,7,-1,9,-1,-1,-1,-1,-1,-1,-1],"loss_changes":[4.458168E0,2.5359807E0,3.5851727E0,1.4214401E0,0E0,3.9747822E0,3.5766768E-1,0E0,0E0,0E0,0E0,0E0,0E0],"parents":[2147483647,0,0,1,1,2,2,3,3,5,5,6,6],"right_children":[2,4,6,8,-1,10,-1,-1,-1,-1,-1,-1,-1],"split_conditions":[6.1865E2,2.0579999E2,1.14165E3,2.5005E2,4.3456957E-2,9.63E2,-3.3676192E-2,-5.2142657E-2,2.0717091E-3,-5.1526907E-3,8.008634E-2,-4.150119E-2,-0E0],"split_indices":[16,18,59,21,0,61,55,0,0,0,0,2147483647,2147483647],"split_type":[0,0,0,0,0,0,0,0,0,0,0,0,0],"sum_hessian":[6.384888E1,3.866456E1,2.5184324E1,3.7235886E1,1.4286743E0,1.6584015E1,8.600309E0,3.5720848E1,1.5150357E0,7.070851E0,9.513164E0,7.3979807E0,1.2023284E0],"tree_param":{"num_deleted":"2","num_feature":"86","num_nodes":"13","size_leaf_vector":"0"}},{"base_weights":[1.33018335E-2,3.8695642E-1,-3.260442E-1,-1.2382046E-2,7.4819404E-1,1.5753031E-1,-4.7205037E-1,6.0620236E-1,-3.14976E-1,-1.927739E-1,9.755013E-1,8.148562E-1,-8.9879565E-2,-5.355084E-1,-0E0],"categories":[],"categories_nodes":[],"categories_segments":[],"categories_sizes":[],"default_left":[1,1,1,1,1,1,1,0,0,0,0,0,0,0,0],"id":32,"left_children":[1,3,5,7,9,11,13,-1,-1,-1,-1,-1,-1,-1,-1],"loss_changes":[8.621443E0,5.5803146E0,2.7894177E0,2.8175855E0,5.019661E0,1.9441434E0,1.2326212E0,0E0,0E0,0E0,0E0,0E0,0E0,0E0,0E0],"parents":[2147483647,0,0,1,1,2,2,3,3,4,4,5,5,6,6],"right_children":[2,4,6,8,10,12,14,-1,-1,-1,-1,-1,-1,-1,-1],"split_conditions":[1.06649994E2,3.4015002E2,1.496E2,1.1945E2,1.9020001E2,2.5809502E3,1.5911001E3,6.0620237E-2,-3.14976E-2,-1.927739E-2,9.755013E-2,8.148562E-2,-8.987957E-3,-5.355084E-2,-0E0],"split_indices":[0,10,27,37,74,15,51,0,0,0,0,0,0,0,0],"split_type":[0,0,0,0,0,0,0,0,0,0,0,0,0,0,0],"sum_hessian":[6.551801E1,3.251844E1,3.2999577E1,1.4588598E1,1.7929842E1,6.0462737E0,2.69533E1,3.3769937E0,1.1211605E1,2.6621437E0,1.5267698E1,2.131519E0,3.9147546E0,2.5019173E1,1.9341291E0],"tree_param":{"num_deleted":"0","num_feature":"86","num_nodes":"15","size_leaf_vector":"0"}},{"base_weights":[-1.689951E-1,5.6696093E-1,-4.3368426E-1,8.959804E-1,-2.3585984E-1,1.5565433E-1,-5.285678E-1,-0E0,1.1057203E0,8.3097446E-1,-1.6908248E-1,-0E0,-5.4957247E-1],"categories":[],"categories_nodes":[],"categories_segments":[],"categories_sizes":[],"default_left":[1,1,1,1,0,1,1,0,0,0,0,1,1],"id":33,"left_children":[1,3,5,7,-1,9,-1,-1,-1,-1,-1,-1,-1],"loss_changes":[1.2032768E1,4.997488E0,3.0593967E0,2.6455536E0,0E0,2.067595E0,6.4145947E-1,0E0,0E0,0E0,0E0,0E0,0E0],"parents":[2147483647,0,0,1,1,2,2,3,3,5,5,6,6],"right_children":[2,4,6,8,-1,10,-1,-1,-1,-1,-1,-1,-1],"split_conditions":[2.4185E2,4.1275E2,2.266E2,4.89E1,-2.3585984E-2,1.29575E3,-5.285678E-2,-0E0,1.1057203E-1,8.309745E-2,-1.6908249E-2,-0E0,-5.495725E-2],"split_indices":[53,61,61,67,0,83,83,0,0,0,0,2147483647,2147483647],"split_type":[0,0,0,0,0,0,0,0,0,0,0,0,0],"sum_hessian":[6.019193E1,1.4620447E1,4.5571484E1,1.1171576E1,3.4488711E0,4.7692304E0,4.0802254E1,2.0157723E0,9.155804E0,2.0423906E0,2.7268398E0,1.010472E0,3.979178E1],"tree_param":{"num_deleted":"2","num_feature":"86","num_nodes":"13","size_leaf_vector":"0"}},{"base_weights":[-1.6573207E-1,2.5035617E-1,-4.309318E-1,-2.2510383E-1,6.024718E-1,8.1151344E-2,-4.7696444E-1,-4.0345284E-1,8.997985E-2,1.0009507E0,-0E0,-5.2283436E-1,-0E0],"categories":[],"categories_nodes":[],"categories_segments":[],"categories_sizes":[],"default_left":[1,1,1,1,1,0,1,0,0,0,0,0,0],"id":34,"left_children":[1,3,5,7,9,-1,11,-1,-1,-1,-1,-1,-1],"loss_changes":[7.0130014E0,4.3445644E0,1.3551159E0,8.699905E-1,3.360024E0,0E0,1.0171776E0,0E0,0E0,0E0,0E0,0E0,0E0],"parents":[2147483647,0,0,1,1,2,2,3,3,4,4,6,6],"right_children":[2,4,6,8,10,-1,12,-1,-1,-1,-1,-1,-1],"split_conditions":[7.219E2,1.7888E3,1.257E2,3.623E2,2.2895001E2,8.115134E-3,5.018E2,-4.0345285E-2,8.997985E-3,1.0009507E-1,-0E0,-5.2283436E-2,-0E0],"split_indices":[77,35,26,81,21,0,72,0,0,0,0,0,0],"split_type":[0,0,0,0,0,0,0,0,0,0,0,0,0],"sum_hessian":[5.9940212E1,2.1886446E1,3.805377E1,8.257339E0,1.3629107E1,1.2839565E0,3.676981E1,7.1202893E0,1.1370494E0,7.653524E0,5.9755836E0,3.4154278E1,2.6155314E0],"tree_param":{"num_deleted":"0","num_feature":"86","num_nodes":"13","size_leaf_vector":"0"}},{"base_weights":[3.4097442E-1,-6.988572E-2,6.300802E-1,2.330349E-1,-3.5502398E-1,4.875965E-2,8.7118894E-1,4.9545193E-1,-2.8240135E-1,-0E0,-5.1820016E-1,3.8959393E-1,-2.916304E-1,-0E0,9.186736E-1],"categories":[],"categories_nodes":[],"categories_segments":[],"categories_sizes":[],"default_left":[1,1,1,1,1,1,1,0,0,0,0,0,0,0,0],"id":35,"left_children":[1,3,5,7,9,11,13,-1,-1,-1,-1,-1,-1,-1,-1],"loss_changes":[1.0588761E1,3.1578314E0,6.1672935E0,2.4469323E0,1.4788511E0,2.20567E0,2.066883E0,0E0,0E0,0E0,0E0,0E0,0E0,0E0,0E0],"parents":[2147483647,0,0,1,1,2,2,3,3,4,4,5,5,6,6],"right_children":[2,4,6,8,10,12,14,-1,-1,-1,-1,-1,-1,-1,-1],"split_conditions":[1.1625E2,6.056E2,6.921E2,9.6955005E2,3.5740002E2,3.3045E2,1.1537E3,4.9545195E-2,-2.8240135E-2,-0E0,-5.1820017E-2,3.8959395E-2,-2.9163038E-2,-0E0,9.186736E-2],"split_indices":[8,45,85,79,14,81,60,0,0,0,0,0,0,0,0],"split_type":[0,0,0,0,0,0,0,0,0,0,0,0,0,0,0],"sum_hessian":[8.30576E1,3.3189693E1,4.986791E1,1.4481126E1,1.8708567E1,1.6187965E1,3.3679943E1,1.0907045E1,3.57408E0,4.9506693E0,1.3757897E1,9.484421E0,6.703544E0,1.0434115E0,3.263653E1],"tree_param":{"num_deleted":"0","num_feature":"86","num_nodes":"15","size_leaf_vector":"0"}},{"base_weights":[-1.4272803E-1,1.8662764E-1,-3.8096035E-1,-2.7783367E-1,5.6444395E-1,-0E0,-4.8385164E-1,-4.3549734E-1,9.0295985E-2,-1.2516545E-1,7.6705444E-1,3.9204806E-1,-2.082772E-1,-0E0,-5.080582E-1],"categories":[],"categories_nodes":[],"categories_segments":[],"categories_sizes":[],"default_left":[1,1,1,1,1,1,1,0,0,0,0,0,0,1,1],"id":36,"left_children":[1,3,5,7,9,11,-1,-1,-1,-1,-1,-1,-1,-1,-1],"loss_changes":[5.307584E0,4.9851685E0,1.9559741E0,1.0283401E0,2.9439912E0,8.5988986E-1,3.9361334E-1,0E0,0E0,0E0,0E0,0E0,0E0,0E0,0E0],"parents":[2147483647,0,0,1,1,2,2,3,3,4,4,5,5,6,6],"right_children":[2,4,6,8,10,12,-1,-1,-1,-1,-1,-1,-1,-1,-1],"split_conditions":[1.31E2,1.0185E3,4.4045E2,7.826E2,3.5465002E2,4.3725E2,-4.8385166E-2,-4.3549735E-2,9.029599E-3,-1.2516545E-2,7.670545E-2,3.9204806E-2,-2.082772E-2,-0E0,-5.080582E-2],"split_indices":[37,61,9,77,14,72,7,0,0,0,0,0,0,2147483647,2147483647],"split_type":[0,0,0,0,0,0,0,0,0,0,0,0,0,0,0],"sum_hessian":[6.3261406E1,2.4881634E1,3.8379772E1,1.009248E1,1.4789154E1,6.6126404E0,3.1767132E1,8.839925E0,1.2525553E0,2.3244073E0,1.2464746E1,3.4078014E0,3.2048388E0,1.5231087E0,3.0244024E1],"tree_param":{"num_deleted":"2","num_feature":"86","num_nodes":"15","size_leaf_vector":"0"}},{"base_weights":[-0E0,-4.2442864E-1,2.6913565E-1,2.4650902E-2,-5.264035E-1,-2.0012325E-1,5.7646143E-1,4.851432E-1,-0E0,-3.467981E-1,1.217334E-1,7.9798317E-1,-2.9318285E-1],"categories":[],"categories_nodes":[],"categories_segments":[],"categories_sizes":[],"default_left":[1,1,1,1,0,1,1,1,1,0,0,0,0],"id":37,"left_children":[1,3,5,-1,-1,9,11,-1,-1,-1,-1,-1,-1],"loss_changes":[7.5474524E0,1.6963038E0,6.2647285E0,5.2899766E-1,0E0,9.8939484E-1,5.696336E0,0E0,0E0,0E0,0E0,0E0,0E0],"parents":[2147483647,0,0,1,1,2,2,3,3,5,5,6,6],"right_children":[2,4,6,-1,-1,10,12,-1,-1,-1,-1,-1,-1],"split_conditions":[3.5240002E2,1.44045E3,1.44645E3,2.4650902E-3,-5.264035E-2,1.8551499E3,1.8669E3,4.851432E-2,-0E0,-3.467981E-2,1.217334E-2,7.979832E-2,-2.9318286E-2],"split_indices":[44,63,22,11,0,52,4,2147483647,2147483647,0,0,0,0],"split_type":[0,0,0,0,0,0,0,0,0,0,0,0,0],"sum_hessian":[6.3832108E1,2.4801514E1,3.9030594E1,2.9152358E0,2.1886278E1,1.42963295E1,2.4734266E1,1.2576816E0,1.6575541E0,1.1901926E1,2.3944027E0,2.0694994E1,4.0392723E0],"tree_param":{"num_deleted":"2","num_feature":"86","num_nodes":"13","size_leaf_vector":"0"}},{"base_weights":[-2.0600279E-1,4.725678E-1,-4.1073722E-1,-2.3706417E-1,8.555908E-1,1.7082617E-1,-4.8353273E-1,-0E0,1.0404207E0,7.1231604E-1,-3.583471E-2,-0E0,-5.257244E-1],"categories":[],"categories_nodes":[],"categories_segments":[],"categories_sizes":[],"default_left":[1,1,1,0,1,1,1,0,0,0,0,0,0],"id":38,"left_children":[1,3,5,-1,7,9,11,-1,-1,-1,-1,-1,-1],"loss_changes":[8.368367E0,4.3748884E0,2.3939486E0,0E0,1.6287704E0,1.2014036E0,1.3976374E0,0E0,0E0,0E0,0E0,0E0,0E0],"parents":[2147483647,0,0,1,1,2,2,4,4,5,5,6,6],"right_children":[2,4,6,-1,8,10,12,-1,-1,-1,-1,-1,-1],"split_conditions":[1.18075E3,1.2659E3,1.15895E3,-2.3706418E-2,1.5168501E3,6.3385E2,1.3878999E3,-0E0,1.0404207E-1,7.12316E-2,-3.583471E-3,-0E0,-5.257244E-2],"split_indices":[33,43,19,0,51,31,63,0,0,0,0,0,0],"split_type":[0,0,0,0,0,0,0,0,0,0,0,0,0],"sum_hessian":[5.8283733E1,1.2073807E1,4.6209927E1,3.4507735E0,8.623033E0,3.4626944E0,4.2747234E1,1.6106795E0,7.0123534E0,1.6172521E0,1.8454423E0,1.6832216E0,4.106401E1],"tree_param":{"num_deleted":"0","num_feature":"86","num_nodes":"13","size_leaf_vector":"0"}},{"base_weights":[-1.0067135E-1,-4.1378936E-1,2.9989436E-1,4.458792E-1,-4.880567E-1,-3.0848643E-1,6.2771755E-1,-0E0,-5.3946453E-1,-3.9189965E-1,-0E0,8.742728E-1,-0E0],"categories":[],"categories_nodes":[],"categories_segments":[],"categories_sizes":[],"default_left":[1,1,1,0,1,1,1,0,0,1,1,0,0],"id":39,"left_children":[1,3,5,-1,7,-1,11,-1,-1,-1,-1,-1,-1],"loss_changes":[8.042209E0,2.6057687E0,5.793644E0,0E0,1.2448606E0,3.638103E-1,3.622027E0,0E0,0E0,0E0,0E0,0E0,0E0],"parents":[2147483647,0,0,1,1,2,2,4,4,5,5,6,6],"right_children":[2,4,6,-1,8,-1,12,-1,-1,-1,-1,-1,-1],"split_conditions":[1.849E2,1.8935E2,3.465E2,4.458792E-2,1.27700005E2,-3.0848643E-2,1.23645E3,-0E0,-5.3946454E-2,-3.9189965E-2,-0E0,8.742728E-2,-0E0],"split_indices":[65,61,46,0,26,24,55,0,0,2147483647,2147483647,0,0],"split_type":[0,0,0,0,0,0,0,0,0,0,0,0,0],"sum_hessian":[6.122254E1,3.5744724E1,2.5477818E1,1.3738126E0,3.437091E1,7.8738775E0,1.760394E1,2.1425312E0,3.222838E1,6.8671765E0,1.0067009E0,1.33291445E1,4.274795E0],"tree_param":{"num_deleted":"2","num_feature":"86","num_nodes":"13","size_leaf_vector":"0"}},{"base_weights":[2.839054E-1,5.486366E-1,-1.0540436E-1,7.128434E-2,8.0616075E-1,-3.19502E-1,2.2857155E-1,4.252274E-1,-3.663666E-1,9.9499685E-1,-0E0,8.1369676E-2,-5.3152025E-1,-1.6489314E-1,5.605877E-1],"categories":[],"categories_nodes":[],"categories_segments":[],"categories_sizes":[],"default_left":[1,1,1,1,1,1,1,0,0,0,0,0,0,0,0],"id":40,"left_children":[1,3,5,7,9,11,13,-1,-1,-1,-1,-1,-1,-1,-1],"loss_changes":[9.813974E0,5.8848457E0,2.7298586E0,3.6068263E0,4.530445E0,2.5424411E0,2.1571932E0,0E0,0E0,0E0,0E0,0E0,0E0,0E0,0E0],"parents":[2147483647,0,0,1,1,2,2,3,3,4,4,5,5,6,6],"right_children":[2,4,6,8,10,12,14,-1,-1,-1,-1,-1,-1,-1,-1],"split_conditions":[2.4355E2,3.267E2,1.50725E3,7.1535E2,3.562E2,2.9665E2,1.5665E2,4.252274E-2,-3.663666E-2,9.949969E-2,-0E0,8.136968E-3,-5.3152025E-2,-1.6489314E-2,5.6058772E-2],"split_indices":[24,61,22,39,50,71,18,0,0,0,0,0,0,0,0],"split_type":[0,0,0,0,0,0,0,0,0,0,0,0,0,0,0],"sum_hessian":[8.936184E1,5.4476875E1,3.4884968E1,2.089864E1,3.3578236E1,2.31086E1,1.1776366E1,1.28332615E1,8.065378E0,2.627491E1,7.3033257E0,6.575559E0,1.6533041E1,4.241417E0,7.534949E0],"tree_param":{"num_deleted":"0","num_feature":"86","num_nodes":"15","size_leaf_vector":"0"}},{"base_weights":[-1.2157795E-1,1.6856812E-1,-4.212638E-1,5.716868E-1,-1.10962026E-1,-4.9871716E-1,-0E0,9.754266E-1,-6.112995E-3,9.973081E-2,-4.1218135E-1,-5.2998984E-1,-0E0,-4.6702582E-2,3.5474375E-1],"categories":[],"categories_nodes":[],"categories_segments":[],"categories_sizes":[],"default_left":[1,1,1,1,1,1,1,0,0,0,0,1,1,1,1],"id":41,"left_children":[1,3,5,7,9,-1,-1,-1,-1,-1,-1,-1,-1,-1,-1],"loss_changes":[5.664809E0,3.9303946E0,1.4296932E0,4.2424326E0,1.4466109E0,6.119995E-1,3.249141E-1,0E0,0E0,0E0,0E0,0E0,0E0,0E0,0E0],"parents":[2147483647,0,0,1,1,2,2,3,3,4,4,5,5,6,6],"right_children":[2,4,6,8,10,-1,-1,-1,-1,-1,-1,-1,-1,-1,-1],"split_conditions":[4.498E2,1.31E2,1.827E2,2.3729999E2,4.638E2,-4.9871717E-2,-0E0,9.7542666E-2,-6.1129953E-4,9.973082E-3,-4.1218136E-2,-5.2998986E-2,-0E0,-4.670258E-3,3.5474375E-2],"split_indices":[72,37,27,57,9,15,49,0,0,0,0,2147483647,2147483647,2147483647,2147483647],"split_type":[0,0,0,0,0,0,0,0,0,0,0,0,0,0,0],"sum_hessian":[6.0425392E1,2.9228247E1,3.1197145E1,1.3005251E1,1.6222996E1,2.7721195E1,3.4759505E0,8.269463E0,4.7357893E0,7.9860735E0,8.236922E0,2.6610529E1,1.1106678E0,1.9450974E0,1.530853E0],"tree_param":{"num_deleted":"4","num_feature":"86","num_nodes":"15","size_leaf_vector":"0"}},{"base_weights":[-0E0,-2.9566833E-1,3.1107542E-1,-4.523837E-1,-0E0,-1.2238103E-1,6.091765E-1,-5.227148E-1,-0E0,-4.056459E-1,5.805865E-1,1.4493054E-1,-4.1421917E-1,8.272437E-1,-0E0],"categories":[],"categories_nodes":[],"categories_segments":[],"categories_sizes":[],"default_left":[1,1,1,1,1,1,1,0,0,0,0,0,0,0,0],"id":42,"left_children":[1,3,5,7,9,11,13,-1,-1,-1,-1,-1,-1,-1,-1],"loss_changes":[6.485317E0,1.8136246E0,4.8508496E0,1.2071333E0,3.4653046E0,1.3429374E0,3.1181526E0,0E0,0E0,0E0,0E0,0E0,0E0,0E0,0E0],"parents":[2147483647,0,0,1,1,2,2,3,3,4,4,5,5,6,6],"right_children":[2,4,6,8,10,12,14,-1,-1,-1,-1,-1,-1,-1,-1],"split_conditions":[3.4015002E2,4.5845E2,7.0994995E2,5.041E2,1.1211499E3,9.7345E2,1.0705E2,-5.227148E-2,-0E0,-4.0564593E-2,5.805865E-2,1.4493055E-2,-4.1421916E-2,8.272437E-2,-0E0],"split_indices":[10,68,39,9,78,13,0,0,0,0,0,0,0,0,0],"split_type":[0,0,0,0,0,0,0,0,0,0,0,0,0,0,0],"sum_hessian":[6.863606E1,3.6439133E1,3.2196926E1,2.3854723E1,1.258441E1,1.1993123E1,2.0203804E1,2.2034296E1,1.8204277E0,7.4089766E0,5.1754327E0,4.733899E0,7.259224E0,1.5054779E1,5.1490245E0],"tree_param":{"num_deleted":"0","num_feature":"86","num_nodes":"15","size_leaf_vector":"0"}},{"base_weights":[-1.7587179E-1,5.3807384E-1,-3.7609765E-1,7.987042E-1,-1.07226536E-1,2.5809607E-1,-4.784151E-1,9.3542725E-1,-0E0,5.799054E-1,-0E0,-0E0,-5.18825E-1],"categories":[],"categories_nodes":[],"categories_segments":[],"categories_sizes":[],"default_left":[1,1,1,1,0,1,1,0,0,0,0,0,0],"id":43,"left_children":[1,3,5,7,-1,9,11,-1,-1,-1,-1,-1,-1],"loss_changes":[8.461857E0,2.8324475E0,3.4384327E0,1.1096573E0,0E0,1.0517982E0,1.2269087E0,0E0,0E0,0E0,0E0,0E0,0E0],"parents":[2147483647,0,0,1,1,2,2,3,3,5,5,6,6],"right_children":[2,4,6,8,-1,10,12,-1,-1,-1,-1,-1,-1],"split_conditions":[2.346E2,4.1275E2,1.017E3,3.744E2,-1.0722654E-2,3.09E2,3.6525E2,9.3542725E-2,-0E0,5.799054E-2,-0E0,-0E0,-5.18825E-2],"split_indices":[53,61,78,10,0,61,3,0,0,0,0,0,0],"split_type":[0,0,0,0,0,0,0,0,0,0,0,0,0],"sum_hessian":[5.7911804E1,1.1220643E1,4.6691162E1,8.927042E0,2.2936015E0,4.91716E0,4.1774002E1,7.505365E0,1.4216768E0,3.2997417E0,1.617418E0,1.8456591E0,3.992834E1],"tree_param":{"num_deleted":"0","num_feature":"86","num_nodes":"13","size_leaf_vector":"0"}},{"base_weights":[-1.1443201E-1,-4.205091E-1,2.0233898E-1,-4.9890637E-1,-0E0,-1.1371454E-1,7.049596E-1,-5.284037E-1,-0E0,-1.17233954E-1,3.5999307E-1,1.24426834E-1,-4.2404497E-1,8.957801E-1,-0E0],"categories":[],"categories_nodes":[],"categories_segments":[],"categories_sizes":[],"default_left":[1,1,1,1,1,1,1,1,1,1,1,0,0,0,0],"id":44,"left_children":[1,3,5,-1,-1,11,13,-1,-1,-1,-1,-1,-1,-1,-1],"loss_changes":[6.08526E0,1.3373141E0,5.178957E0,5.7640123E-1,3.8515234E-1,1.6131897E0,2.4967237E0,0E0,0E0,0E0,0E0,0E0,0E0,0E0,0E0],"parents":[2147483647,0,0,1,1,2,2,3,3,4,4,5,5,6,6],"right_children":[2,4,6,-1,-1,12,14,-1,-1,-1,-1,-1,-1,-1,-1],"split_conditions":[5.4495E2,6.5575E2,4.3975E2,-4.9890637E-2,-0E0,2.6012002E3,1.25595E3,-5.284037E-2,-0E0,-1.1723395E-2,3.599931E-2,1.2442684E-2,-4.24045E-2,8.957801E-2,-0E0],"split_indices":[40,45,25,48,28,15,55,2147483647,2147483647,2147483647,2147483647,0,0,0,0],"split_type":[0,0,0,0,0,0,0,0,0,0,0,0,0,0,0],"sum_hessian":[5.863513E1,3.1259903E1,2.737523E1,2.7290682E1,3.96922E0,1.6060432E1,1.1314796E1,2.6284674E1,1.0060096E0,2.3528247E0,1.6163954E0,7.6028423E0,8.457591E0,9.73847E0,1.5763265E0],"tree_param":{"num_deleted":"4","num_feature":"86","num_nodes":"15","size_leaf_vector":"0"}},{"base_weights":[2.9833767E-1,5.916361E-1,-0E0,-0E0,7.0877194E-1,2.4441099E-1,-3.4762824E-1,2.1123548E-1,-2.8024352E-1,-5.4849055E-2,7.7725446E-1,-2.1201815E-2,6.4346284E-1,-5.135385E-1,1.4516386E-1],"categories":[],"categories_nodes":[],"categories_segments":[],"categories_sizes":[],"default_left":[1,1,1,1,1,1,1,1,1,0,0,0,0,0,0],"id":45,"left_children":[1,3,5,-1,9,11,13,-1,-1,-1,-1,-1,-1,-1,-1],"loss_changes":[7.5824766E0,3.3013868E0,3.7000184E0,5.332005E-1,2.6778316E0,3.2523253E0,1.9485605E0,0E0,0E0,0E0,0E0,0E0,0E0,0E0,0E0],"parents":[2147483647,0,0,1,1,2,2,3,3,4,4,5,5,6,6],"right_children":[2,4,6,-1,10,12,14,-1,-1,-1,-1,-1,-1,-1,-1],"split_conditions":[6.055E2,6.705E2,3.32E2,-0E0,1.0878501E3,1.2831E3,1.33205E3,2.1123549E-2,-2.8024351E-2,-5.4849056E-3,7.772545E-2,-2.1201817E-3,6.434628E-2,-5.135385E-2,1.4516386E-2],"split_indices":[45,85,81,57,43,61,33,2147483647,2147483647,0,0,0,0,0,0],"split_type":[0,0,0,0,0,0,0,0,0,0,0,0,0,0,0],"sum_hessian":[8.3163216E1,4.206292E1,4.11003E1,6.4857063E0,3.5577213E1,2.3684788E1,1.7415512E1,2.928429E0,3.5572772E0,1.7426324E0,3.383458E1,1.32838545E1,1.0400933E1,1.4515632E1,2.899881E0],"tree_param":{"num_deleted":"2","num_feature":"86","num_nodes":"15","size_leaf_vector":"0"}},{"base_weights":[-1.4689913E-1,-3.0260634E-1,2.4943422E-1,-0E0,-4.46891E-1,-1.2252477E-1,6.24377E-1,-1.3499275E-1,6.511344E-1,-0E0,-4.9866146E-1,-3.4602904E-1,1.4180578E-1,8.636138E-1,-0E0],"categories":[],"categories_nodes":[],"categories_segments":[],"categories_sizes":[],"default_left":[1,1,1,1,1,1,1,0,0,0,0,1,1,0,0],"id":46,"left_children":[1,3,5,7,9,-1,13,-1,-1,-1,-1,-1,-1,-1,-1],"loss_changes":[3.846013E0,2.3129716E0,2.7717047E0,1.7003242E0,1.0504928E0,6.900068E-1,2.181024E0,0E0,0E0,0E0,0E0,0E0,0E0,0E0,0E0],"parents":[2147483647,0,0,1,1,2,2,3,3,4,4,5,5,6,6],"right_children":[2,4,6,8,10,-1,14,-1,-1,-1,-1,-1,-1,-1,-1],"split_conditions":[2.0304999E2,2.758E2,7.5115E2,2.6405E2,2.496E2,-1.2252477E-2,1.04255E3,-1.3499275E-2,6.511344E-2,-0E0,-4.9866147E-2,-3.4602907E-2,1.4180578E-2,8.636138E-2,-0E0],"split_indices":[36,6,61,70,49,0,13,0,0,0,0,2147483647,2147483647,0,0],"split_type":[0,0,0,0,0,0,0,0,0,0,0,0,0,0,0],"sum_hessian":[5.9237274E1,4.4510197E1,1.4727078E1,1.3061561E1,3.1448635E1,6.392045E0,8.335033E0,1.054746E1,2.514101E0,2.163258E0,2.9285378E1,5.3458962E0,1.0461489E0,6.8037424E0,1.5312907E0],"tree_param":{"num_deleted":"2","num_feature":"86","num_nodes":"15","size_leaf_vector":"0"}},{"base_weights":[-8.865377E-3,-3.4842294E-1,3.1007916E-1,-5.2191484E-1,-0E0,4.8885018E-1,-2.5537375E-1,-2.4986811E-1,4.9060133E-1,-0E0,7.407024E-1,-3.399383E-1,-0E0],"categories":[],"categories_nodes":[],"categories_segments":[],"categories_sizes":[],"default_left":[1,1,1,0,1,1,1,0,0,0,0,1,1],"id":47,"left_children":[1,3,5,-1,7,9,-1,-1,-1,-1,-1,-1,-1],"loss_changes":[7.0718994E0,2.2540503E0,3.5915847E0,0E0,1.5912962E0,3.4908876E0,2.3583513E-1,0E0,0E0,0E0,0E0,0E0,0E0],"parents":[2147483647,0,0,1,1,2,2,4,4,5,5,6,6],"right_children":[2,4,6,-1,8,10,-1,-1,-1,-1,-1,-1,-1],"split_conditions":[3.867E2,9.794E2,2.7359998E2,-5.2191485E-2,4.6209998E2,5.814E2,-2.5537375E-2,-2.4986811E-2,4.9060132E-2,-0E0,7.407024E-2,-3.3993833E-2,-0E0],"split_indices":[14,79,66,0,68,58,53,0,0,0,0,2147483647,2147483647],"split_type":[0,0,0,0,0,0,0,0,0,0,0,0,0],"sum_hessian":[6.2947506E1,3.1962366E1,3.098514E1,2.196529E1,9.997076E0,2.498877E1,5.99637E0,6.2720075E0,3.7250683E0,8.3058815E0,1.6682888E1,4.9892726E0,1.007097E0],"tree_param":{"num_deleted":"2","num_feature":"86","num_nodes":"13","size_leaf_vector":"0"}},{"base_weights":[-1.9927551E-1,3.0044943E-1,-4.0515208E-1,-2.6321402E-1,8.842076E-1,-5.09134E-1,5.7277706E-2,-0E0,-3.4564954E-1,-0E0,1.0068107E0,-0E0,-5.320789E-1,5.019281E-1,-1.6060328E-1],"categories":[],"categories_nodes":[],"categories_segments":[],"categories_sizes":[],"default_left":[1,1,1,1,1,1,1,1,1,0,0,1,1,0,0],"id":48,"left_children":[1,3,5,-1,9,-1,13,-1,-1,-1,-1,-1,-1,-1,-1],"loss_changes":[5.9867315E0,5.9516935E0,2.4763393E0,2.7103823E-1,7.690911E-1,5.696192E-1,1.0760047E0,0E0,0E0,0E0,0E0,0E0,0E0,0E0,0E0],"parents":[2147483647,0,0,1,1,2,2,3,3,4,4,5,5,6,6],"right_children":[2,4,6,-1,10,-1,14,-1,-1,-1,-1,-1,-1,-1,-1],"split_conditions":[1.16185E3,1.26845E3,4.864E2,-2.6321402E-2,1.703E2,-5.09134E-2,3.3445E2,-0E0,-3.4564953E-2,-0E0,1.0068107E-1,-0E0,-5.3207893E-2,5.019281E-2,-1.6060328E-2],"split_indices":[55,43,72,55,36,56,61,2147483647,2147483647,0,0,2147483647,2147483647,0,0],"split_type":[0,0,0,0,0,0,0,0,0,0,0,0,0,0,0],"sum_hessian":[5.498958E1,1.4493299E1,4.049628E1,6.7814E0,7.711898E0,3.4745014E1,5.7512665E0,1.0004354E0,5.780965E0,1.2338514E0,6.4780464E0,1.0043808E0,3.374063E1,2.9720018E0,2.7792645E0],"tree_param":{"num_deleted":"4","num_feature":"86","num_nodes":"15","size_leaf_vector":"0"}},{"base_weights":[-1.17949486E-1,-2.9718432E-1,5.1600456E-1,-4.9929136E-1,-0E0,7.29361E-1,-0E0,-5.2902365E-1,-0E0,4.459718E-1,-3.5027733E-1,-0E0,9.538934E-1],"categories":[],"categories_nodes":[],"categories_segments":[],"categories_sizes":[],"default_left":[1,1,1,1,1,1,0,1,1,0,0,0,0],"id":49,"left_children":[1,3,5,-1,9,11,-1,-1,-1,-1,-1,-1,-1],"loss_changes":[6.699913E0,3.1290374E0,1.8404365E0,6.204672E-1,3.2657743E0,1.8657494E0,0E0,0E0,0E0,0E0,0E0,0E0,0E0],"parents":[2147483647,0,0,1,1,2,2,3,3,4,4,5,5],"right_children":[2,4,6,-1,10,12,-1,-1,-1,-1,-1,-1,-1],"split_conditions":[4.274E2,1.3441E3,3.2540002E2,-4.992914E-2,1.1206499E3,4.381E2,-0E0,-5.2902367E-2,-0E0,4.459718E-2,-3.5027735E-2,-0E0,9.5389344E-2],"split_indices":[75,83,82,25,78,25,0,2147483647,2147483647,0,0,0,0],"split_type":[0,0,0,0,0,0,0,0,0,0,0,0,0],"sum_hessian":[5.8540474E1,4.728144E1,1.1259035E1,2.8656736E1,1.8624702E1,8.59558E0,2.663455E0,2.763388E1,1.0228558E0,8.649281E0,9.975422E0,1.9351897E0,6.66039E0],"tree_param":{"num_deleted":"2","num_feature":"86","num_nodes":"13","size_leaf_vector":"0"}},{"base_weights":[2.941967E-1,5.1587176E-1,-1.1669175E-1,-0E0,7.028832E-1,5.013129E-1,-2.329057E-1,-2.4688645E-1,4.190421E-1,8.135026E-1,-1.1622182E-1,1.6690907E-1,-3.8529778E-1],"categories":[],"categories_nodes":[],"categories_segments":[],"categories_sizes":[],"default_left":[1,1,1,1,1,0,1,0,0,0,0,0,0],"id":50,"left_children":[1,3,5,7,9,-1,11,-1,-1,-1,-1,-1,-1],"loss_changes":[8.308939E0,4.893502E0,1.9624221E0,2.1040912E0,4.5076714E0,0E0,1.9168673E0,0E0,0E0,0E0,0E0,0E0,0E0],"parents":[2147483647,0,0,1,1,2,2,3,3,4,4,6,6],"right_children":[2,4,6,8,10,-1,12,-1,-1,-1,-1,-1,-1],"split_conditions":[2.4465E2,1.48925E3,3.265E2,5.8335E2,4.205E2,5.013129E-2,3.1440002E2,-2.4688644E-2,4.190421E-2,8.135026E-2,-1.1622182E-2,1.6690908E-2,-3.852978E-2],"split_indices":[24,63,14,54,14,0,81,0,0,0,0,0,0],"split_type":[0,0,0,0,0,0,0,0,0,0,0,0,0],"sum_hessian":[8.51796E1,5.6744232E1,2.8435373E1,1.6734564E1,4.000967E1,2.6143274E0,2.5821045E1,9.341886E0,7.392678E0,3.6330894E1,3.678774E0,5.2886086E0,2.0532436E1],"tree_param":{"num_deleted":"0","num_feature":"86","num_nodes":"13","size_leaf_vector":"0"}},{"base_weights":[-1.8311626E-1,-3.8393843E-1,2.798449E-1,-4.4780415E-1,3.0968904E-1,5.544598E-1,-1.4428425E-1,-0E0,-4.896969E-1,8.725096E-1,-0E0,-2.4088901E-1,-0E0],"categories":[],"categories_nodes":[],"categories_segments":[],"categories_sizes":[],"default_left":[1,1,1,1,0,1,1,0,0,0,0,1,1],"id":51,"left_children":[1,3,5,7,-1,9,-1,-1,-1,-1,-1,-1,-1],"loss_changes":[5.4077787E0,2.0890207E0,2.3515074E0,9.5026684E-1,0E0,2.8355227E0,1.4623357E-1,0E0,0E0,0E0,0E0,0E0,0E0],"parents":[2147483647,0,0,1,1,2,2,3,3,5,5,6,6],"right_children":[2,4,6,8,-1,10,-1,-1,-1,-1,-1,-1,-1],"split_conditions":[2.0304999E2,2.6435E2,4.463E2,9.6E1,3.0968904E-2,9.6125E2,-1.4428425E-2,-0E0,-4.896969E-2,8.725096E-2,-0E0,-2.4088902E-2,-0E0],"split_indices":[36,21,72,8,0,79,41,0,0,0,0,2147483647,2147483647],"split_type":[0,0,0,0,0,0,0,0,0,0,0,0,0],"sum_hessian":[5.4889874E1,3.990896E1,1.4980915E1,3.8188824E1,1.7201343E0,1.0337851E1,4.643064E0,2.4555738E0,3.573325E1,7.303288E0,3.0345628E0,3.544578E0,1.0984861E0],"tree_param":{"num_deleted":"2","num_feature":"86","num_nodes":"13","size_leaf_vector":"0"}},{"base_weights":[-2.48134E-2,3.058834E-1,-3.1609386E-1,-3.255406E-1,4.901434E-1,-5.0419706E-1,1.2625422E-1,7.277643E-1,-1.25698075E-2,-0E0,-5.3348756E-1,-2.752326E-1,6.4433664E-1],"categories":[],"categories_nodes":[],"categories_segments":[],"categories_sizes":[],"default_left":[1,1,1,0,1,1,1,0,0,1,1,0,0],"id":52,"left_children":[1,3,5,-1,7,-1,11,-1,-1,-1,-1,-1,-1],"loss_changes":[6.1014442E0,3.5870466E0,3.3694546E0,0E0,3.5117693E0,5.1403093E-1,2.5666227E0,0E0,0E0,0E0,0E0,0E0,0E0],"parents":[2147483647,0,0,1,1,2,2,4,4,5,5,6,6],"right_children":[2,4,6,-1,8,-1,12,-1,-1,-1,-1,-1,-1],"split_conditions":[2.1325E2,5.677E2,3.5465002E2,-3.255406E-2,2.665E2,-5.0419707E-2,4.5715002E2,7.277643E-2,-1.2569808E-3,-0E0,-5.3348757E-2,-2.7523262E-2,6.4433664E-2],"split_indices":[21,58,81,0,66,40,68,0,0,2147483647,2147483647,0,0],"split_type":[0,0,0,0,0,0,0,0,0,0,0,0,0],"sum_hessian":[6.1232166E1,2.7044607E1,3.418756E1,4.710106E0,2.2334501E1,2.5475327E1,8.712234E0,1.6212677E1,6.1218243E0,1.0212849E0,2.4454042E1,4.0850697E0,4.6271634E0],"tree_param":{"num_deleted":"2","num_feature":"86","num_nodes":"13","size_leaf_vector":"0"}},{"base_weights":[-2.0747699E-1,3.467014E-1,-3.616435E-1,-2.288524E-1,7.653751E-1,-4.6506804E-1,3.5039205E-2,-0E0,8.6690366E-1,-5.064772E-1,-0E0,3.954275E-1,-1.9934548E-1],"categories":[],"categories_nodes":[],"categories_segments":[],"categories_sizes":[],"default_left":[1,1,1,0,1,1,1,1,1,0,0,0,0],"id":53,"left_children":[1,3,5,-1,-1,9,11,-1,-1,-1,-1,-1,-1],"loss_changes":[4.964096E0,3.4556265E0,2.336578E0,0E0,4.7670794E-1,1.1889534E0,9.894043E-1,0E0,0E0,0E0,0E0,0E0,0E0],"parents":[2147483647,0,0,1,1,2,2,4,4,5,5,6,6],"right_children":[2,4,6,-1,-1,10,12,-1,-1,-1,-1,-1,-1],"split_conditions":[1.14575E3,1.26845E3,4.8635E2,-2.288524E-2,7.653751E-2,2.041E2,3.93125E3,-0E0,8.6690366E-2,-5.0647717E-2,-0E0,3.954275E-2,-1.9934548E-2],"split_indices":[55,43,72,0,15,26,30,2147483647,2147483647,0,0,0,0],"split_type":[0,0,0,0,0,0,0,0,0,0,0,0,0],"sum_hessian":[5.546081E1,1.0387121E1,4.507369E1,3.559181E0,6.8279405E0,3.7615067E1,7.458623E0,1.0918663E0,5.7360744E0,3.619387E1,1.4211967E0,4.349801E0,3.1088219E0],"tree_param":{"num_deleted":"2","num_feature":"86","num_nodes":"13","size_leaf_vector":"0"}},{"base_weights":[-1.589101E-1,-4.0304485E-1,9.554308E-2,1.2779371E-1,-4.8723403E-1,-0E0,8.4967697E-1,-0E0,5.822424E-1,-5.19129E-1,-0E0,-3.9160293E-1,3.4663802E-1],"categories":[],"categories_nodes":[],"categories_segments":[],"categories_sizes":[],"default_left":[1,1,1,1,1,1,0,1,1,1,1,0,0],"id":54,"left_children":[1,3,5,-1,-1,11,-1,-1,-1,-1,-1,-1,-1],"loss_changes":[3.9060783E0,1.8269954E0,2.7696743E0,6.6631097E-1,6.5992546E-1,3.3954003E0,0E0,0E0,0E0,0E0,0E0,0E0,0E0],"parents":[2147483647,0,0,1,1,2,2,3,3,4,4,5,5],"right_children":[2,4,6,-1,-1,12,-1,-1,-1,-1,-1,-1,-1],"split_conditions":[1.8375E2,1.27700005E2,1.1047E3,1.2779372E-2,-4.8723403E-2,4.1645E2,8.4967695E-2,-0E0,5.8224242E-2,-5.19129E-2,-0E0,-3.9160293E-2,3.4663804E-2],"split_indices":[65,26,38,1,50,75,0,2147483647,2147483647,2147483647,2147483647,0,0],"split_type":[0,0,0,0,0,0,0,0,0,0,0,0,0],"sum_hessian":[5.630874E1,3.044467E1,2.5864069E1,2.4706318E0,2.7974037E1,2.268802E1,3.1760488E0,1.3379555E0,1.1326764E0,2.6971869E1,1.0021691E0,1.1921828E1,1.07661915E1],"tree_param":{"num_deleted":"4","num_feature":"86","num_nodes":"13","size_leaf_vector":"0"}},{"base_weights":[2.8958434E-1,-1.1913658E-1,5.2562505E-1,1.3078648E-1,-3.248471E-1,-1.22679E-1,6.854432E-1,5.8344847E-1,-1.4799818E-1,-4.448153E-1,-0E0,-4.095891E-1,2.330466E-1,-0E0,7.2962326E-1],"categories":[],"categories_nodes":[],"categories_segments":[],"categories_sizes":[],"default_left":[1,1,1,1,1,1,1,0,0,0,0,0,0,0,0],"id":55,"left_children":[1,3,5,7,9,11,13,-1,-1,-1,-1,-1,-1,-1,-1],"loss_changes":[8.300299E0,1.7265134E0,6.1581593E0,1.9859968E0,1.0369655E0,1.3059115E0,2.0186691E0,0E0,0E0,0E0,0E0,0E0,0E0,0E0,0E0],"parents":[2147483647,0,0,1,1,2,2,3,3,4,4,5,5,6,6],"right_children":[2,4,6,8,10,12,14,-1,-1,-1,-1,-1,-1,-1,-1],"split_conditions":[3.808E2,2.342E2,1.8476001E3,2.0525E2,2.4365E2,5.7405E2,1.248E2,5.834485E-2,-1.4799818E-2,-4.448153E-2,-0E0,-4.095891E-2,2.3304662E-2,-0E0,7.296233E-2],"split_indices":[1,24,32,74,21,54,26,0,0,0,0,0,0,0,0],"split_type":[0,0,0,0,0,0,0,0,0,0,0,0,0,0,0],"sum_hessian":[8.017343E1,2.7981035E1,5.2192394E1,1.0602637E1,1.7378399E1,9.1303425E0,4.3062054E1,4.991736E0,5.610901E0,1.4042694E1,3.3357046E0,6.526299E0,2.604043E0,1.3825302E0,4.1679523E1],"tree_param":{"num_deleted":"0","num_feature":"86","num_nodes":"15","size_leaf_vector":"0"}},{"base_weights":[-1.0727087E-1,-4.3245348E-1,1.9048843E-1,1.6853733E-2,-4.8837075E-1,4.0499717E-1,-3.639381E-1,-5.1801586E-1,-0E0,-0E0,8.1805986E-1],"categories":[],"categories_nodes":[],"categories_segments":[],"categories_sizes":[],"default_left":[1,1,1,0,1,1,0,1,1,0,0],"id":56,"left_children":[1,3,5,-1,-1,9,-1,-1,-1,-1,-1],"loss_changes":[5.828354E0,1.2104049E0,3.6091304E0,0E0,5.040326E-1,3.5502617E0,0E0,0E0,0E0,0E0,0E0],"parents":[2147483647,0,0,1,1,2,2,4,4,5,5],"right_children":[2,4,6,-1,-1,10,-1,-1,-1,-1,-1],"split_conditions":[3.0915E2,1.11435E3,4.6415E2,1.6853734E-3,-4.8837077E-2,8.0525E2,-3.639381E-2,-5.180159E-2,-0E0,-0E0,8.180599E-2],"split_indices":[82,60,72,0,27,80,0,2147483647,2147483647,0,0],"split_type":[0,0,0,0,0,0,0,0,0,0,0],"sum_hessian":[5.584427E1,2.8082003E1,2.7762266E1,1.2060628E0,2.687594E1,2.15123E1,6.2499666E0,2.5654987E1,1.2209529E0,1.1689597E1,9.822702E0],"tree_param":{"num_deleted":"2","num_feature":"86","num_nodes":"11","size_leaf_vector":"0"}},{"base_weights":[-1.1093757E-2,2.0251411E-1,-3.5354874E-1,5.831712E-1,-3.7592106E-2,-4.3871704E-1,-0E0,-1.3186605E-2,8.148196E-1,3.9787185E-1,-3.3267677E-1,-5.0714105E-1,-0E0,4.1796574E-1,-7.4737415E-2],"categories":[],"categories_nodes":[],"categories_segments":[],"categories_sizes":[],"default_left":[1,1,1,1,1,1,1,0,0,0,0,1,1,1,1],"id":57,"left_children":[1,3,5,7,9,-1,-1,-1,-1,-1,-1,-1,-1,-1,-1],"loss_changes":[4.8305445E0,4.0069327E0,1.1204686E0,3.0540566E0,2.9460974E0,5.6481457E-1,4.2491627E-1,0E0,0E0,0E0,0E0,0E0,0E0,0E0,0E0],"parents":[2147483647,0,0,1,1,2,2,3,3,4,4,5,5,6,6],"right_children":[2,4,6,8,10,-1,-1,-1,-1,-1,-1,-1,-1,-1,-1],"split_conditions":[1.6715E2,7.5515E2,6.1405005E2,4.4355E2,5.5435E2,-4.3871704E-2,-0E0,-1.3186604E-3,8.1481956E-2,3.9787184E-2,-3.3267677E-2,-5.0714105E-2,-0E0,4.1796576E-2,-7.4737417E-3],"split_indices":[27,5,58,68,54,19,0,0,0,0,0,2147483647,2147483647,2147483647,2147483647],"split_type":[0,0,0,0,0,0,0,0,0,0,0,0,0,0,0],"sum_hessian":[6.1991703E1,3.6631306E1,2.5360397E1,1.5226962E1,2.1404345E1,2.1940569E1,3.4198287E0,3.3161137E0,1.1910849E1,7.1361527E0,1.4268191E1,1.836392E1,3.576649E0,1.3336502E0,2.0861785E0],"tree_param":{"num_deleted":"4","num_feature":"86","num_nodes":"15","size_leaf_vector":"0"}},{"base_weights":[-1.3172106E-1,3.1058326E-1,-4.163553E-1,6.3120764E-1,-3.292108E-1,3.005725E-2,-5.1643944E-1,7.475605E-1,-0E0,-1.5199882E-1,6.021683E-1],"categories":[],"categories_nodes":[],"categories_segments":[],"categories_sizes":[],"default_left":[1,1,1,1,0,1,0,0,0,0,0],"id":58,"left_children":[1,3,5,7,-1,9,-1,-1,-1,-1,-1],"loss_changes":[7.0831094E0,4.7141104E0,2.061162E0,1.6843295E0,0E0,1.1152383E0,0E0,0E0,0E0,0E0,0E0],"parents":[2147483647,0,0,1,1,2,2,3,3,5,5],"right_children":[2,4,6,8,-1,10,-1,-1,-1,-1,-1],"split_conditions":[1.77705E3,4.051E2,2.4079999E2,2.73975E3,-3.292108E-2,1.3718999E3,-5.1643945E-2,7.475605E-2,-0E0,-1.5199882E-2,6.0216833E-2],"split_indices":[52,61,53,56,0,83,0,0,0,0,0],"split_type":[0,0,0,0,0,0,0,0,0,0,0],"sum_hessian":[5.3394745E1,1.9495491E1,3.3899254E1,1.4037304E1,5.458187E0,4.506532E0,2.9392723E1,1.2734604E1,1.3027E0,2.6497433E0,1.8567889E0],"tree_param":{"num_deleted":"0","num_feature":"86","num_nodes":"11","size_leaf_vector":"0"}},{"base_weights":[-1.1411766E-1,-4.5384616E-1,2.1311253E-1,-5.161471E-1,-0E0,-2.5381246E-1,5.0065124E-1,-4.152142E-1,6.454367E-2,6.884818E-1,-3.956421E-2],"categories":[],"categories_nodes":[],"categories_segments":[],"categories_sizes":[],"default_left":[1,1,1,0,0,1,1,0,0,0,0],"id":59,"left_children":[1,3,5,-1,-1,7,9,-1,-1,-1,-1],"loss_changes":[6.6230836E0,1.3112135E0,4.1306643E0,0E0,0E0,8.9142144E-1,2.601944E0,0E0,0E0,0E0,0E0],"parents":[2147483647,0,0,1,1,2,2,5,5,6,6],"right_children":[2,4,6,-1,-1,8,10,-1,-1,-1,-1],"split_conditions":[1.8375E2,5.11E2,5.4475E2,-5.161471E-2,-0E0,1.09655E3,1.2522E3,-4.1521423E-2,6.454367E-3,6.8848185E-2,-3.9564213E-3],"split_indices":[65,72,40,0,0,38,55,0,0,0,0],"split_type":[0,0,0,0,0,0,0,0,0,0,0],"sum_hessian":[5.5540993E1,2.85596E1,2.6981394E1,2.677618E1,1.7834196E0,9.002317E0,1.7979076E1,7.856222E0,1.1460948E0,1.4510495E1,3.4685812E0],"tree_param":{"num_deleted":"0","num_feature":"86","num_nodes":"11","size_leaf_vector":"0"}},{"base_weights":[2.3276839E-1,4.202412E-1,-2.0920004E-1,5.6526896E-2,6.086772E-1,1.9142175E-1,-3.888235E-1,-1.8520385E-1,3.3664042E-1,7.8224695E-1,-0E0,-8.083374E-2,6.0089463E-1,-4.8177806E-1,6.286924E-2],"categories":[],"categories_nodes":[],"categories_segments":[],"categories_sizes":[],"default_left":[1,1,1,1,1,1,1,0,0,0,0,0,0,0,0],"id":60,"left_children":[1,3,5,7,9,11,13,-1,-1,-1,-1,-1,-1,-1,-1],"loss_changes":[7.06392E0,3.3611822E0,1.9554639E0,1.7802366E0,3.3342266E0,1.258636E0,1.2136548E0,0E0,0E0,0E0,0E0,0E0,0E0,0E0,0E0],"parents":[2147483647,0,0,1,1,2,2,3,3,4,4,5,5,6,6],"right_children":[2,4,6,8,10,12,14,-1,-1,-1,-1,-1,-1,-1,-1],"split_conditions":[2.479E2,3.1955E2,2.9595E2,1.629E2,3.5705E2,2.835E2,6.0905005E2,-1.8520385E-2,3.3664044E-2,7.8224696E-2,-0E0,-8.083374E-3,6.0089465E-2,-4.8177805E-2,6.2869242E-3],"split_indices":[24,61,50,18,50,50,54,0,0,0,0,0,0,0,0],"split_type":[0,0,0,0,0,0,0,0,0,0,0,0,0,0,0],"sum_hessian":[8.0646194E1,5.8249756E1,2.2396437E1,2.2134033E1,3.611572E1,5.189405E0,1.7207033E1,1.0146613E1,1.198742E1,2.6921013E1,9.194707E0,2.1321685E0,3.0572362E0,1.6051134E1,1.155899E0],"tree_param":{"num_deleted":"0","num_feature":"86","num_nodes":"15","size_leaf_vector":"0"}},{"base_weights":[-4.1508023E-2,-3.5318604E-1,2.2752218E-1,-4.4188768E-1,2.812392E-1,-2.075628E-2,5.652912E-1,-5.0231785E-1,-0E0,2.0342772E-1,-2.3038715E-1,9.180094E-1,-0E0],"categories":[],"categories_nodes":[],"categories_segments":[],"categories_sizes":[],"default_left":[1,1,1,1,0,1,1,0,0,0,0,0,0],"id":61,"left_children":[1,3,5,7,-1,9,11,-1,-1,-1,-1,-1,-1],"loss_changes":[5.0466413E0,1.9089227E0,3.0612297E0,8.4450245E-1,0E0,8.4804237E-1,2.6019592E0,0E0,0E0,0E0,0E0,0E0,0E0],"parents":[2147483647,0,0,1,1,2,2,3,3,5,5,6,6],"right_children":[2,4,6,8,-1,10,12,-1,-1,-1,-1,-1,-1],"split_conditions":[6.0995E2,2.0579999E2,9.9225E2,1.827E2,2.812392E-2,2.1420001E2,1.2088E3,-5.0231785E-2,-0E0,2.0342773E-2,-2.3038715E-2,9.180094E-2,-0E0],"split_indices":[16,18,38,27,0,74,43,0,0,0,0,0,0],"split_type":[0,0,0,0,0,0,0,0,0,0,0,0,0],"sum_hessian":[5.6728966E1,2.785848E1,2.8870483E1,2.609039E1,1.7680925E0,1.5474118E1,1.3396366E1,2.3311275E1,2.779113E0,5.186673E0,1.0287445E1,7.546368E0,5.8499975E0],"tree_param":{"num_deleted":"0","num_feature":"86","num_nodes":"13","size_leaf_vector":"0"}},{"base_weights":[-0E0,-2.884724E-1,2.4208118E-1,-4.207094E-1,1.2016686E-1,6.153142E-1,-6.1251625E-2,1.16368614E-1,-4.8862737E-1,-1.7787194E-1,6.069048E-1,-0E0,8.2760024E-1,-4.2537504E-1,2.0906119E-1],"categories":[],"categories_nodes":[],"categories_segments":[],"categories_sizes":[],"default_left":[1,1,1,1,1,1,1,0,0,0,0,0,0,0,0],"id":62,"left_children":[1,3,5,7,9,11,13,-1,-1,-1,-1,-1,-1,-1,-1],"loss_changes":[4.670507E0,2.0675895E0,4.507921E0,1.3800778E0,1.5082195E0,2.2969341E0,2.1275027E0,0E0,0E0,0E0,0E0,0E0,0E0,0E0,0E0],"parents":[2147483647,0,0,1,1,2,2,3,3,4,4,5,5,6,6],"right_children":[2,4,6,8,10,12,14,-1,-1,-1,-1,-1,-1,-1,-1],"split_conditions":[5.844E2,3.7590002E2,3.8702002E3,1.0598999E3,2.338E2,7.5180005E2,3.4595E2,1.1636862E-2,-4.8862737E-2,-1.7787194E-2,6.069048E-2,-0E0,8.276003E-2,-4.2537507E-2,2.0906119E-2],"split_indices":[58,10,30,62,24,69,71,0,0,0,0,0,0,0,0],"split_type":[0,0,0,0,0,0,0,0,0,0,0,0,0,0,0],"sum_hessian":[6.43559E1,3.0764982E1,3.359092E1,2.5069893E1,5.69509E0,1.6077145E1,1.7513775E1,1.0814049E0,2.3988487E1,2.6515596E0,3.0435302E0,4.2836647E0,1.179348E1,8.793848E0,8.719927E0],"tree_param":{"num_deleted":"0","num_feature":"86","num_nodes":"15","size_leaf_vector":"0"}},{"base_weights":[-1.7197962E-1,4.004538E-1,-3.6437774E-1,6.172956E-1,-1.0404574E-1,1.10112E-1,-4.5166808E-1,7.561749E-1,-0E0,4.3363535E-1,-1.697871E-2,-0E0,-5.2091074E-1],"categories":[],"categories_nodes":[],"categories_segments":[],"categories_sizes":[],"default_left":[1,1,1,1,0,1,1,0,0,1,1,0,0],"id":63,"left_children":[1,3,5,7,-1,-1,11,-1,-1,-1,-1,-1,-1],"loss_changes":[6.074133E0,1.9768555E0,2.1458774E0,9.926295E-1,0E0,6.545323E-1,1.6770978E0,0E0,0E0,0E0,0E0,0E0,0E0],"parents":[2147483647,0,0,1,1,2,2,3,3,5,5,6,6],"right_children":[2,4,6,8,-1,-1,12,-1,-1,-1,-1,-1,-1],"split_conditions":[1.04495E3,4.1275E2,2.317E2,1.21545E3,-1.0404575E-2,1.10112E-2,1.38895E3,7.561749E-2,-0E0,4.3363538E-2,-1.6978711E-3,-0E0,-5.2091073E-2],"split_indices":[78,61,53,33,0,29,63,0,0,2147483647,2147483647,0,0],"split_type":[0,0,0,0,0,0,0,0,0,0,0,0,0],"sum_hessian":[5.3154316E1,1.1791793E1,4.1362526E1,9.477009E0,2.3147843E0,4.6062994E0,3.6756226E1,7.7179604E0,1.7590486E0,2.8380675E0,1.7682316E0,3.1898305E0,3.3566395E1],"tree_param":{"num_deleted":"2","num_feature":"86","num_nodes":"13","size_leaf_vector":"0"}},{"base_weights":[-9.013801E-2,-4.378308E-1,1.4418758E-1,-5.041438E-1,-0E0,-1.8451503E-1,4.2032817E-1,-3.689767E-1,4.1245744E-1,-0E0,6.7656523E-1],"categories":[],"categories_nodes":[],"categories_segments":[],"categories_sizes":[],"default_left":[1,1,1,0,0,1,1,0,0,0,0],"id":64,"left_children":[1,3,5,-1,-1,7,9,-1,-1,-1,-1],"loss_changes":[4.989256E0,1.1669621E0,3.30882E0,0E0,0E0,1.6622859E0,2.8039484E0,0E0,0E0,0E0,0E0],"parents":[2147483647,0,0,1,1,2,2,5,5,6,6],"right_children":[2,4,6,-1,-1,8,10,-1,-1,-1,-1],"split_conditions":[3.4695E2,1.8745E2,1.8485E2,-5.041438E-2,-0E0,1.048E3,5.4625E2,-3.689767E-2,4.1245744E-2,-0E0,6.7656524E-2],"split_indices":[46,26,65,0,0,79,40,0,0,0,0],"split_type":[0,0,0,0,0,0,0,0,0,0,0],"sum_hessian":[5.5858894E1,2.3857775E1,3.200112E1,2.2339912E1,1.5178623E0,1.3108247E1,1.8892874E1,1.158544E1,1.522807E0,6.08912E0,1.2803754E1],"tree_param":{"num_deleted":"0","num_feature":"86","num_nodes":"11","size_leaf_vector":"0"}},{"base_weights":[2.1660343E-1,4.5227093E-1,-3.0626502E-2,-1.0249608E-1,5.3001046E-1,-3.1408927E-1,2.257503E-1,-0E0,-2.1486981E-1,1.09225124E-1,6.93359E-1,-4.062822E-1,3.809029E-2,-8.023789E-2,5.3156835E-1],"categories":[],"categories_nodes":[],"categories_segments":[],"categories_sizes":[],"default_left":[1,1,1,1,1,1,1,1,1,0,0,0,0,0,0],"id":65,"left_children":[1,3,5,-1,9,11,13,-1,-1,-1,-1,-1,-1,-1,-1],"loss_changes":[5.380471E0,2.4478512E0,3.0869284E0,1.271316E-1,1.9897356E0,1.0785806E0,2.3545535E0,0E0,0E0,0E0,0E0,0E0,0E0,0E0,0E0],"parents":[2147483647,0,0,1,1,2,2,3,3,4,4,5,5,6,6],"right_children":[2,4,6,-1,10,12,14,-1,-1,-1,-1,-1,-1,-1,-1],"split_conditions":[6.058E2,9.975E1,2.6025E3,-1.0249608E-2,2.55755E3,1.94695E3,3.6565002E2,-0E0,-2.148698E-2,1.0922513E-2,6.93359E-2,-4.062822E-2,3.809029E-3,-8.023789E-3,5.3156834E-2],"split_indices":[45,8,15,5,15,35,61,2147483647,2147483647,0,0,0,0,0,0],"split_type":[0,0,0,0,0,0,0,0,0,0,0,0,0,0,0],"sum_hessian":[8.387179E1,4.4586227E1,3.9285557E1,3.8598118E0,4.0726414E1,2.0402716E1,1.8882843E1,1.0003831E0,2.8594286E0,1.3567394E1,2.7159021E1,1.8298426E1,2.1042898E0,8.173002E0,1.070984E1],"tree_param":{"num_deleted":"2","num_feature":"86","num_nodes":"15","size_leaf_vector":"0"}},{"base_weights":[-6.287973E-2,-4.188874E-1,2.7617437E-1,1.19134486E-1,-4.7854254E-1,4.7877088E-1,-3.535245E-1,-0E0,-5.08376E-1,7.925814E-1,-0E0],"categories":[],"categories_nodes":[],"categories_segments":[],"categories_sizes":[],"default_left":[1,1,1,0,1,1,0,1,1,0,0],"id":66,"left_children":[1,3,5,-1,-1,9,-1,-1,-1,-1,-1],"loss_changes":[7.0515246E0,1.3564677E0,3.865254E0,0E0,5.51888E-1,3.774651E0,0E0,0E0,0E0,0E0,0E0],"parents":[2147483647,0,0,1,1,2,2,4,4,5,5],"right_children":[2,4,6,-1,-1,10,-1,-1,-1,-1,-1],"split_conditions":[6.0995E2,5.0665E2,2.7885E2,1.1913449E-2,-4.7854256E-2,1.31E2,-3.535245E-2,-0E0,-5.0837602E-2,7.925814E-2,-0E0],"split_indices":[16,45,24,0,37,37,0,2147483647,2147483647,0,0],"split_type":[0,0,0,0,0,0,0,0,0,0,0],"sum_hessian":[5.5278336E1,2.8288872E1,2.6989464E1,1.0508968E0,2.7237974E1,2.1802553E1,5.1869125E0,1.0815728E0,2.61564E1,1.3329352E1,8.4732E0],"tree_param":{"num_deleted":"2","num_feature":"86","num_nodes":"11","size_leaf_vector":"0"}},{"base_weights":[5.294323E-2,3.4850106E-1,-2.2206418E-1,-0E0,6.3981146E-1,2.2124028E-1,-4.0368378E-1,-3.0997393E-1,2.6208E-1,-0E0,7.8241444E-1,6.583501E-1,-6.185799E-2,5.9844457E-2,-5.0575835E-1],"categories":[],"categories_nodes":[],"categories_segments":[],"categories_sizes":[],"default_left":[1,1,1,1,1,1,1,0,0,0,0,0,0,0,0],"id":67,"left_children":[1,3,5,7,9,11,13,-1,-1,-1,-1,-1,-1,-1,-1],"loss_changes":[5.3385367E0,3.896286E0,2.8145201E0,1.2953107E0,2.3727689E0,1.6549438E0,1.6286545E0,0E0,0E0,0E0,0E0,0E0,0E0,0E0,0E0],"parents":[2147483647,0,0,1,1,2,2,3,3,4,4,5,5,6,6],"right_children":[2,4,6,8,10,12,14,-1,-1,-1,-1,-1,-1,-1,-1],"split_conditions":[1.0635E2,5.8355E2,1.496E2,9.794E2,6.9219995E2,7.725E2,2.395E2,-3.0997394E-2,2.6208002E-2,-0E0,7.8241445E-2,6.5835014E-2,-6.1857994E-3,5.9844456E-3,-5.0575834E-2],"split_indices":[0,58,27,79,77,5,66,0,0,0,0,0,0,0,0],"split_type":[0,0,0,0,0,0,0,0,0,0,0,0,0,0,0],"sum_hessian":[6.2172646E1,3.1590506E1,3.0582138E1,1.3403174E1,1.818733E1,7.2243896E0,2.3357748E1,7.6623163E0,5.7408586E0,2.4808118E0,1.5706519E1,3.7072067E0,3.5171828E0,2.5220213E0,2.0835728E1],"tree_param":{"num_deleted":"0","num_feature":"86","num_nodes":"15","size_leaf_vector":"0"}},{"base_weights":[-1.3816786E-1,3.3121598E-1,-3.6635387E-1,-1.9565184E-1,7.382526E-1,-4.8017794E-1,-0E0,-0E0,-2.8243497E-1,-0E0,8.172464E-1,-5.076943E-1,-0E0,3.8439873E-1,-1.8833292E-1],"categories":[],"categories_nodes":[],"categories_segments":[],"categories_sizes":[],"default_left":[1,1,1,1,1,1,1,1,1,1,1,1,1,0,0],"id":68,"left_children":[1,3,5,-1,-1,-1,13,-1,-1,-1,-1,-1,-1,-1,-1],"loss_changes":[5.5095277E0,3.9983077E0,1.9310689E0,1.8673134E-1,5.0834227E-1,5.316644E-1,7.97027E-1,0E0,0E0,0E0,0E0,0E0,0E0,0E0,0E0],"parents":[2147483647,0,0,1,1,2,2,3,3,4,4,5,5,6,6],"right_children":[2,4,6,-1,-1,-1,14,-1,-1,-1,-1,-1,-1,-1,-1],"split_conditions":[1.1652E3,1.26845E3,4.864E2,-1.9565186E-2,7.382526E-2,-4.8017796E-2,3.93125E3,-0E0,-2.8243497E-2,-0E0,8.1724636E-2,-5.076943E-2,-0E0,3.8439874E-2,-1.8833293E-2],"split_indices":[55,43,72,62,15,81,30,2147483647,2147483647,2147483647,2147483647,2147483647,2147483647,0,0],"split_type":[0,0,0,0,0,0,0,0,0,0,0,0,0,0,0],"sum_hessian":[4.897859E1,1.4440415E1,3.4538174E1,5.44934E0,8.9910755E0,2.8061914E1,6.476259E0,1.0135566E0,4.435783E0,1.0769846E0,7.914091E0,2.705973E1,1.0021837E0,3.420397E0,3.055862E0],"tree_param":{"num_deleted":"6","num_feature":"86","num_nodes":"15","size_leaf_vector":"0"}},{"base_weights":[-1.0375777E-1,-3.2840475E-1,2.979489E-1,-0E0,-4.2303604E-1,-1.6048834E-1,5.564078E-1,3.1018567E-1,-1.2095163E-1,-4.8045886E-1,-0E0,-2.5912455E-1,-0E0,7.6303244E-1,-5.7520665E-2],"categories":[],"categories_nodes":[],"categories_segments":[],"categories_sizes":[],"default_left":[1,1,1,1,1,1,1,1,1,0,0,1,1,0,0],"id":69,"left_children":[1,3,5,-1,9,-1,13,-1,-1,-1,-1,-1,-1,-1,-1],"loss_changes":[4.886083E0,1.3015847E0,2.5986814E0,4.2049724E-1,1.0651283E0,1.691535E-1,2.4016762E0,0E0,0E0,0E0,0E0,0E0,0E0,0E0,0E0],"parents":[2147483647,0,0,1,1,2,2,3,3,4,4,5,5,6,6],"right_children":[2,4,6,-1,10,-1,14,-1,-1,-1,-1,-1,-1,-1,-1],"split_conditions":[4.402E2,4.521E2,5.4515E2,-0E0,5.077E2,-1.6048834E-2,1.25375E3,3.1018568E-2,-1.2095164E-2,-4.8045885E-2,-0E0,-2.5912454E-2,-0E0,7.630324E-2,-5.7520666E-3],"split_indices":[25,42,40,73,72,59,55,2147483647,2147483647,0,0,2147483647,2147483647,0,0],"split_type":[0,0,0,0,0,0,0,0,0,0,0,0,0,0,0],"sum_hessian":[5.172234E1,3.488526E1,1.6837078E1,6.9859934E0,2.789927E1,4.811943E0,1.2025136E1,2.5427525E0,4.4432406E0,2.6018312E1,1.8809559E0,3.7486238E0,1.0633194E0,1.0034048E1,1.9910874E0],"tree_param":{"num_deleted":"4","num_feature":"86","num_nodes":"15","size_leaf_vector":"0"}},{"base_weights":[2.6406276E-1,-1.3313363E-1,4.1062734E-1,-4.241559E-1,2.3007013E-1,2.5792609E-3,5.3735334E-1,-4.6819267E-1,-0E0,5.792911E-1,-1.3949703E-1,2.738786E-1,-2.844694E-1,-0E0,5.901406E-1],"categories":[],"categories_nodes":[],"categories_segments":[],"categories_sizes":[],"default_left":[1,1,1,1,1,1,1,1,1,0,0,0,0,0,0],"id":70,"left_children":[1,3,5,-1,9,11,13,-1,-1,-1,-1,-1,-1,-1,-1],"loss_changes":[4.8661427E0,2.396031E0,2.5082846E0,2.832036E-1,1.5499771E0,1.3795385E0,1.7304163E0,0E0,0E0,0E0,0E0,0E0,0E0,0E0,0E0],"parents":[2147483647,0,0,1,1,2,2,3,3,4,4,5,5,6,6],"right_children":[2,4,6,-1,10,12,14,-1,-1,-1,-1,-1,-1,-1,-1],"split_conditions":[1.8671001E3,5.736E2,9.891E2,-4.241559E-2,1.52005E3,1.19399994E2,1.286E2,-4.6819266E-2,-0E0,5.792911E-2,-1.39497025E-2,2.7387861E-2,-2.844694E-2,-0E0,5.901406E-2],"split_indices":[32,54,13,8,51,84,26,2147483647,2147483647,0,0,0,0,0,0],"split_type":[0,0,0,0,0,0,0,0,0,0,0,0,0,0,0],"sum_hessian":[7.6883484E1,1.8908724E1,5.7974762E1,1.1932829E1,6.9758945E0,1.5850085E1,4.2124676E1,1.090636E1,1.0264696E0,4.6861343E0,2.2897604E0,9.963169E0,5.8869157E0,2.4011755E0,3.9723503E1],"tree_param":{"num_deleted":"2","num_feature":"86","num_nodes":"15","size_leaf_vector":"0"}},{"base_weights":[-8.11616E-2,2.2812593E-1,-3.0376643E-1,6.543124E-1,-3.701884E-2,1.7144501E-2,-4.3607804E-1,-0E0,8.633155E-1,1.5901336E-1,-3.585441E-1,3.7018088E-1,-1.8751934E-1,-4.976365E-1,-0E0],"categories":[],"categories_nodes":[],"categories_segments":[],"categories_sizes":[],"default_left":[1,1,1,1,1,1,1,0,0,0,0,0,0,1,1],"id":71,"left_children":[1,3,5,7,9,11,-1,-1,-1,-1,-1,-1,-1,-1,-1],"loss_changes":[3.7942395E0,3.0003233E0,1.8331308E0,1.4899988E0,1.0361112E0,8.610075E-1,5.4385376E-1,0E0,0E0,0E0,0E0,0E0,0E0,0E0,0E0],"parents":[2147483647,0,0,1,1,2,2,3,3,4,4,5,5,6,6],"right_children":[2,4,6,8,10,12,-1,-1,-1,-1,-1,-1,-1,-1,-1],"split_conditions":[1.284E2,4.3885E2,6.7235E2,6.1175E2,9.497E2,4.387E2,-4.3607805E-2,-0E0,8.6331554E-2,1.5901336E-2,-3.585441E-2,3.7018087E-2,-1.8751934E-2,-4.976365E-2,-0E0],"split_indices":[37,68,39,16,79,72,84,0,0,0,0,0,0,2147483647,2147483647],"split_type":[0,0,0,0,0,0,0,0,0,0,0,0,0,0,0],"sum_hessian":[5.2004513E1,1.9874197E1,3.2130314E1,8.505868E0,1.136833E1,7.4276547E0,2.470266E1,2.04633E0,6.459538E0,5.4442596E0,5.9240704E0,4.2220807E0,3.205574E0,2.0933168E1,3.7694917E0],"tree_param":{"num_deleted":"2","num_feature":"86","num_nodes":"15","size_leaf_vector":"0"}},{"base_weights":[-1.8507969E-2,-3.0845836E-1,2.3101605E-1,-4.419802E-1,6.2418696E-2,4.7144735E-1,-1.3841923E-1,-5.138737E-1,-0E0,3.873544E-1,-1.9200614E-2,-0E0,8.826652E-1,1.3301055E-1,-3.1889772E-1],"categories":[],"categories_nodes":[],"categories_segments":[],"categories_sizes":[],"default_left":[1,1,1,1,1,1,1,0,0,1,1,0,0,0,0],"id":72,"left_children":[1,3,5,7,-1,11,13,-1,-1,-1,-1,-1,-1,-1,-1],"loss_changes":[4.5375113E0,1.9095719E0,3.1803865E0,1.2231855E0,5.5925024E-1,4.082716E0,7.907468E-1,0E0,0E0,0E0,0E0,0E0,0E0,0E0,0E0],"parents":[2147483647,0,0,1,1,2,2,3,3,4,4,5,5,6,6],"right_children":[2,4,6,8,-1,12,14,-1,-1,-1,-1,-1,-1,-1,-1],"split_conditions":[4.527E2,3.8495E2,1.6525E2,2.613E2,6.2418696E-3,3.243E2,1.1472E3,-5.138737E-2,-0E0,3.8735442E-2,-1.9200614E-3,-0E0,8.826652E-2,1.3301055E-2,-3.1889774E-2],"split_indices":[68,44,27,57,11,81,43,0,0,2147483647,2147483647,0,0,0,0],"split_type":[0,0,0,0,0,0,0,0,0,0,0,0,0,0,0],"sum_hessian":[5.9661163E1,2.9339592E1,3.032157E1,2.3414558E1,5.925033E0,1.9840153E1,1.0481418E1,2.1693117E1,1.7214415E0,2.8971775E0,3.0278559E0,9.654521E0,1.0185632E1,2.0781615E0,8.403256E0],"tree_param":{"num_deleted":"2","num_feature":"86","num_nodes":"15","size_leaf_vector":"0"}},{"base_weights":[-1.14455305E-1,-3.3442435E-1,3.4938094E-1,-4.9784562E-1,-0E0,6.7029923E-1,-1.1494928E-1,3.0731905E-1,-2.3835851E-1,-0E0,7.9059523E-1,-2.1061312E-1,-0E0],"categories":[],"categories_nodes":[],"categories_segments":[],"categories_sizes":[],"default_left":[1,1,1,0,1,1,1,0,0,0,0,1,1],"id":73,"left_children":[1,3,5,-1,7,9,-1,-1,-1,-1,-1,-1,-1],"loss_changes":[4.8940887E0,2.274281E0,2.7387962E0,0E0,8.9326024E-1,8.540592E-1,1.21916845E-1,0E0,0E0,0E0,0E0,0E0,0E0],"parents":[2147483647,0,0,1,1,2,2,4,4,5,5,6,6],"right_children":[2,4,6,-1,8,10,-1,-1,-1,-1,-1,-1,-1],"split_conditions":[1.2937E3,4.7935E2,1.16695E3,-4.9784563E-2,3.2434998E2,5.14E1,-1.1494928E-2,3.0731905E-2,-2.383585E-2,-0E0,7.905953E-2,-2.1061312E-2,-0E0],"split_indices":[43,72,55,0,61,67,9,0,0,0,0,2147483647,2147483647],"split_type":[0,0,0,0,0,0,0,0,0,0,0,0,0],"sum_hessian":[4.596875E1,3.2833008E1,1.3135742E1,2.3442793E1,9.390214E0,8.778563E0,4.357179E0,5.5406947E0,3.8495193E0,1.3829868E0,7.395576E0,3.3442793E0,1.0129E0],"tree_param":{"num_deleted":"2","num_feature":"86","num_nodes":"13","size_leaf_vector":"0"}},{"base_weights":[-4.136947E-2,-3.7322348E-1,1.5977435E-1,-0E0,-4.4659686E-1,4.7020462E-1,-6.8713695E-2,-0E0,-4.8452505E-1,-1.0112692E-2,7.760915E-1,4.2768773E-1,-2.8244582E-1],"categories":[],"categories_nodes":[],"categories_segments":[],"categories_sizes":[],"default_left":[1,1,1,0,1,1,1,1,1,0,0,0,0],"id":74,"left_children":[1,3,5,-1,-1,9,11,-1,-1,-1,-1,-1,-1],"loss_changes":[3.7815018E0,9.716518E-1,2.671562E0,0E0,4.7793198E-1,3.0304272E0,1.7993588E0,0E0,0E0,0E0,0E0,0E0,0E0],"parents":[2147483647,0,0,1,1,2,2,4,4,5,5,6,6],"right_children":[2,4,6,-1,-1,10,12,-1,-1,-1,-1,-1,-1],"split_conditions":[3.4695E2,9.335E2,1.2675E2,-0E0,-4.4659685E-2,2.766E2,1.4635E2,-0E0,-4.8452508E-2,-1.0112692E-3,7.760915E-2,4.2768773E-2,-2.8244583E-2],"split_indices":[46,38,73,0,42,29,26,2147483647,2147483647,0,0,0,0],"split_type":[0,0,0,0,0,0,0,0,0,0,0,0,0],"sum_hessian":[5.1560314E1,2.1011265E1,3.0549047E1,1.7668283E0,1.9244436E1,1.4359088E1,1.618996E1,1.0095898E0,1.8234848E1,4.6909328E0,9.668155E0,3.163291E0,1.3026669E1],"tree_param":{"num_deleted":"2","num_feature":"86","num_nodes":"13","size_leaf_vector":"0"}},{"base_weights":[1.6276506E-1,-2.6639802E-2,3.9824757E-1,1.8476982E-1,-3.1294912E-1,-0E0,5.953181E-1,-5.991931E-2,4.8181728E-1,1.4843812E-2,-5.124575E-1,-1.9306342E-1,5.833456E-1,-0E0,6.398115E-1],"categories":[],"categories_nodes":[],"categories_segments":[],"categories_sizes":[],"default_left":[1,1,1,1,1,1,1,0,0,0,0,0,0,0,0],"id":75,"left_children":[1,3,5,7,9,11,13,-1,-1,-1,-1,-1,-1,-1,-1],"loss_changes":[3.9490614E0,2.7830236E0,3.042328E0,2.1443713E0,1.8527286E0,1.5910361E0,8.6788845E-1,0E0,0E0,0E0,0E0,0E0,0E0,0E0,0E0],"parents":[2147483647,0,0,1,1,2,2,3,3,4,4,5,5,6,6],"right_children":[2,4,6,8,10,12,14,-1,-1,-1,-1,-1,-1,-1,-1],"split_conditions":[5.7505005E2,6.0615E2,6.908E2,2.5815002E2,3.066E2,2.5905E2,8.559E2,-5.991931E-3,4.8181728E-2,1.4843813E-3,-5.124575E-2,-1.9306343E-2,5.833456E-2,-0E0,6.398115E-2],"split_indices":[54,45,85,66,81,24,79,0,0,0,0,0,0,0,0],"split_type":[0,0,0,0,0,0,0,0,0,0,0,0,0,0,0],"sum_hessian":[7.897134E1,4.1905724E1,3.7065613E1,2.2300816E1,1.9604908E1,1.2446302E1,2.4619312E1,1.0819886E1,1.1480929E1,5.8714213E0,1.3733486E1,9.97268E0,2.4736218E0,1.3191983E0,2.3300114E1],"tree_param":{"num_deleted":"0","num_feature":"86","num_nodes":"15","size_leaf_vector":"0"}},{"base_weights":[-1.389041E-1,-4.0449303E-1,9.901132E-2,1.15318246E-1,-4.681697E-1,4.0106747E-1,-2.78517E-1,-0E0,-5.0020874E-1,-9.9966034E-2,6.392703E-1,-4.0947425E-1,-0E0],"categories":[],"categories_nodes":[],"categories_segments":[],"categories_sizes":[],"default_left":[1,1,1,0,1,1,1,1,1,0,0,1,1],"id":76,"left_children":[1,3,5,-1,-1,9,-1,-1,-1,-1,-1,-1,-1],"loss_changes":[3.681691E0,1.3048592E0,3.2752204E0,0E0,5.58506E-1,2.595789E0,6.88426E-1,0E0,0E0,0E0,0E0,0E0,0E0],"parents":[2147483647,0,0,1,1,2,2,4,4,5,5,6,6],"right_children":[2,4,6,-1,-1,10,-1,-1,-1,-1,-1,-1,-1],"split_conditions":[5.914E2,5.0665E2,1.31E2,1.1531825E-2,-4.681697E-2,3.0525E2,-2.78517E-2,-0E0,-5.0020874E-2,-9.996603E-3,6.392703E-2,-4.0947426E-2,-0E0],"split_indices":[47,45,37,0,7,50,41,2147483647,2147483647,0,0,2147483647,2147483647],"split_type":[0,0,0,0,0,0,0,0,0,0,0,0,0],"sum_hessian":[5.1797615E1,2.6130606E1,2.566701E1,1.0493245E0,2.5081282E1,1.5695597E1,9.971413E0,1.0019234E0,2.407936E1,3.8918161E0,1.1803781E1,8.181756E0,1.789657E0],"tree_param":{"num_deleted":"4","num_feature":"86","num_nodes":"13","size_leaf_vector":"0"}},{"base_weights":[-0E0,2.4065444E-1,-3.537368E-1,5.1826495E-1,-1.10997134E-4,-4.5498314E-1,2.8807782E-2,-3.4042135E-2,7.18522E-1,-3.8401908E-1,1.9870824E-1,-4.9247006E-1,-0E0,2.8946936E-1,-0E0],"categories":[],"categories_nodes":[],"categories_segments":[],"categories_sizes":[],"default_left":[1,1,1,1,1,1,1,0,0,0,0,1,1,1,1],"id":77,"left_children":[1,3,5,7,9,-1,-1,-1,-1,-1,-1,-1,-1,-1,-1],"loss_changes":[4.780554E0,2.854634E0,1.2923727E0,2.718051E0,1.6195731E0,4.468522E-1,2.0317888E-1,0E0,0E0,0E0,0E0,0E0,0E0,0E0,0E0],"parents":[2147483647,0,0,1,1,2,2,3,3,4,4,5,5,6,6],"right_children":[2,4,6,8,10,-1,-1,-1,-1,-1,-1,-1,-1,-1,-1],"split_conditions":[1.6715E2,7.574E2,3.8005E2,2.262E2,3.419E2,-4.5498315E-2,2.8807782E-3,-3.4042136E-3,7.18522E-2,-3.840191E-2,1.9870823E-2,-4.9247008E-2,-0E0,2.8946936E-2,-0E0],"split_indices":[27,5,10,57,10,1,10,0,0,0,0,2147483647,2147483647,2147483647,2147483647],"split_type":[0,0,0,0,0,0,0,0,0,0,0,0,0,0,0],"sum_hessian":[5.4981865E1,3.395597E1,2.1025894E1,1.7165003E1,1.679097E1,1.8542934E1,2.4829602E0,3.4596758E0,1.3705327E1,7.1271205E0,9.663849E0,1.7523434E1,1.0195003E0,1.459281E0,1.0236791E0],"tree_param":{"num_deleted":"4","num_feature":"86","num_nodes":"15","size_leaf_vector":"0"}},{"base_weights":[-1.0335206E-1,3.4398672E-1,-3.257043E-1,5.7020825E-1,-1.5472828E-1,-0E0,-4.877885E-1,-0E0,6.9853204E-1,4.3883198E-1,-1.7953521E-1],"categories":[],"categories_nodes":[],"categories_segments":[],"categories_sizes":[],"default_left":[1,1,1,1,0,1,0,0,0,0,0],"id":78,"left_children":[1,3,5,7,-1,9,-1,-1,-1,-1,-1],"loss_changes":[4.6497054E0,2.1058626E0,2.137425E0,1.0517745E0,0E0,1.0945323E0,0E0,0E0,0E0,0E0,0E0],"parents":[2147483647,0,0,1,1,2,2,3,3,5,5],"right_children":[2,4,6,8,-1,10,-1,-1,-1,-1,-1],"split_conditions":[2.4185E2,7.7935E2,1.77705E3,6.83E2,-1.5472828E-2,3.1055E2,-4.877885E-2,-0E0,6.985321E-2,4.38832E-2,-1.795352E-2],"split_indices":[53,61,52,39,0,61,0,0,0,0,0],"split_type":[0,0,0,0,0,0,0,0,0,0,0],"sum_hessian":[4.4803734E1,1.3200977E1,3.1602757E1,1.036233E1,2.8386464E0,9.08385E0,2.2518906E1,1.6356727E0,8.726658E0,3.5981343E0,5.485716E0],"tree_param":{"num_deleted":"0","num_feature":"86","num_nodes":"11","size_leaf_vector":"0"}},{"base_weights":[-1.2398822E-1,-4.142604E-1,6.571967E-2,-4.8743287E-1,-0E0,6.087862E-1,-5.3159848E-2,-0E0,1.2711453E-1,-0E0,7.704145E-1,-4.3245468E-1,1.8928948E-1],"categories":[],"categories_nodes":[],"categories_segments":[],"categories_sizes":[],"default_left":[1,1,1,0,1,1,1,1,1,1,1,0,0],"id":79,"left_children":[1,3,5,-1,-1,-1,11,-1,-1,-1,-1,-1,-1],"loss_changes":[3.227749E0,9.7400165E-1,2.5312853E0,0E0,3.269862E-2,6.447756E-1,2.5416238E0,0E0,0E0,0E0,0E0,0E0,0E0],"parents":[2147483647,0,0,1,1,2,2,4,4,5,5,6,6],"right_children":[2,4,6,-1,-1,-1,12,-1,-1,-1,-1,-1,-1],"split_conditions":[3.4695E2,1.9561499E3,1.4635E2,-4.874329E-2,-0E0,6.0878623E-2,1.3476499E3,-0E0,1.2711453E-2,-0E0,7.704145E-2,-4.324547E-2,1.8928949E-2],"split_indices":[46,52,26,0,12,65,19,2147483647,2147483647,2147483647,2147483647,0,0],"split_type":[0,0,0,0,0,0,0,0,0,0,0,0,0],"sum_hessian":[5.079122E1,2.1690367E1,2.9100857E1,1.9488726E1,2.20164E0,5.996847E0,2.310401E1,1.1779733E0,1.0236666E0,1.5415109E0,4.455336E0,1.0312194E1,1.2791816E1],"tree_param":{"num_deleted":"4","num_feature":"86","num_nodes":"13","size_leaf_vector":"0"}},{"base_weights":[2.119477E-1,-0E0,4.8891675E-1,-4.097843E-1,2.4595788E-1,-0E0,6.009056E-1,-4.874241E-1,-0E0,-1.0767549E-1,4.641595E-1,1.769872E-1,-2.188961E-1,6.7287374E-1,-0E0],"categories":[],"categories_nodes":[],"categories_segments":[],"categories_sizes":[],"default_left":[1,1,1,1,1,1,1,0,0,0,0,1,1,0,0],"id":80,"left_children":[1,3,5,7,9,-1,13,-1,-1,-1,-1,-1,-1,-1,-1],"loss_changes":[4.8417196E0,4.8447123E0,1.941227E0,9.5540905E-1,2.6992805E0,3.344037E-1,1.1997089E0,0E0,0E0,0E0,0E0,0E0,0E0,0E0,0E0],"parents":[2147483647,0,0,1,1,2,2,3,3,4,4,5,5,6,6],"right_children":[2,4,6,8,10,-1,14,-1,-1,-1,-1,-1,-1,-1,-1],"split_conditions":[7.9125E2,1.3265E2,1.20105E3,6.0905005E2,2.9165E2,-0E0,2.4065E2,-4.874241E-2,-0E0,-1.0767549E-2,4.641595E-2,1.769872E-2,-2.188961E-2,6.728738E-2,-0E0],"split_indices":[69,37,60,54,61,49,48,0,0,0,0,2147483647,2147483647,0,0],"split_type":[0,0,0,0,0,0,0,0,0,0,0,0,0,0,0],"sum_hessian":[8.0414894E1,4.586001E1,3.4554886E1,1.7146196E1,2.871381E1,6.6415296E0,2.7913357E1,1.58471155E1,1.2990799E0,9.401184E0,1.9312628E1,3.8013618E0,2.840168E0,2.4708954E1,3.2044036E0],"tree_param":{"num_deleted":"2","num_feature":"86","num_nodes":"15","size_leaf_vector":"0"}},{"base_weights":[-9.214679E-2,1.4373086E-1,-3.626854E-1,-1.936678E-1,4.283579E-1,-0E0,-4.7905484E-1,8.71076E-3,-3.2820457E-1,6.8737864E-1,-0E0,2.3275845E-1,-2.2436032E-1],"categories":[],"categories_nodes":[],"categories_segments":[],"categories_sizes":[],"default_left":[1,1,1,1,1,1,0,1,1,0,0,1,1],"id":81,"left_children":[1,3,5,-1,9,-1,-1,-1,-1,-1,-1,-1,-1],"loss_changes":[3.377475E0,2.694154E0,1.0076733E0,6.056442E-1,1.9295557E0,4.3008268E-1,0E0,0E0,0E0,0E0,0E0,0E0,0E0],"parents":[2147483647,0,0,1,1,2,2,3,3,4,4,5,5],"right_children":[2,4,6,-1,10,-1,-1,-1,-1,-1,-1,-1,-1],"split_conditions":[4.4955E2,1.1825E2,2.758E2,-1.936678E-2,1.3045001E2,-0E0,-4.7905486E-2,8.7107596E-4,-3.282046E-2,6.8737864E-2,-0E0,2.3275845E-2,-2.2436032E-2],"split_indices":[72,84,6,79,37,68,0,2147483647,2147483647,0,0,2147483647,2147483647],"split_type":[0,0,0,0,0,0,0,0,0,0,0,0,0],"sum_hessian":[4.7678825E1,2.3746809E1,2.3932014E1,9.404665E0,1.4342145E1,6.250668E0,1.7681347E1,1.1608237E0,8.243841E0,9.0419035E0,5.3002415E0,2.8459017E0,3.4047666E0],"tree_param":{"num_deleted":"4","num_feature":"86","num_nodes":"13","size_leaf_vector":"0"}},{"base_weights":[-0E0,2.598359E-1,-3.0074432E-1,5.321223E-1,-4.8383247E-2,3.030558E-1,-4.7495818E-1,-0E0,6.788979E-1,-3.9080548E-1,2.1454436E-1,-0E0,5.9489584E-1,-5.032347E-1,-0E0],"categories":[],"categories_nodes":[],"categories_segments":[],"categories_sizes":[],"default_left":[1,1,1,1,1,1,1,0,0,0,0,0,0,1,1],"id":82,"left_children":[1,3,5,7,9,11,-1,-1,-1,-1,-1,-1,-1,-1,-1],"loss_changes":[4.5690107E0,3.1670754E0,3.1431556E0,1.7364473E0,1.5248151E0,9.314638E-1,3.6723948E-1,0E0,0E0,0E0,0E0,0E0,0E0,0E0,0E0],"parents":[2147483647,0,0,1,1,2,2,3,3,4,4,5,5,6,6],"right_children":[2,4,6,8,